<?xml version="1.0"?>
<opencv_storage>
<opencv_ml_lr>
  <format>3</format>
  <classifier>"Logisitic Regression Classifier"</classifier>
  <alpha>1.0000000000000000e-003</alpha>
  <iterations>10</iterations>
  <norm>1</norm>
  <train_method>0</train_method>
  <learnt_thetas type_id="opencv-matrix">
    <rows>1</rows>
    <cols>785</cols>
    <dt>f</dt>
    <data>
      6.91462856e-006 0. 0. 0. 0. 0. 0. 0. 0. 0. 0. 0. 0. 0. 0.
      -1.87036421e-004 0. 0. 0. 0. 0. 0. 0. 0. 0. 0. 0. 0. 0. 0. 0. 0.
      0. 0. 0. 0. 0. 0. -1.87036421e-004 -1.87036421e-004
      -1.87036421e-004 -1.87036421e-004 -1.87036421e-004
      -1.87036421e-004 -1.87036421e-004 -1.87036421e-004
      -1.87036421e-004 -1.87036421e-004 0. 0. 0. 0. 0. 0. 0. 0. 0. 0. 0.
      0. 0. 0. 0. 0. -1.87036421e-004 -1.87036421e-004 -1.87036421e-004
      -1.87036421e-004 -1.87036421e-004 -1.87036421e-004
      -3.73282266e-004 -5.59529057e-004 -5.59529057e-004
      -7.45775062e-004 -3.73282266e-004 -3.73282266e-004
      -1.87036421e-004 0. 0. 0. 0. 0. 0. 0. 0. 0. 0. 0. 0. 0. 0.
      -1.87036421e-004 -1.87036421e-004 -1.87036421e-004 0.
      -1.86245801e-004 -7.45002297e-004 -9.31249117e-004
      -1.30374264e-003 -1.30374264e-003 -1.11749501e-003
      -9.31231189e-004 -7.44985358e-004 -7.45775062e-004
      -7.45775062e-004 -5.59528184e-004 -3.73282353e-004 0. 0. 0. 0. 0.
      0. 0. 0. 0. 0. 0. -1.87036421e-004 -1.87036421e-004
      -1.87036421e-004 0. -3.72509618e-004 -1.30374299e-003
      -1.48999062e-003 -1.48999062e-003 -1.48999062e-003
      -1.30374392e-003 -1.30374392e-003 -1.30374392e-003
      -1.48999062e-003 -1.30374264e-003 -9.31231189e-004
      -7.45775062e-004 -7.45775062e-004 -3.72491690e-004 0. 0. 0. 0. 0.
      0. 0. 0. 0. -1.87036421e-004 -1.87036421e-004 0. -1.86245801e-004
      -9.31249233e-004 -1.30374299e-003 -1.48999062e-003
      -1.48999924e-003 -1.30375254e-003 -1.11750572e-003
      -7.45012017e-004 -9.31259827e-004 -1.11752353e-003
      -1.11752353e-003 -1.30377035e-003 -1.30374392e-003
      -1.11747894e-003 -1.30451540e-003 -7.45775062e-004
      -3.72491690e-004 -1.86245903e-004 0. 0. 0. 0. 0. 0.
      -1.87036421e-004 -1.87036421e-004 0. -1.86245801e-004
      -9.31249233e-004 -1.48999062e-003 -1.48999924e-003
      -1.11750443e-003 -5.58764033e-004 -3.72518116e-004
      -3.72518116e-004 -1.86272315e-004 -1.86272315e-004
      -3.72518116e-004 -5.58766129e-004 -7.45029829e-004
      -9.31277580e-004 -9.31252143e-004 -1.11747894e-003
      -1.30451540e-003 -7.45775062e-004 -1.86245903e-004 0. 0. 0. 0. 0.
      0. 6.24712673e-004 6.24712673e-004 6.25503308e-004
      -1.19500168e-004 -4.91993851e-004 -6.78250100e-004 6.67373242e-005
      6.25476765e-004 6.25476765e-004 6.25476765e-004 6.25476765e-004
      6.25476765e-004 6.25476765e-004 6.25476765e-004 6.25476765e-004
      6.25476765e-004 2.52965052e-004 6.67192144e-005 6.67352724e-005
      6.67629283e-005 -1.30451540e-003 2.53010570e-004 6.25503191e-004
      8.11749138e-004 0. 8.11749138e-004 8.11749138e-004 6.24712673e-004
      6.24712673e-004 6.25503308e-004 2.52993719e-004 -4.91993851e-004
      -6.78250100e-004 6.67373242e-005 6.25476765e-004 6.25476765e-004
      8.11749138e-004 8.11749138e-004 8.11749138e-004 8.11749138e-004
      8.11749138e-004 8.11749138e-004 8.11749138e-004 6.25476765e-004
      6.25476765e-004 4.39213065e-004 6.67192144e-005 -1.19509612e-004
      -3.06519447e-004 -3.06519389e-004 4.39256430e-004 8.11749138e-004
      0. 0. 8.11749138e-004 6.24712673e-004 -1.87036421e-004
      -5.58755361e-004 -1.11749629e-003 -1.48999924e-003
      -9.31258604e-004 -1.86272315e-004 -1.86272315e-004 2.00895956e-004
      2.00895956e-004 2.00895956e-004 0. 0. 0. 0. 0. 0. 0.
      -3.72536073e-004 -5.58784057e-004 2.52983038e-004 2.53010658e-004
      -1.11826858e-003 -5.58738597e-004 0. 0. 0. 0. -1.87036421e-004
      -1.86245801e-004 -7.45001424e-004 -1.49001507e-003
      -1.30375347e-003 -3.72520037e-004 -1.86272315e-004 0.
      2.00895956e-004 2.00895956e-004 2.00895956e-004 0. 0. 0. 0. 0. 0.
      0. 2.59837951e-004 -1.12698122e-004 8.14787854e-005
      -4.77259775e-004 -6.72183698e-004 -9.31232120e-004 0. 0. 0.
      -1.87036421e-004 4.69159131e-005 -1.30641914e-004 -5.03134739e-004
      -6.58546516e-004 8.64390313e-005 4.58932656e-004 9.05042980e-004
      1.10593892e-003 9.11777897e-004 9.11777897e-004 9.05042980e-004
      9.05042980e-004 9.05042980e-004 9.05042980e-004 9.05042980e-004
      9.02431493e-004 9.02431493e-004 9.02431493e-004 9.02431493e-004
      4.82215488e-004 3.34243843e-004 -3.82309772e-005 -2.25266092e-004
      -6.33882009e-004 3.83017796e-005 0. 0. -1.87036421e-004
      4.69159131e-005 -3.17678408e-004 -1.06190180e-003 -6.58548495e-004
      5.32522914e-004 9.05042980e-004 1.10593892e-003 1.10593892e-003
      1.10593892e-003 1.11952331e-003 1.11952331e-003 1.11952331e-003
      1.11952331e-003 1.11952331e-003 1.11952331e-003 1.32728671e-003
      1.55183533e-003 1.55183533e-003 1.29199727e-003 1.10573357e-003
      9.19461134e-004 3.60738428e-004 -3.40602492e-005 -4.16790514e-004
      3.08447125e-005 0. 0. -1.87036421e-004 -7.45791942e-004
      -1.50114123e-004 -6.70561567e-004 -2.98070867e-004 9.07676062e-004
      1.30168733e-003 1.04184926e-003 1.04184926e-003 1.04184926e-003
      8.40953435e-004 8.40953435e-004 8.40953435e-004 8.40953435e-004
      8.40953435e-004 1.05804484e-003 1.05804484e-003 1.04446081e-003
      1.04446081e-003 1.37354445e-003 1.22033723e-003 8.09542427e-004
      2.42877970e-004 -1.30403001e-004 5.58683969e-005 8.01644113e-004
      5.36847161e-004 0. 1.42047167e-004 -2.08944679e-004
      4.46014092e-005 -3.27875576e-004 4.31759050e-004 1.17677194e-003
      1.17677194e-003 1.17677194e-003 1.17677194e-003 1.37093291e-003
      1.15645269e-003 9.62291611e-004 9.62291611e-004 9.62291611e-004
      9.62291611e-004 9.62291611e-004 7.54528213e-004 5.29979530e-004
      5.29979530e-004 5.29979530e-004 1.42819830e-004 -4.15920920e-004
      -6.02175191e-004 -5.81446860e-004 2.50246012e-005 7.70799525e-004
      5.36847161e-004 2.07763500e-004 3.49810696e-004 -2.08944679e-004
      -1.69878796e-004 -7.66906363e-004 -7.26971302e-006 7.37743045e-004
      5.29979530e-004 5.29979530e-004 5.29979530e-004 5.29979530e-004
      5.29979530e-004 5.29979530e-004 5.29979530e-004 5.29979530e-004
      5.29979530e-004 5.29979530e-004 5.29979530e-004 5.29979530e-004
      5.29979530e-004 2.00895956e-004 -3.72509676e-004 -7.45004509e-004
      -1.11750467e-003 -1.11829489e-003 -5.58738364e-004 0. 0.
      2.07763500e-004 2.07270805e-005 -5.58755361e-004 -1.11752248e-003
      -1.30375347e-003 -5.44116774e-004 1.46500333e-005 2.00895956e-004
      2.00895956e-004 2.00895956e-004 2.00895956e-004 2.00895956e-004
      2.00895956e-004 2.00895956e-004 2.00895956e-004 2.00895956e-004
      2.00895956e-004 2.00895956e-004 0. 0. -1.86245903e-004
      -5.58756466e-004 -9.31276823e-004 -7.45011610e-004
      -1.11829489e-003 -5.58738364e-004 0. 0. 0. -3.73282266e-004
      -5.58755361e-004 -9.31250222e-004 -1.30375347e-003
      -7.45012774e-004 -3.72518174e-004 -1.86272315e-004 0. 0. 0. 0. 0.
      0. 0. 0. 0. 0. 0. -1.86245903e-004 -1.86245903e-004
      -7.45004509e-004 -9.31258837e-004 -1.11829489e-003
      -9.32047202e-004 0. 0. 0. 0. -3.73282266e-004 -5.59546170e-004
      -7.45003286e-004 -1.11750758e-003 -9.31258604e-004
      -3.72518174e-004 -3.72518174e-004 -1.86272315e-004 0. 0. 0. 0. 0.
      0. 0. 0. -1.86245903e-004 -1.86245903e-004 -1.86245903e-004
      -7.45028898e-004 -9.31276823e-004 -1.11750641e-003
      -1.11829489e-003 -7.45774887e-004 0. 0. 0. 0. -3.73282266e-004
      -5.59546170e-004 -5.58755361e-004 -9.31233284e-004
      -7.44987279e-004 -7.45011726e-004 -5.58764033e-004
      -3.72518174e-004 -1.86272315e-004 0. 0. 0. 0. 0. 0.
      -1.86245903e-004 -1.86245903e-004 -3.72518174e-004
      -3.72518174e-004 -1.11752353e-003 -1.49001682e-003
      -1.11829489e-003 -9.32047202e-004 0. 0. 0. 0. 0. 0.
      -3.73282266e-004 -3.72509618e-004 -7.44986406e-004
      -9.31233284e-004 -7.44986290e-004 -9.31258546e-004
      -7.45011726e-004 -5.58764033e-004 -3.72518174e-004
      -1.86272315e-004 -1.86272315e-004 -3.72518174e-004
      -3.72518174e-004 -3.72518174e-004 -3.72518174e-004
      -5.58765139e-004 -5.58765139e-004 -9.31275659e-004
      -1.11752353e-003 -1.11750641e-003 -9.32048133e-004
      -5.59528009e-004 0. 0. 0. 0. 0. 0. -1.87036421e-004
      -5.59546170e-004 -1.86245801e-004 -5.58740634e-004
      -9.31233284e-004 -9.31232120e-004 -9.31258546e-004
      -9.31258546e-004 -7.45010911e-004 -7.45010911e-004
      -7.45010911e-004 -7.45010911e-004 -5.58765139e-004
      -5.58765139e-004 -5.58765139e-004 -7.45010911e-004
      -9.31275543e-004 -1.30376930e-003 -1.11752353e-003
      -7.45775760e-004 -5.59528009e-004 0. 0. 0. 0. 0. 0. 0. 0.
      -3.73300223e-004 -5.59546170e-004 -3.72493785e-004
      -5.58740634e-004 -9.31233284e-004 -7.44986115e-004
      -9.31232120e-004 -9.31258546e-004 -9.31258546e-004
      -9.31258546e-004 -7.45010911e-004 -7.45010911e-004
      -7.45010911e-004 -5.58764907e-004 -1.11752248e-003
      -1.30377035e-003 -9.31251212e-004 -7.45775760e-004
      -5.59528009e-004 0. 0. 0. 0. 0. 0. 0. 0. 0. 0. -3.73300223e-004
      -5.59546170e-004 -5.58740634e-004 -5.58740634e-004
      -5.58740634e-004 -3.72493785e-004 -7.44987337e-004
      -9.31233284e-004 -7.44985242e-004 -7.44985242e-004
      -7.44987337e-004 -7.44987337e-004 -1.11749792e-003
      -1.11749792e-003 -1.11749792e-003 -7.45775760e-004
      -3.73282266e-004 0. 0. 0. 0. 0. 0. 0. 0. 0. 0. 0. -1.86263787e-004
      -3.73300223e-004 -3.73300223e-004 -7.45777157e-004
      -5.58740634e-004 -5.58740634e-004 -3.72493785e-004
      -3.72493785e-004 -3.72493785e-004 -7.44987337e-004
      -9.31251212e-004 -1.11749792e-003 -1.11749792e-003
      -1.30453450e-003 -3.73282266e-004 -3.73282266e-004 0. 0. 0. 0. 0.
      0. 0. 0. 0. 0. 0. 0. 0. -1.86263787e-004 -3.73300223e-004
      -3.73300223e-004 -5.59547043e-004 -5.59547043e-004
      -7.45792815e-004 -7.45792815e-004 -7.45004392e-004
      -9.32040799e-004 -7.45792815e-004 -7.45792815e-004
      -5.59529173e-004 -3.73282266e-004 -1.87036421e-004 0. 0. 0. 0. 0.
      0. 0. 0. 0. 0. 0. 0. 0. 0. 0. 0. -3.73300223e-004 -3.73300223e-004
      -3.73300223e-004 -5.59547043e-004 -5.59547043e-004
      -5.59547043e-004 -5.59547043e-004 -3.73283285e-004
      -1.87036421e-004 -1.87036421e-004 0. 0. 0. 0. 0. 0. 0. 0. 0. 0. 0.
      0. 0. 0. 0. 0. 0. 0. 0. 0. 0. 0. -1.87036421e-004 -1.87036421e-004
      0. 0. 0. 0. 0. 0. 0. 0. 0. 0. 0. 0. 0. 0. 0.</data></learnt_thetas>
  <n_labels type_id="opencv-matrix">
    <rows>2</rows>
    <cols>1</cols>
    <dt>i</dt>
    <data>
      0 1</data></n_labels>
  <o_labels type_id="opencv-matrix">
    <rows>2</rows>
    <cols>1</cols>
    <dt>i</dt>
    <data>
      0 1</data></o_labels></opencv_ml_lr>
</opencv_storage>
