<?xml version="1.0"?>
<opencv_storage>
<opencv_ml_svm>
  <format>3</format>
  <svmType>C_SVC</svmType>
  <kernel>
    <type>LINEAR</type></kernel>
  <C>1.0000000000000001e-001</C>
  <term_criteria><epsilon>1.1920928955078125e-007</epsilon>
    <iterations>1000</iterations></term_criteria>
  <var_count>4896</var_count>
  <class_count>2</class_count>
  <class_labels type_id="opencv-matrix">
    <rows>2</rows>
    <cols>1</cols>
    <dt>i</dt>
    <data>
      1 2</data></class_labels>
  <sv_total>1</sv_total>
  <support_vectors>
    <_>
      2.40721329e-005 2.96237758e-005 3.70939852e-005 4.00592980e-005
      3.10909127e-005 2.56896747e-005 2.06863351e-005 2.12032428e-005
      2.87092989e-005 3.15894686e-005 1.54005229e-005 -4.41285965e-006
      -1.05075687e-005 -2.12320992e-006 6.93080983e-006 1.06019024e-005
      5.64606307e-006 -3.63729214e-007 -5.07380355e-006 -8.32358819e-006
      -9.40257269e-006 -1.31965417e-005 -1.70272488e-005
      -2.07234170e-005 -1.63368004e-005 -5.64996071e-006 1.24869507e-006
      -6.13877728e-006 -2.15964865e-005 -3.39354228e-005
      -3.83334882e-005 -4.05025276e-005 -4.49409272e-005
      -5.45824550e-005 -6.18750637e-005 -6.56829434e-005
      -5.85648449e-005 -5.08628291e-005 -3.74765186e-005
      -1.51239583e-005 4.93416064e-006 1.55579219e-005 2.21834634e-005
      1.33821422e-005 -2.90905496e-006 -1.20939358e-005 -8.99808765e-006
      5.43744136e-006 2.47850694e-005 3.52971365e-005 4.19203752e-005
      4.34090616e-005 4.09881613e-005 3.18513339e-005 2.56808416e-005
      2.36331198e-005 2.61907207e-005 2.18680889e-005 1.65316942e-005
      8.20457990e-006 -4.43871659e-006 -1.00389652e-005 -9.84253893e-006
      -1.39082349e-005 -1.24442759e-005 -8.27765234e-006
      -6.92871981e-006 -4.00864656e-006 1.45958992e-007 5.78502704e-006
      8.83511530e-006 3.76895241e-006 -2.37454671e-007 3.79903753e-007
      1.04927167e-005 1.08078566e-005 8.58703152e-006 1.52908942e-005
      1.68809147e-005 1.06475381e-005 5.01323848e-006 -6.45338048e-007
      -3.56649548e-006 -5.55292445e-006 1.57840461e-007 8.22799302e-006
      1.65563561e-005 2.39593101e-005 2.31305457e-005 1.35897253e-005
      4.40158146e-006 -1.04094852e-006 -4.59314333e-006 -7.50952267e-006
      -7.90876857e-006 -6.24551967e-006 -1.08158456e-005
      -1.37029892e-005 -2.67909090e-005 -2.62014455e-005
      -2.08481615e-005 -1.70345829e-005 -1.91705512e-005
      -2.30338992e-005 -2.09679620e-005 -2.34153977e-005
      -2.23621773e-005 -1.75697405e-005 -1.28845759e-005
      -9.98042560e-006 -2.97013685e-006 4.79993241e-006 4.34427875e-006
      7.76302750e-006 5.95946813e-006 -4.25381404e-006 -1.83962329e-005
      -2.94133115e-005 -2.88443371e-005 -2.38082648e-005
      -1.78762693e-005 -1.62880315e-005 -1.84016644e-005
      -2.04389216e-005 -1.73414755e-005 -1.03476732e-005 9.16511681e-007
      1.55226535e-005 2.84220114e-005 4.05941937e-005 3.71235255e-005
      2.53389408e-005 1.75196437e-005 1.77468355e-005 1.94727290e-005
      1.86626748e-005 2.59924254e-005 3.75269410e-005 4.82484065e-005
      4.88489131e-005 4.81225834e-005 4.83790864e-005 2.97656534e-005
      9.65808795e-006 1.03682278e-005 1.22914662e-005 -7.79759557e-006
      -2.46430118e-005 -2.19840349e-005 -9.17718353e-006
      -2.83063514e-006 -4.07989376e-007 -3.37380743e-006
      -4.53562143e-006 -3.13424925e-006 -2.54854081e-006
      -1.81550752e-006 -2.91347874e-006 -2.09421296e-006
      -2.72024613e-006 1.37064217e-006 1.76651465e-005 3.14699319e-005
      3.11414988e-005 1.46260845e-005 -3.50391383e-006 -1.37693251e-005
      -1.57671566e-005 -2.11060305e-005 -3.02400294e-005
      -4.04879174e-005 -4.27798805e-005 -3.64213556e-005
      -3.14045938e-005 -2.55686282e-005 -1.56257956e-005 2.08385495e-006
      1.55833877e-005 1.95663451e-005 7.96724726e-006 -6.24802624e-006
      -1.54073823e-005 -1.06820571e-005 4.54091833e-006 2.20985676e-005
      3.18440143e-005 4.05652208e-005 4.49552535e-005 4.40105177e-005
      3.68375440e-005 3.20666768e-005 3.35720870e-005 4.02928272e-005
      4.05303326e-005 3.27658345e-005 2.06039076e-005 5.35349682e-006
      -6.01095371e-006 -1.37008055e-005 -2.16699391e-005
      -2.16220469e-005 -1.45593012e-005 -7.07657318e-006 1.52248458e-006
      2.86820273e-006 -2.15166096e-006 -4.30612226e-006 -7.35175900e-006
      -1.16439305e-005 -4.78546372e-006 7.94806965e-006 1.23744112e-005
      1.63400528e-005 2.64650880e-005 3.10240757e-005 2.41873731e-005
      1.42694453e-005 2.29503371e-006 -2.67173709e-006 3.63097820e-006
      1.39372769e-005 2.24623418e-005 2.97136685e-005 3.11194271e-005
      3.08241033e-005 2.21960836e-005 2.16738281e-005 2.17494398e-005
      1.66194877e-005 1.03649982e-005 9.24346023e-006 1.08428876e-005
      1.17765030e-005 7.80154278e-006 -2.53031021e-006 -9.10860217e-006
      -1.79477702e-005 -3.54100885e-005 -4.09312634e-005
      -2.73486021e-005 -2.04388434e-005 -1.76913691e-005
      -8.02234808e-006 -1.21091455e-006 2.81478719e-006 5.55907900e-006
      6.66646838e-006 8.27621079e-006 1.23844056e-005 1.14341792e-005
      7.25656218e-006 -1.13367253e-006 -1.27204585e-005 -2.27506298e-005
      -2.26380816e-005 -1.90292049e-005 -1.29753553e-005
      -6.16570833e-006 -2.05245055e-006 -5.24182633e-006
      -1.07090427e-005 -7.36283391e-006 8.53361689e-006 3.10676551e-005
      4.66343117e-005 6.42595842e-005 6.40490034e-005 4.77107678e-005
      3.11132208e-005 2.99186268e-005 3.08592207e-005 3.04197911e-005
      1.60630698e-005 3.25752299e-005 4.34712201e-005 4.30563632e-005
      4.22078083e-005 3.74443225e-005 5.04545869e-006 -2.35671778e-005
      -1.90183418e-005 -1.13918131e-005 -2.97223687e-005
      -4.66192760e-005 -3.84695632e-005 -3.25229485e-005
      -3.74121882e-005 -3.97362783e-005 -4.65132616e-005
      -4.41763441e-005 -3.73040966e-005 -3.14136305e-005
      -2.51132933e-005 -2.15603359e-005 -2.03381351e-005
      -2.19520334e-005 -1.65614474e-005 4.22168659e-006 2.20220481e-005
      2.73024234e-005 1.11160889e-005 -9.79179640e-006 -2.14462671e-005
      -2.48620727e-005 -3.36586745e-005 -3.56250493e-005
      -2.81966495e-005 -1.87555233e-005 -1.07513843e-005
      -8.10108031e-006 -1.34953216e-005 -1.94026088e-005
      -1.37621619e-005 -6.80833455e-006 -1.04649453e-005
      -2.16941698e-005 -2.89185500e-005 -3.49078400e-005
      -3.29858885e-005 -1.87974838e-005 1.54256236e-006 1.13789210e-005
      2.02484080e-005 2.90254939e-005 3.34712568e-005 3.35826771e-005
      3.60174708e-005 4.31290828e-005 5.68988726e-005 6.40506769e-005
      5.40700894e-005 3.13730598e-005 8.75509068e-006 -2.43887166e-006
      -8.83984831e-006 -1.42836952e-005 -1.46720286e-005
      -4.81993811e-006 3.81846712e-006 1.24150392e-005 1.03420043e-005
      -3.26848885e-006 -1.20691366e-005 -1.37114221e-005
      -1.10920910e-005 -4.30405680e-006 7.44241197e-006 1.59340962e-005
      2.62519407e-005 3.94054368e-005 4.73590371e-005 4.39359501e-005
      2.60308716e-005 1.07199212e-005 3.07469782e-006 1.29618456e-005
      2.93175199e-005 4.01287434e-005 4.46216363e-005 4.36463888e-005
      3.89327288e-005 3.37517340e-005 3.80588899e-005 4.47842067e-005
      4.63548531e-005 4.07428452e-005 3.83155129e-005 4.41593729e-005
      4.29707252e-005 2.61426358e-005 1.47120245e-005 1.40211489e-006
      -1.98270118e-005 -4.14857932e-005 -3.89847846e-005
      -1.88909871e-005 -1.04013552e-005 -6.29432861e-006 6.05501145e-006
      8.06506159e-006 7.94010066e-006 1.35061109e-005 1.40216307e-005
      1.44103897e-005 1.31664801e-005 1.03207685e-005 5.07562072e-006
      -3.94402059e-006 -1.40146331e-005 -1.88186496e-005
      -1.34675056e-005 -9.59224053e-006 -6.70291502e-006
      -1.54582312e-006 4.67392101e-006 6.11391761e-006 1.78810478e-006
      7.65012282e-006 3.09647949e-005 5.66773488e-005 7.03897022e-005
      7.82159332e-005 7.64538199e-005 5.96698919e-005 4.00178324e-005
      2.72815414e-005 2.59056596e-005 2.53315102e-005 4.97338351e-006
      1.78162118e-005 2.40966128e-005 2.00542472e-005 2.15292803e-005
      1.45714184e-005 -1.62399410e-005 -3.97531585e-005 -3.47075547e-005
      -2.44506573e-005 -2.64068913e-005 -2.90703429e-005
      -2.87906569e-005 -3.87794207e-005 -4.79991322e-005
      -4.58887152e-005 -4.76628447e-005 -4.52110326e-005
      -3.87486652e-005 -3.26873705e-005 -2.81319626e-005
      -2.95523932e-005 -3.20078252e-005 -3.55392476e-005
      -2.31230551e-005 1.98695076e-007 1.81652449e-005 1.96502988e-005
      2.52927998e-006 -2.01687253e-005 -3.66811473e-005 -4.52130153e-005
      -5.74510741e-005 -5.74168153e-005 -4.49509134e-005
      -3.17208869e-005 -2.08789079e-005 -1.21763214e-005
      -1.28865877e-005 -1.48798563e-005 -2.34587242e-005
      -2.65407816e-005 -3.93739138e-005 -4.90399143e-005
      -5.22054434e-005 -5.30457874e-005 -4.79057562e-005
      -3.43257925e-005 -1.73161479e-005 -7.04934973e-006
      -1.36735844e-006 2.69837665e-006 6.77564549e-006 9.52665505e-006
      1.72840482e-005 2.55879622e-005 4.89918784e-005 6.37078847e-005
      5.34250794e-005 2.34182826e-005 -4.40228490e-007 -7.76956949e-006
      -8.79538948e-006 -9.45907686e-006 -8.22373477e-006 4.21851837e-007
      4.28415478e-006 1.14406630e-005 1.31044771e-005 2.18549403e-007
      -9.96153267e-006 -1.45151616e-005 -1.16324072e-005
      -1.65635283e-005 -1.80156549e-005 -1.38824826e-005
      -5.15946203e-006 6.72934084e-006 1.60978689e-005 1.54842201e-005
      1.06259058e-005 -1.87529679e-006 -9.24700544e-006 2.70907151e-007
      1.60982290e-005 2.90533317e-005 3.15184370e-005 2.75865568e-005
      1.90722167e-005 1.29955479e-005 1.71705706e-005 2.67274972e-005
      3.32375421e-005 3.37684687e-005 3.50449445e-005 4.48598366e-005
      4.34712019e-005 1.28163356e-005 -5.48024309e-006 -1.74445358e-005
      -3.09682873e-005 -4.40465083e-005 -3.65344677e-005
      -2.60436118e-005 -3.09466632e-005 -2.87213079e-005
      -2.00421509e-005 -2.25816657e-005 -2.41352191e-005
      -1.53853998e-005 -1.30447470e-005 -1.04448973e-005
      -1.33352360e-005 -1.40820266e-005 -1.76925460e-005
      -2.67496525e-005 -3.45337503e-005 -3.36780759e-005
      -2.72933266e-005 -2.54514853e-005 -2.13418352e-005
      -1.48420486e-005 -2.11315182e-006 8.52153153e-006 7.10366157e-006
      7.65526784e-006 2.26858792e-005 4.04039420e-005 4.70742998e-005
      5.43900314e-005 6.10820643e-005 5.69667754e-005 4.50222433e-005
      3.32154705e-005 2.75491566e-005 2.21141927e-005 -6.45630871e-006
      1.08368988e-006 5.75824924e-006 6.45297314e-006 1.25931265e-005
      4.77219646e-006 -1.72775799e-005 -2.83996578e-005 -3.02031767e-005
      -3.03417182e-005 -2.99296280e-005 -2.65749495e-005
      -3.08663111e-005 -4.42202036e-005 -4.60493720e-005
      -4.04679158e-005 -3.91552348e-005 -3.80786623e-005
      -2.90392945e-005 -2.58383552e-005 -2.30076366e-005
      -2.50885005e-005 -2.84265770e-005 -3.16613732e-005
      -1.36622612e-005 1.18079170e-005 2.73939986e-005 2.57688935e-005
      8.01605620e-006 -1.22757183e-005 -3.17680278e-005 -4.37712188e-005
      -5.54212747e-005 -6.27502741e-005 -6.46299814e-005
      -6.48880014e-005 -5.29424178e-005 -3.44466971e-005
      -2.56679141e-005 -1.17654572e-005 -3.73127682e-006
      -1.48482204e-005 -3.20664221e-005 -4.18589661e-005
      -4.22134290e-005 -4.03780177e-005 -3.47701935e-005
      -2.80183631e-005 -1.88991708e-005 -6.81075880e-006
      -1.77097991e-006 -3.90355171e-006 -8.91629588e-006
      -9.80282312e-006 -2.81440452e-006 8.98479266e-006 3.46547276e-005
      5.63925641e-005 5.10004538e-005 2.56443163e-005 2.77097206e-006
      -4.76669993e-006 -7.28174928e-006 -9.20072307e-006
      -8.38004155e-007 9.51884431e-006 1.41273613e-005 1.84367891e-005
      2.03768632e-005 1.19404631e-005 6.02342288e-006 4.31604576e-006
      1.91275126e-006 -1.08289642e-005 -2.55007744e-005 -3.23035347e-005
      -2.92560489e-005 -2.23001425e-005 -1.63874374e-005
      -1.86176840e-005 -1.91918643e-005 -2.54348415e-005
      -2.83846894e-005 -1.84733108e-005 2.93007183e-008 1.51314171e-005
      1.75624937e-005 1.23083664e-005 3.56201122e-006 -9.23765401e-006
      -1.42360013e-005 -1.18231037e-005 -1.00595098e-005
      -2.60867751e-006 1.14205477e-005 2.68263775e-005 2.24390733e-005
      -8.80188327e-006 -3.39012222e-005 -4.19340831e-005
      -4.70417472e-005 -5.61342458e-005 -4.89504127e-005
      -4.25788348e-005 -5.21888251e-005 -5.25960022e-005
      -4.64845580e-005 -4.94185078e-005 -4.93822736e-005
      -4.13153793e-005 -3.81304308e-005 -3.63852378e-005
      -3.54002441e-005 -2.56103303e-005 -2.38497942e-005
      -3.17888589e-005 -4.01969337e-005 -3.78625737e-005
      -2.52883947e-005 -1.78363007e-005 -1.12693442e-005
      -6.61444983e-006 2.33986520e-006 7.03521937e-006 -7.84307031e-006
      -2.06374079e-005 -4.07586322e-006 2.07245030e-005 2.74925842e-005
      3.12840348e-005 4.27311206e-005 5.94556004e-005 6.45822729e-005
      5.01924624e-005 2.72598845e-005 1.24961944e-005 -1.06839152e-005
      -9.91537217e-006 -7.12275050e-006 -9.73535771e-006
      -1.95265443e-006 -1.14215959e-006 -7.42062639e-006
      -7.13462850e-006 -8.81699634e-006 -1.71219745e-005
      -2.34502513e-005 -2.22188773e-005 -2.68207586e-005
      -4.06088584e-005 -4.49922736e-005 -4.60771080e-005
      -3.92096772e-005 -3.43273205e-005 -2.56021412e-005
      -2.18829500e-005 -2.14161882e-005 -2.31657668e-005
      -2.36880423e-005 -2.42111491e-005 -2.18770197e-006 2.16438766e-005
      3.44622749e-005 3.42427229e-005 2.33969458e-005 4.93987500e-006
      -1.59023257e-005 -3.01215732e-005 -3.27267589e-005
      -3.94790768e-005 -5.10441678e-005 -6.18659542e-005
      -5.11051658e-005 -3.50544506e-005 -2.63674046e-005
      -9.34284526e-006 9.86655323e-006 2.81312327e-006 -7.28521900e-006
      -1.35750806e-005 -1.71059655e-005 -1.79446342e-005
      -1.68253864e-005 -1.62563065e-005 -4.23000256e-006 2.79955202e-006
      3.62550850e-006 -3.65354140e-006 -1.38321611e-005 -1.79071485e-005
      -9.67562028e-006 4.87120178e-006 3.00749052e-005 4.88103651e-005
      5.07956756e-005 3.63813306e-005 1.92200569e-005 7.38770177e-006
      -4.71780169e-007 -2.35231596e-006 2.88985143e-006 1.61296539e-005
      2.37607092e-005 2.60687666e-005 2.21440096e-005 1.37206180e-005
      1.17815598e-005 1.70292678e-005 1.46681386e-005 3.85655824e-007
      -1.09864832e-005 -1.10486490e-005 -7.46610158e-006
      -8.12006147e-006 -1.34735401e-005 -2.20770326e-005
      -2.49465684e-005 -3.10024298e-005 -3.37416677e-005
      -2.41264825e-005 -1.82340477e-006 2.07102203e-005 2.52546706e-005
      2.25083786e-005 1.40072252e-005 -6.54117730e-006 -3.31694573e-005
      -4.84424309e-005 -5.02721014e-005 -3.70074049e-005
      -1.20423765e-005 5.41274358e-006 3.80414036e-007 -1.78083301e-005
      -3.18167295e-005 -4.06203071e-005 -4.92482359e-005
      -5.95073579e-005 -5.31034239e-005 -4.25634607e-005
      -4.48190403e-005 -4.90200800e-005 -4.67660102e-005
      -4.38749048e-005 -4.17650990e-005 -4.13481030e-005
      -4.38727911e-005 -4.17738811e-005 -2.53846829e-005
      -1.09683560e-005 -4.16012244e-006 -6.25825305e-006
      -8.86967700e-006 -6.12538406e-006 2.33359401e-006 9.33506726e-006
      2.40355917e-006 -1.10172380e-006 -1.18862681e-006 -6.50418997e-007
      -1.53920610e-005 -2.45479278e-005 -3.47377181e-006 1.91980344e-005
      1.83359880e-005 1.77787133e-005 3.28276583e-005 5.40873916e-005
      6.13338707e-005 3.92902039e-005 8.95715766e-006 -6.32315550e-006
      -9.17685065e-006 -8.73628323e-006 -1.22744286e-005
      -2.13024869e-005 -1.71192351e-005 -7.54886560e-006 1.23535824e-006
      1.70820113e-005 1.41637747e-005 -3.26559120e-006 -1.72032360e-005
      -9.39838264e-006 2.11733254e-006 -6.53317011e-006 -1.86658490e-005
      -2.73725163e-005 -2.72389207e-005 -2.52653135e-005
      -2.12624727e-005 -2.20977654e-005 -2.31348949e-005
      -2.80686691e-005 -2.68234980e-005 -1.82355161e-005 3.60359059e-006
      2.60674824e-005 3.85285784e-005 4.37804047e-005 3.91071553e-005
      1.92501157e-005 -2.36075061e-006 -1.30857434e-005 -8.30664248e-006
      -1.60470499e-005 -2.72380148e-005 -3.73477124e-005
      -3.42615858e-005 -2.81987504e-005 -2.43169688e-005
      -1.71626380e-005 -4.35342372e-006 -1.98388716e-006
      -2.53655548e-006 -5.38544418e-006 -9.03602904e-006
      -7.33438901e-006 3.11323265e-006 8.87452006e-006 1.22496804e-005
      7.05606635e-006 -2.26937937e-006 -1.24641983e-005 -1.89699531e-005
      -1.89403218e-005 -1.13353562e-005 8.49220143e-008 2.24673349e-005
      3.82222097e-005 4.19573989e-005 3.68178517e-005 2.68671592e-005
      1.48873369e-005 6.69119663e-006 3.96731639e-006 5.21554875e-006
      1.52743032e-005 2.45738192e-005 2.98112154e-005 2.60278430e-005
      2.04746939e-005 1.93537289e-005 1.78550199e-005 1.28620422e-005
      7.95802919e-007 -3.69604635e-007 1.33004087e-005 2.72742000e-005
      2.44443490e-005 1.03403518e-005 -1.56338797e-006 -8.41775545e-006
      -1.62242141e-005 -2.04298594e-005 -1.73397057e-005 5.76443085e-007
      1.64780886e-005 1.88195263e-005 1.88703725e-005 1.40549882e-005
      -6.54651967e-006 -3.76239150e-005 -5.64938673e-005
      -6.05297319e-005 -4.37288036e-005 -1.92017542e-005
      -1.16470901e-005 -8.07470497e-006 -1.12977341e-005
      -1.55916696e-005 -2.29550933e-005 -3.71544302e-005
      -4.57209644e-005 -4.09041859e-005 -2.88195533e-005
      -2.37416461e-005 -2.95263580e-005 -3.37902275e-005
      -3.24051580e-005 -3.11166914e-005 -3.47397836e-005
      -3.18943821e-005 -1.84931359e-005 1.83625832e-006 1.20456998e-005
      1.20249788e-005 7.43872124e-006 1.15034243e-006 -4.68054111e-007
      2.88401498e-006 2.94726374e-006 -2.30814976e-006 -6.35433435e-006
      -7.04500235e-006 3.24417414e-007 -6.61908916e-006 -1.29472182e-005
      5.18504203e-006 2.15547152e-005 1.03663197e-005 -4.84283601e-006
      3.34313086e-007 2.10698890e-005 3.63648760e-005 2.60468260e-005
      5.17562648e-006 -4.51157621e-006 -1.55984617e-006 -2.00114187e-006
      -7.66867288e-006 -2.18185269e-005 -1.97761638e-005
      -8.61138233e-006 3.46823958e-006 2.17019933e-005 2.14476422e-005
      5.76959110e-006 -1.32489213e-005 -3.80099777e-006 2.23157185e-005
      2.07881239e-005 4.72767215e-006 -9.64745414e-006 -1.04272767e-005
      -1.36779399e-005 -1.88311205e-005 -2.61918449e-005
      -2.76345145e-005 -3.45710905e-005 -3.52912757e-005
      -2.12758750e-005 7.44736417e-006 2.87919975e-005 3.76323260e-005
      4.57790047e-005 4.59515941e-005 2.82988531e-005 6.99159955e-006
      -1.07338246e-006 3.40309271e-006 -7.04345484e-006 -1.81019041e-005
      -2.28196841e-005 -3.12236043e-005 -3.59543919e-005
      -3.33067510e-005 -3.85137682e-005 -3.00246957e-005
      -2.07299199e-005 -1.79234339e-005 -1.65660840e-005
      -9.27182282e-006 9.78551043e-007 1.32670812e-005 1.97193604e-005
      1.55301150e-005 4.13255111e-006 -1.45860467e-005 -2.03495129e-005
      -1.14058666e-005 -1.94711873e-007 1.03516850e-005 1.83170032e-005
      2.00189934e-005 3.24342836e-005 3.57971330e-005 3.58735160e-005
      3.21169537e-005 2.33518404e-005 9.71873669e-006 2.90525645e-006
      8.03236253e-006 1.91996623e-005 2.69695665e-005 2.83624486e-005
      2.40869504e-005 2.25914300e-005 2.64457231e-005 2.45762094e-005
      1.04812561e-005 4.36265373e-006 7.14542693e-006 2.30491241e-005
      4.45158221e-005 4.51331616e-005 2.52132759e-005 9.24177584e-006
      -1.92615084e-006 -8.03710918e-006 -1.25746528e-005
      -9.67276173e-006 4.60700630e-006 1.23159061e-005 7.40182213e-006
      6.32268711e-006 3.86844431e-006 -4.97299288e-006 -1.51573449e-005
      -2.03542368e-005 -2.49106724e-005 -1.32323430e-005 4.39432506e-006
      1.23338145e-006 -3.60664558e-006 -4.55474634e-007 5.30874331e-007
      -5.33254706e-006 -1.80944717e-005 -1.70700532e-005
      -1.66776299e-005 -1.93947562e-005 -1.83919183e-005
      -1.76861013e-005 -2.21546034e-005 -2.10691633e-005
      -1.49856996e-005 -1.87443620e-005 -2.21838272e-005
      -1.67400958e-005 -1.12914968e-005 7.27833822e-007 7.21496804e-007
      -7.72356088e-006 -1.41469700e-005 -1.00240095e-005
      -1.93352366e-006 3.94424493e-009 -2.62669528e-006 -1.02636459e-005
      -1.11138570e-005 -1.03594175e-006 -8.17428827e-007
      -2.83479790e-006 8.78327228e-006 7.72767635e-006 -1.86111029e-005
      -3.84913437e-005 -2.42273836e-005 1.56923870e-005 4.19375792e-005
      4.36352348e-005 3.05496396e-005 2.43256382e-005 1.50492697e-005
      1.90606006e-005 1.22604361e-005 -1.12998305e-006 -6.92038384e-007
      8.18397530e-006 2.36720844e-005 3.55098491e-005 2.67401865e-005
      9.77766013e-006 -8.03762850e-006 -6.26606152e-006 1.29303844e-005
      2.78662537e-005 1.95904140e-005 1.50852532e-006 -1.91437402e-006
      -1.05881054e-005 -2.54579045e-005 -2.91268079e-005
      -3.16558944e-005 -3.69431764e-005 -2.81461816e-005
      -5.41087820e-006 2.06754794e-005 3.16465848e-005 3.54082295e-005
      3.32045202e-005 3.38854952e-005 2.75193925e-005 1.59602914e-005
      9.31580325e-006 4.46587001e-006 -1.64480862e-005 -2.75623333e-005
      -2.63494348e-005 -3.41143168e-005 -4.64294135e-005
      -4.98997360e-005 -4.93082443e-005 -4.50393491e-005
      -4.19242206e-005 -3.74624069e-005 -2.31185222e-005
      -8.27431268e-006 9.68445238e-006 2.51892307e-005 2.82535475e-005
      2.14809861e-005 3.99622377e-006 -1.13743135e-005 -8.30247791e-006
      8.69184703e-007 2.04304397e-005 4.40170661e-005 4.55308582e-005
      3.59831465e-005 2.18665027e-005 2.49011719e-005 3.79439443e-005
      3.72002760e-005 2.95765713e-005 1.93163214e-005 1.12692815e-005
      1.54144291e-005 2.68397234e-005 3.57041354e-005 3.63707950e-005
      3.18429375e-005 3.19087521e-005 3.93118862e-005 4.03455342e-005
      3.02770259e-005 2.30180740e-005 1.18203507e-005 1.41340342e-005
      1.54138379e-005 1.07220585e-005 4.74404442e-006 -4.63151252e-007
      -5.68090354e-006 -1.20490022e-005 -1.07004016e-005 1.09492212e-005
      2.11490187e-005 2.40224963e-005 1.74253782e-005 1.43821717e-005
      1.77142010e-005 1.99322203e-005 1.97217742e-005 1.94560325e-005
      2.49606728e-005 2.89148829e-005 2.64798127e-005 1.18522485e-005
      7.31437979e-007 3.34954848e-006 7.86528290e-006 7.05247749e-006
      -6.09862218e-006 -6.62532148e-006 7.04678450e-006 1.03034909e-005
      1.22930317e-006 -2.23985467e-006 -4.61523541e-006 -6.69043084e-006
      -9.27098426e-006 -1.54625050e-005 -1.75641253e-005
      -1.38761070e-005 -8.04968113e-006 -8.83071152e-006
      -3.61561615e-006 -8.78895389e-006 -1.62278084e-005
      -1.29306627e-005 -3.88427907e-006 -3.63865524e-006
      -8.54243297e-007 -6.93100083e-006 -7.00179044e-006 2.36122133e-007
      -2.90438993e-006 -1.08862796e-005 -2.13401236e-007 3.81829204e-006
      -1.74877005e-005 -3.36166049e-005 -1.46479515e-005 2.66498591e-005
      5.69906260e-005 5.93259065e-005 4.17948686e-005 2.78950065e-005
      2.18258429e-005 2.97182560e-005 3.53165269e-005 3.18516832e-005
      3.14880381e-005 3.37838719e-005 4.46342019e-005 5.86067399e-005
      5.54325015e-005 2.60046727e-005 3.68739529e-006 6.88091222e-006
      1.57801023e-005 2.29166180e-005 1.60845175e-005 -2.52856171e-006
      -1.69624855e-006 -1.17809350e-005 -3.38947975e-005
      -4.47978200e-005 -4.75399611e-005 -4.55491063e-005
      -2.51328020e-005 -1.58181820e-006 1.71254960e-005 2.05576398e-005
      2.18841578e-005 1.34623151e-005 1.18554453e-005 1.56166916e-005
      1.25650331e-005 5.40184101e-006 -5.61722482e-006 -2.24061678e-005
      -2.54286606e-005 -1.76727790e-005 -2.57870524e-005
      -3.99614692e-005 -4.45338046e-005 -4.44681173e-005
      -4.01654470e-005 -3.71205715e-005 -2.99165386e-005
      -1.68217339e-005 -3.94323797e-006 1.09551011e-005 2.63955044e-005
      3.25986475e-005 2.64528171e-005 1.40552347e-005 6.37497669e-006
      1.18808739e-005 2.25316999e-005 4.06292602e-005 6.49948270e-005
      6.79873046e-005 3.88321168e-005 1.83884367e-005 1.92656862e-005
      3.04628047e-005 3.14348035e-005 2.63204747e-005 1.45947579e-005
      9.91086654e-006 1.47252185e-005 3.00304837e-005 4.53660286e-005
      4.83862532e-005 4.52187924e-005 4.13245834e-005 3.92418006e-005
      3.56945275e-005 3.21667248e-005 2.71409681e-005 1.14973518e-005
      -7.69358940e-006 -2.86958057e-005 -3.77844590e-005
      -3.12679367e-005 -2.23050065e-005 -1.81549549e-005
      -1.99781534e-005 -5.84428381e-006 2.90357057e-005 3.73152252e-005
      3.24117827e-005 2.79036049e-005 3.68741930e-005 4.49481886e-005
      4.53449247e-005 3.64551161e-005 2.79047308e-005 3.45219960e-005
      3.98773554e-005 2.87604744e-005 5.31345904e-006 -6.17059550e-006
      6.45854971e-006 1.75456607e-005 2.07564171e-005 1.05851159e-005
      4.80583913e-006 1.76271060e-005 2.59375011e-005 1.87344522e-005
      4.66555207e-007 -3.38200266e-006 -5.43370516e-006 -8.13479073e-006
      -8.33175091e-006 -1.13194947e-005 -9.91822435e-006
      -7.45688749e-006 -9.59258887e-006 -1.23217615e-005
      -1.85094559e-005 -1.99439637e-005 -1.04247247e-005 7.03012165e-006
      1.73033004e-005 1.59971569e-005 1.14748646e-005 1.07637125e-005
      1.84982273e-005 1.67519884e-005 6.96012557e-006 1.27865005e-005
      1.72182263e-005 -2.88845808e-006 -2.65920935e-005 -1.82575550e-005
      1.63053210e-005 3.96148462e-005 4.11974033e-005 2.87929797e-005
      1.53600486e-005 2.07644043e-005 3.00422616e-005 3.96526739e-005
      4.04178063e-005 4.32412417e-005 4.19159114e-005 5.37932719e-005
      7.37111113e-005 6.63177634e-005 3.18819293e-005 9.72759608e-006
      1.40888324e-005 2.42391616e-005 3.87671753e-005 3.92090951e-005
      1.36068884e-005 2.47308230e-006 3.14413978e-006 -2.02050505e-005
      -3.83501756e-005 -4.57736496e-005 -4.43375429e-005
      -2.27916953e-005 2.35189736e-006 8.85537611e-006 7.25798600e-006
      7.95176948e-006 2.13667840e-006 5.03942556e-006 1.72725995e-005
      1.88206468e-005 7.56644704e-006 -1.99376882e-006 -1.40133525e-005
      -1.04086294e-005 -7.71590010e-007 -9.70784095e-006
      -2.87450075e-005 -3.37101483e-005 -3.44924010e-005
      -3.50181981e-005 -2.74559134e-005 -1.69735576e-005
      -1.00787447e-005 -1.91907634e-006 1.00667894e-005 2.84144317e-005
      4.48343781e-005 3.91451322e-005 3.11160620e-005 2.56349431e-005
      2.85914630e-005 3.74383962e-005 5.18886482e-005 6.58926219e-005
      6.93625043e-005 4.59393596e-005 3.11419972e-005 3.23940039e-005
      3.48577123e-005 2.53448470e-005 1.09993543e-005 -1.02922222e-005
      -2.10522558e-005 -1.76305803e-005 2.99959112e-007 2.33306964e-005
      3.77652250e-005 4.39296055e-005 4.12548907e-005 3.05419017e-005
      2.21008941e-005 2.47891112e-005 2.65488725e-005 2.83876470e-005
      9.52704613e-006 -2.39792062e-005 -4.62569224e-005 -4.73235159e-005
      -3.44429718e-005 -2.01048097e-005 -1.52164803e-005 7.48450293e-006
      4.18370546e-005 5.04367745e-005 4.24605096e-005 3.92661423e-005
      4.94518281e-005 5.72466088e-005 4.78073489e-005 3.35027944e-005
      2.21030386e-005 2.62405083e-005 2.70509427e-005 1.27279118e-005
      -2.55542545e-006 4.23214669e-006 2.18189653e-005 3.13142082e-005
      2.76449646e-005 1.54163245e-005 8.36790787e-006 1.24762200e-005
      1.11105055e-005 3.22131586e-006 -5.80487358e-006 2.18796708e-006
      -4.81603456e-006 -1.44864307e-005 -1.16870051e-005
      -1.04969859e-005 -1.40101820e-005 -1.51119411e-005
      -1.57248869e-005 -1.68915249e-005 -9.74024260e-006 8.24074505e-006
      3.40730658e-005 5.50261539e-005 5.28683777e-005 3.39581748e-005
      2.26375651e-005 2.41062517e-005 3.36617704e-005 2.60151010e-005
      6.03141689e-006 2.43088175e-006 3.43933561e-006 -1.25497927e-005
      -3.33752942e-005 -2.39540168e-005 1.13090482e-005 3.08255185e-005
      3.17927988e-005 2.61316054e-005 1.32513105e-005 1.64415669e-005
      2.63523998e-005 3.57658464e-005 3.78199729e-005 4.16797629e-005
      3.55929260e-005 4.42978126e-005 6.74118346e-005 5.60978951e-005
      1.24343633e-005 -1.44743972e-005 -1.34376944e-006 2.51594010e-005
      5.47015807e-005 5.69820768e-005 3.36533121e-005 1.86506404e-005
      2.42123369e-005 1.13972274e-005 -5.63347976e-006 -1.93700671e-005
      -2.19978228e-005 -5.59961472e-006 2.12965897e-005 2.08697602e-005
      1.33483936e-005 1.69021241e-005 2.30198675e-005 2.90824119e-005
      3.17410959e-005 2.48523520e-005 1.02762115e-005 5.20114872e-006
      -2.59438281e-007 6.21366689e-006 1.42917070e-005 2.06573304e-006
      -1.88046033e-005 -2.41089565e-005 -2.26345874e-005
      -1.74439338e-005 -7.58724627e-006 -3.82820645e-006
      -6.03952230e-006 -6.18412560e-006 4.46790909e-006 2.28039262e-005
      3.89814377e-005 4.16467483e-005 3.79049561e-005 3.77681390e-005
      4.20766155e-005 5.07235454e-005 6.07460570e-005 6.43880267e-005
      6.18522754e-005 4.78934380e-005 2.93097055e-005 2.43443446e-005
      2.22172148e-005 7.86484816e-006 -1.03672855e-005 -2.99829171e-005
      -4.14458664e-005 -3.53997639e-005 -1.09561097e-005 1.79136969e-005
      3.45282315e-005 3.50766131e-005 2.06207314e-005 -6.34568505e-006
      -2.06122695e-005 -2.47252574e-005 -1.38352025e-005 1.24551734e-005
      2.39558103e-005 9.34480886e-006 -1.51776594e-005 -3.00943157e-005
      -1.76680078e-005 5.49171455e-006 1.18929274e-005 2.67881751e-005
      4.85190612e-005 5.22482260e-005 4.96358480e-005 4.67361388e-005
      5.18734487e-005 4.87585748e-005 3.83283841e-005 2.60841553e-005
      1.32484884e-005 1.18280850e-005 7.76455454e-006 -3.85949170e-006
      -5.43447368e-006 1.33246422e-005 2.82749406e-005 2.86142113e-005
      2.00668346e-005 1.34956053e-005 1.59844894e-005 1.33716421e-005
      -2.42905980e-006 -1.79762810e-005 -1.89252551e-005
      -9.43728173e-006 -6.34943854e-006 -7.76597517e-006
      -8.36497020e-006 -9.32507555e-006 -8.59604188e-006
      -8.72979763e-006 -7.12857229e-007 8.25987263e-006 1.77473939e-005
      4.15697687e-005 6.94298142e-005 6.95667622e-005 4.65809826e-005
      1.77964866e-005 -1.68255883e-006 6.57834062e-006 1.97675072e-005
      1.38893047e-005 3.06276229e-006 7.68082737e-006 4.01595298e-006
      -1.56881142e-005 -2.50386347e-005 -7.27069619e-006 2.64842220e-005
      3.83562474e-005 3.58251273e-005 2.83645168e-005 1.22942174e-005
      1.49300668e-005 2.41815123e-005 2.95222071e-005 3.36087869e-005
      3.65632695e-005 2.76850551e-005 3.35931400e-005 5.66300187e-005
      5.30192519e-005 1.30573335e-005 -2.53830822e-005 -2.44275052e-005
      1.65414167e-005 5.71576056e-005 5.86940514e-005 3.67767425e-005
      1.73655480e-005 1.42401614e-005 1.39404856e-005 8.16219745e-006
      -2.35287530e-006 -1.13735814e-005 -1.35165052e-007 3.22471387e-005
      2.88386891e-005 2.13814292e-005 2.67086452e-005 3.91952890e-005
      5.02104631e-005 4.95049717e-005 3.16597179e-005 7.49552873e-006
      6.89613671e-007 5.41569420e-007 5.75119384e-006 7.84249460e-006
      1.27301576e-006 -1.21976100e-005 -1.32386140e-005 -8.67300150e-006
      2.48213297e-007 -1.31182685e-006 -6.53533698e-006 -1.50624110e-005
      -2.40606423e-005 -2.04183725e-005 1.64434209e-006 2.29746056e-005
      3.17798294e-005 3.31557349e-005 3.63986328e-005 3.50217451e-005
      3.54231888e-005 3.99921919e-005 4.01742909e-005 3.95907991e-005
      4.00123390e-005 2.98277828e-005 2.41698326e-005 1.86827074e-005
      -3.68712517e-006 -2.49514105e-005 -3.50943010e-005
      -3.87379259e-005 -3.92084985e-005 -1.47420569e-005 1.09560697e-005
      2.51296151e-005 1.41479450e-005 -1.72849941e-005 -4.50316074e-005
      -5.44225841e-005 -5.34313440e-005 -3.73483817e-005
      -4.51992810e-006 2.07548401e-005 2.07491339e-005 -4.53312532e-006
      -2.68161948e-005 -1.89179955e-005 -2.86211161e-006 5.19635887e-006
      1.74801498e-005 3.53743199e-005 4.33795904e-005 4.41604934e-005
      3.95308598e-005 4.45782644e-005 3.86630709e-005 2.84335183e-005
      1.76223020e-005 1.13285978e-005 1.30404433e-005 7.55926703e-006
      -6.29108672e-006 -8.49599473e-006 -1.21250196e-006 1.45120011e-005
      1.80923889e-005 1.11270638e-005 1.76877575e-006 -4.34694175e-006
      -8.21149024e-006 -1.75116584e-005 -2.23409061e-005
      -2.06135282e-005 -8.99814313e-006 4.76627565e-006 1.20057566e-005
      5.01261502e-006 -1.23734208e-005 -1.68178321e-005 -1.32572359e-005
      -6.59795342e-006 8.15089879e-006 2.48730830e-005 4.20907236e-005
      5.74975311e-005 4.38614552e-005 1.66097634e-005 -7.00295232e-006
      -2.20813072e-005 -8.70998429e-006 6.53421148e-006 2.45809269e-006
      2.43057889e-006 1.53379297e-005 1.35152750e-005 -8.90458796e-006
      -1.79885428e-005 -3.15586453e-006 2.25349795e-005 2.62731810e-005
      2.23565021e-005 1.31932438e-005 2.33117262e-007 1.82484359e-006
      1.18328899e-005 1.54649915e-005 1.75842779e-005 2.07405865e-005
      1.76215617e-005 2.65836206e-005 4.94310116e-005 4.90245329e-005
      2.58387663e-005 -6.99688098e-006 -1.08809618e-005 1.91402814e-005
      5.27713455e-005 5.32542035e-005 2.99675103e-005 -6.93157460e-007
      -5.59336786e-006 -2.10030203e-006 -2.63148263e-006
      -1.75716207e-006 -8.63188052e-006 1.78398568e-006 3.85412168e-005
      4.15030227e-005 3.40884108e-005 2.74320646e-005 2.59791850e-005
      4.13168054e-005 4.68858489e-005 2.49334735e-005 -3.17573722e-006
      -1.26730156e-005 -7.23688891e-006 -2.56226622e-006
      -3.70707016e-006 -5.48896742e-006 -1.05424051e-005
      -8.22814491e-006 3.36656922e-006 2.83383793e-006 -1.00291008e-005
      -2.52875689e-005 -3.51668823e-005 -4.44505022e-005
      -4.42984347e-005 -2.33983465e-005 3.50714060e-007 2.01034072e-005
      1.91369527e-005 1.67585113e-005 1.23481714e-005 1.24068929e-005
      1.86763809e-005 2.58764358e-005 2.89305117e-005 2.84311845e-005
      2.36174601e-005 2.04812113e-005 9.11645475e-006 -2.28045847e-005
      -4.58573231e-005 -4.71512139e-005 -3.98619377e-005
      -2.53841536e-005 9.09231585e-006 3.39123071e-005 3.60602171e-005
      4.83376198e-006 -4.22153353e-005 -7.44304270e-005 -8.13793959e-005
      -7.23551566e-005 -5.68705400e-005 -3.27525413e-005
      -1.58270213e-005 -1.21594312e-005 -3.69568843e-005
      -5.67972929e-005 -4.69824772e-005 -3.19161009e-005
      -2.52759310e-005 -1.68469669e-005 3.54283134e-006 1.68760198e-005
      1.80773604e-005 1.68731076e-005 2.69860266e-005 3.72739451e-005
      3.84170889e-005 3.67042885e-005 3.36520134e-005 2.71186891e-005
      1.44060623e-005 9.11121617e-007 3.35701338e-006 1.36472345e-005
      1.64989942e-005 9.39543770e-006 -6.33047102e-006 -2.12812829e-005
      -2.80181030e-005 -2.66949210e-005 -2.11743572e-005
      -1.43389943e-005 -1.23611198e-005 -4.71789372e-006 6.24620907e-006
      1.28327820e-005 8.12411963e-006 -1.17544478e-005 -2.81217890e-005
      -2.66575644e-005 -7.80716618e-006 1.08534587e-005 2.41142570e-005
      3.02508306e-005 2.86018185e-005 1.40293223e-005 -3.36246757e-007
      -1.06772804e-005 -1.99060978e-005 -1.24544922e-005
      -7.89021396e-006 -1.73393819e-005 -1.90708797e-005 1.06091079e-006
      4.22301991e-006 -1.47027877e-005 -1.84340042e-005 4.27836895e-008
      2.50501944e-005 3.23640234e-005 2.94156271e-005 2.03705258e-005
      9.92341484e-006 -1.14792419e-005 -1.90361698e-006 -4.03015019e-006
      -3.09151233e-006 6.40567168e-006 7.67477650e-006 1.81382002e-005
      3.32775817e-005 2.47828539e-005 1.16188858e-005 -7.49926312e-006
      -8.19977231e-006 1.44224323e-005 5.07273362e-005 5.84202971e-005
      2.23422867e-005 -1.67204271e-005 -2.96650796e-005 -3.37852289e-005
      -2.50893590e-005 -7.26611120e-007 9.55107589e-006 2.29022644e-005
      5.40391411e-005 6.53705501e-005 5.30838479e-005 3.00995544e-005
      2.03766631e-005 3.84669875e-005 4.44095567e-005 2.14779357e-005
      -7.83733230e-006 -2.43050090e-005 -1.16104338e-005 1.99874580e-006
      4.71084650e-006 5.90464879e-006 -1.10991584e-006 -3.38540372e-006
      5.18217666e-006 7.60510693e-006 6.27676172e-007 -1.67797862e-005
      -4.04342863e-005 -5.49878896e-005 -4.98072259e-005
      -3.13213204e-005 -1.72142154e-005 -3.53573250e-006
      -9.69307166e-006 -1.18671551e-005 -3.27372049e-006 6.86306475e-006
      1.87829501e-005 2.97865627e-005 3.59778278e-005 3.49731381e-005
      3.16486330e-005 2.15722011e-005 7.99528698e-006 -2.14754036e-005
      -4.84038246e-005 -5.45936891e-005 -4.80734197e-005
      -2.53334492e-005 1.79227554e-005 4.38887946e-005 3.33886310e-005
      -1.13815522e-005 -6.07960646e-005 -8.94414188e-005
      -9.79150791e-005 -8.54331229e-005 -7.06706342e-005
      -5.95497004e-005 -5.04420495e-005 -4.67965147e-005
      -5.83121691e-005 -6.44328393e-005 -5.24069364e-005
      -4.59495095e-005 -5.05754761e-005 -5.78223917e-005
      -4.82461037e-005 -3.69518093e-005 -2.29210564e-005
      -1.03693546e-005 1.24886665e-005 4.39556825e-005 6.16568941e-005
      6.04069646e-005 4.69336192e-005 2.65583276e-005 8.35418359e-006
      -2.86376849e-006 2.80986569e-006 1.42655126e-005 5.88738021e-006
      -3.00141983e-006 -1.06923435e-005 -1.99948627e-005
      -3.66833629e-005 -4.47868297e-005 -3.50846713e-005
      -2.17052675e-005 -1.33418480e-005 -1.42480567e-005
      -1.56502138e-005 -7.56463032e-006 5.40683800e-007 -1.05727286e-005
      -2.83340214e-005 -2.86905797e-005 -5.72519684e-006 1.06620519e-005
      1.82274653e-005 1.17859372e-005 -7.43370720e-007 -1.62967845e-005
      -2.28675053e-005 -1.96510427e-005 -2.47882581e-005
      -2.31202757e-005 -2.40027675e-005 -3.13202363e-005
      -3.12256234e-005 -1.11535815e-006 1.47956662e-005 1.15292296e-005
      1.53872934e-005 3.46416855e-005 5.45677904e-005 5.69223266e-005
      4.68953003e-005 2.84650650e-005 1.35002492e-005 -5.60006129e-006
      -3.20292838e-006 -8.87721217e-006 -8.44812985e-006 1.57068496e-006
      1.10224278e-006 5.83281053e-006 1.42560375e-005 3.49733853e-007
      -1.37069783e-005 -2.22711642e-005 -1.45737758e-005 5.99281248e-006
      3.48183494e-005 5.15676220e-005 2.33935370e-005 -1.27500052e-005
      -4.15346112e-005 -4.66065358e-005 -2.71793924e-005
      -3.33071512e-006 -2.83705344e-006 1.17830168e-005 5.59303735e-005
      6.38383353e-005 4.04940620e-005 1.08388831e-005 7.70641236e-006
      3.74315459e-005 4.69572005e-005 2.22742146e-005 -1.42257231e-005
      -2.49813693e-005 -1.17807576e-005 4.09271024e-006 1.29006103e-005
      1.85548197e-005 1.57279210e-005 1.15594712e-005 1.35235596e-005
      1.85274239e-005 1.11431827e-005 -3.26664781e-006 -2.71607714e-005
      -5.31313817e-005 -6.61536251e-005 -5.88103758e-005
      -4.01785364e-005 -2.84223370e-005 -3.00173888e-005
      -2.95023438e-005 -1.64446083e-005 1.48659274e-006 2.08484435e-005
      4.08143460e-005 5.72404679e-005 6.51669179e-005 5.03773663e-005
      2.76671053e-005 7.95201868e-006 -2.13129260e-005 -5.17856315e-005
      -6.15641111e-005 -5.72226454e-005 -4.19529824e-005
      -6.81780875e-006 1.38375017e-005 6.52714243e-006 -2.51173660e-005
      -5.56553969e-005 -6.90271481e-005 -7.27362640e-005
      -5.74887999e-005 -4.40033364e-005 -4.53292123e-005
      -5.04037926e-005 -5.27328230e-005 -5.76182138e-005
      -5.87790200e-005 -5.12757542e-005 -4.32496927e-005
      -5.70597440e-005 -7.55601941e-005 -7.87237441e-005
      -6.94520058e-005 -4.86265089e-005 -3.08620329e-005
      -8.56162114e-006 1.72924920e-005 3.97284020e-005 4.09692402e-005
      2.57254542e-005 9.94866605e-006 -2.37183212e-006 -1.17173331e-005
      -6.18860213e-006 4.30166074e-006 -8.66947357e-006 -1.95367647e-005
      -2.46069685e-005 -3.01828150e-005 -4.77929534e-005
      -5.86251663e-005 -4.18723794e-005 -2.11693678e-005
      -1.30133449e-005 -2.49137847e-005 -3.95754068e-005
      -2.70534347e-005 -1.56860824e-005 -1.73838798e-005
      -1.83660432e-005 -6.11431824e-006 1.15615994e-005 1.74298202e-005
      1.75478544e-005 -4.80575750e-007 -2.53196140e-005 -3.34692522e-005
      -2.58726377e-005 -1.42093468e-005 -1.19570122e-005
      -6.35523520e-006 -1.95259508e-006 -5.92417655e-006
      -6.11359792e-006 2.59918033e-005 4.07495609e-005 3.29237264e-005
      3.44539549e-005 4.80429626e-005 6.01327047e-005 5.71519558e-005
      4.05621395e-005 1.98216967e-005 6.27158397e-006 2.86019458e-005
      1.68798160e-005 -1.31301738e-006 4.04846196e-006 1.78540613e-005
      8.14930718e-006 1.30857843e-005 2.94531201e-005 1.58375333e-005
      -2.62168078e-006 -1.67310300e-005 -7.52661549e-007 1.89458278e-005
      3.23302556e-005 2.82669953e-005 8.93872129e-006 -8.89634339e-006
      -2.83014069e-005 -4.50792941e-005 -3.17894446e-005
      -1.53245401e-005 -1.97416703e-005 -3.63027289e-006 2.16680219e-005
      2.48649139e-005 8.69566429e-006 -1.58832299e-005 -6.03915851e-006
      3.35724108e-005 5.06577489e-005 2.44956609e-005 -8.56993938e-006
      -1.08969462e-005 1.44550759e-005 3.03932993e-005 2.99970561e-005
      3.11685981e-005 3.25001165e-005 2.62919839e-005 2.95175614e-005
      3.63206054e-005 2.57303764e-005 3.78612594e-006 -2.59907611e-005
      -5.52983292e-005 -7.44624340e-005 -7.52521591e-005
      -6.22818916e-005 -5.01865361e-005 -4.03718259e-005
      -3.02189528e-005 -1.28148586e-005 7.38784593e-006 2.97409933e-005
      5.42441703e-005 7.48255188e-005 7.83055293e-005 5.86625465e-005
      2.84116904e-005 4.84522332e-007 -3.43763495e-005 -5.51279991e-005
      -5.47903874e-005 -4.69605293e-005 -3.72938375e-005
      -1.50857450e-005 1.11521504e-005 1.16000811e-005 -1.11649742e-005
      -1.75101140e-005 -1.44080113e-005 -1.82822387e-005
      -8.23278606e-006 -1.87262447e-006 -4.99562111e-006
      -1.87639871e-005 -2.35939533e-005 -3.16235528e-005
      -3.84319719e-005 -3.45678454e-005 -3.11481745e-005
      -4.82024079e-005 -6.87080319e-005 -7.85809389e-005
      -6.22887310e-005 -4.02766709e-005 -3.89514607e-005
      -4.49396684e-005 -4.22616940e-005 -2.78816806e-005
      -2.01132061e-005 -2.70212167e-005 -2.61857585e-005
      -1.62755186e-005 -1.16519177e-005 -1.10066949e-005
      -2.12874384e-005 -3.55317388e-005 -4.19294774e-005
      -3.70176749e-005 -3.39193502e-005 -4.23834572e-005
      -5.62902678e-005 -3.83077931e-005 -1.17848331e-005
      -9.43614214e-006 -2.31766408e-005 -3.00480715e-005
      -1.38141640e-005 -2.61220436e-007 -8.24839572e-006
      -2.95327186e-006 2.19134654e-005 3.03694706e-005 1.75144505e-005
      9.35558617e-008 -1.18833132e-005 -2.07850917e-005 -1.69015075e-005
      8.16631527e-008 1.19835813e-005 1.28655192e-005 1.33224803e-005
      2.04515218e-005 1.92190982e-005 2.16111421e-005 4.40710173e-005
      5.08413141e-005 3.42425956e-005 2.90603602e-005 4.62140924e-005
      5.72318240e-005 4.46687409e-005 3.23046224e-005 1.72925447e-005
      3.21889934e-006 4.61479685e-005 2.79786036e-005 1.03152888e-005
      1.76049980e-005 2.25675212e-005 1.07799233e-005 2.45641349e-005
      5.06275610e-005 5.02713556e-005 1.85294139e-005 2.32825869e-006
      2.15510699e-005 4.07274347e-005 4.54286092e-005 2.85302012e-005
      -4.78419497e-006 -7.21713195e-006 -1.68626975e-005
      -2.17037195e-005 -1.23400587e-005 -3.89628394e-006
      -1.59055417e-005 -1.40809479e-005 3.63726485e-007 1.89852938e-006
      -1.14201866e-005 -2.96904636e-005 -1.06721836e-005 3.31902811e-005
      4.62990392e-005 2.19238063e-005 -8.68059487e-006 6.83515054e-006
      3.27622729e-005 4.34114518e-005 3.52910938e-005 3.52635834e-005
      3.78718250e-005 3.71938550e-005 4.01359976e-005 3.83387051e-005
      2.63086040e-005 6.63172341e-006 -2.21628179e-005 -5.47865384e-005
      -7.11927569e-005 -7.02800317e-005 -6.86541680e-005
      -6.25365356e-005 -4.32133529e-005 -1.44677633e-005 8.74127818e-006
      1.56468504e-005 2.51705933e-005 5.04802701e-005 7.60368857e-005
      8.22778456e-005 7.12947949e-005 4.39283940e-005 1.26069926e-005
      -2.64109967e-005 -4.90996536e-005 -4.95096319e-005
      -4.12713853e-005 -4.44088255e-005 -2.37214135e-005 1.09055709e-005
      1.82858439e-005 -1.43311149e-006 7.93144750e-007 1.30307817e-005
      1.21437752e-005 1.97493609e-005 2.31115991e-005 1.53949713e-005
      7.08320567e-006 8.70399072e-006 -5.80410506e-006 -2.06642690e-005
      -2.26099182e-005 -1.82899694e-005 -2.36574215e-005
      -3.57426252e-005 -3.97088916e-005 -3.36001176e-005
      -3.71575443e-005 -5.80592314e-005 -6.73628456e-005
      -5.48512362e-005 -4.19868484e-005 -5.10151549e-005
      -6.26683250e-005 -4.00514400e-005 -4.31308172e-006
      -4.75326658e-007 -1.52014245e-005 -3.48817775e-005
      -4.27807681e-005 -4.91758401e-005 -3.79030535e-005
      -1.75444584e-005 -1.47919463e-005 -2.98164814e-005
      -2.83726677e-005 -1.04271439e-005 -1.06289617e-005
      -1.08061513e-005 -3.63895151e-006 1.57786089e-005 2.24621890e-005
      7.92383526e-006 1.64340545e-005 4.43881909e-005 3.64259940e-005
      7.95564210e-006 -1.96799956e-005 -1.71757274e-005 -1.76153628e-006
      -3.29766158e-006 3.47261221e-007 1.26785390e-005 1.59031169e-005
      1.84371493e-005 2.78916050e-005 3.36827652e-005 3.90152709e-005
      6.07665570e-005 6.65114494e-005 3.38894060e-005 2.42260085e-005
      3.83461520e-005 5.17724220e-005 4.04111015e-005 2.79628730e-005
      1.23281479e-005 -1.64175788e-006 4.20163378e-005 2.52348964e-005
      1.70121184e-005 2.51626170e-005 2.12847954e-005 1.86558964e-006
      2.04282260e-005 5.99605883e-005 7.40564137e-005 3.90691894e-005
      1.85235822e-005 3.55291304e-005 5.31010082e-005 5.27990196e-005
      3.74935917e-005 8.99353290e-006 -4.02835849e-006 -2.95693303e-006
      6.71276439e-006 2.34178096e-005 2.09474310e-005 -7.71283794e-006
      -1.35306000e-005 4.23832807e-006 3.03987872e-006 -1.52366520e-005
      -3.47464884e-005 -1.63212026e-005 2.66314164e-005 4.29380198e-005
      2.24810065e-005 -3.00274428e-006 1.06939760e-005 3.11873264e-005
      3.50170812e-005 2.02420088e-005 2.39169785e-005 3.61358289e-005
      3.69216687e-005 3.02310909e-005 2.03400687e-005 1.11498030e-005
      6.67508493e-006 -7.19577065e-006 -3.23690037e-005 -5.61677116e-005
      -5.77192041e-005 -4.61912350e-005 -3.82082653e-005
      -2.98082632e-005 -1.12748248e-005 1.03473203e-005 1.68041151e-005
      2.19325229e-005 4.26838924e-005 7.11508255e-005 7.60983821e-005
      6.90575907e-005 4.22874982e-005 1.24671797e-005 -2.26563807e-005
      -4.32117158e-005 -5.14718595e-005 -5.12233892e-005
      -4.80526287e-005 -2.55201285e-005 1.43405005e-005 3.12186967e-005
      1.30536682e-005 5.35734557e-007 6.20534237e-008 2.95515815e-006
      1.74602174e-005 2.36346496e-005 2.12563536e-005 1.81099585e-005
      1.84119035e-005 3.59028263e-006 -1.54932786e-005 -1.30144372e-005
      -4.00182444e-006 -4.82570340e-006 -1.02901749e-005
      -1.16187703e-005 -1.77856127e-005 -4.33776804e-005
      -5.72714634e-005 -3.97712538e-005 -1.62916476e-005
      -1.35982164e-005 -2.60117176e-005 -3.58958496e-005
      -2.72243433e-005 -7.32916033e-006 3.00950859e-007 -8.05912441e-006
      -1.25514362e-005 -1.94491586e-005 -2.85305687e-005
      -1.49563448e-005 8.29010423e-006 1.28141628e-005 8.97799396e-007
      -7.73871761e-006 -8.67373183e-006 -1.01332953e-005
      -2.56186991e-006 1.08178283e-005 2.47689113e-005 2.17827837e-005
      1.71263055e-005 3.85843232e-005 5.71691271e-005 4.49474937e-005
      8.85312784e-006 -2.03047821e-005 -2.13665826e-005 -2.54161591e-006
      1.51040308e-006 5.01098043e-007 -1.36126846e-006 2.24481073e-006
      1.46832463e-005 3.14021236e-005 3.24690991e-005 3.24482571e-005
      5.54290855e-005 5.75590275e-005 2.33079136e-005 5.62542573e-006
      1.47634964e-005 3.13686178e-005 2.51806796e-005 9.93860158e-006
      -6.47029765e-006 -2.02259489e-005 3.22037304e-005 2.19478370e-005
      2.00279992e-005 2.68086569e-005 1.67411945e-005 -5.56760415e-006
      1.05545851e-005 5.23646559e-005 7.50960535e-005 5.32699887e-005
      3.26754853e-005 4.17140327e-005 6.06130961e-005 6.39677965e-005
      5.04139316e-005 3.01404580e-005 1.56797760e-005 2.33336268e-005
      3.20187683e-005 3.80995443e-005 2.94192268e-005 -3.65109668e-006
      -9.17432681e-006 1.48037034e-005 1.74310208e-005 -4.94583082e-006
      -2.95322843e-005 -2.22331382e-005 1.75476052e-005 4.57016067e-005
      3.76395001e-005 1.17140071e-005 1.00633551e-005 1.99915503e-005
      1.39968379e-005 -6.04824390e-006 -3.76367507e-006 1.59063002e-005
      1.88958657e-005 1.07411697e-005 5.24594043e-006 4.57100623e-006
      1.21655057e-005 1.33327976e-005 1.03030266e-006 -1.57518280e-005
      -1.80661882e-005 -1.88438262e-005 -2.53124181e-005
      -2.14934716e-005 -1.72433156e-005 -6.88050977e-006
      -2.58652653e-006 3.93324808e-006 2.35974130e-005 4.65661687e-005
      4.69992265e-005 3.90806454e-005 1.83569082e-005 1.63321511e-006
      -1.78064583e-005 -3.56240016e-005 -5.27968332e-005
      -5.36634652e-005 -4.33122623e-005 -2.02503488e-005 1.35343507e-005
      4.25629405e-005 3.66691020e-005 1.45368213e-005 -7.98396741e-007
      3.06498055e-006 1.69782670e-005 2.28284880e-005 2.61940040e-005
      2.46424715e-005 1.98341459e-005 -8.78582159e-006 -3.28052010e-005
      -1.97807822e-005 3.42164640e-007 -1.00489046e-006 -1.98879188e-005
      -3.21320731e-005 -3.07059418e-005 -4.61926829e-005
      -3.92022412e-005 8.60212185e-006 4.98616282e-005 3.70684356e-005
      2.46982199e-006 -2.05456618e-005 -3.00373031e-005 -2.72239031e-005
      -1.27483354e-005 2.11072415e-006 1.33381154e-005 8.55293638e-006
      1.67636188e-006 4.11888004e-006 1.48884410e-005 1.62625529e-005
      1.32230725e-005 1.21265357e-005 1.66320242e-005 8.50937704e-006
      7.60335070e-006 1.63615387e-005 1.77447728e-005 2.22925951e-006
      1.17581576e-005 4.31781482e-005 5.53377322e-005 4.49373547e-005
      2.35532552e-005 4.02889555e-006 -1.88097317e-006 1.34760711e-007
      -1.04371957e-005 -9.57216980e-006 -1.60220097e-005
      -2.14364391e-005 -3.21085167e-006 1.29885020e-005 3.70909811e-006
      -1.48199058e-006 1.41219853e-005 1.26800351e-005 -1.26385949e-005
      -2.22958151e-005 -5.58601369e-006 2.10545131e-005 2.76856190e-005
      1.73563858e-005 7.00755481e-006 2.24598034e-006 2.83562840e-005
      1.95074335e-005 1.55852540e-005 1.90703813e-005 1.16677456e-005
      -9.58962937e-006 5.53124528e-006 4.65509038e-005 6.23842570e-005
      4.54161782e-005 3.07231967e-005 3.72032591e-005 5.60735680e-005
      6.14572709e-005 5.13099985e-005 3.91415160e-005 3.95638926e-005
      4.50600783e-005 4.35108232e-005 3.72895774e-005 2.84604685e-005
      5.43680289e-006 3.54009126e-006 2.35864318e-005 2.26710581e-005
      3.19755827e-006 -1.73540357e-005 -1.19559754e-005 2.68726017e-005
      5.85594062e-005 5.67832176e-005 3.16093610e-005 1.89054572e-005
      2.56877993e-005 8.36709205e-006 -2.83642185e-005 -4.11185792e-005
      -1.72241052e-005 2.27310079e-006 2.40570034e-006 -4.62264143e-006
      -2.21461255e-006 1.61838416e-005 2.82725778e-005 2.36185824e-005
      7.69232338e-006 5.76824334e-007 1.46561615e-006 -7.43453654e-007
      -6.36164486e-007 -7.62962918e-006 -1.44778414e-005
      -2.49243185e-005 -2.08316833e-005 -1.62891433e-006 1.91740764e-005
      2.15081564e-005 1.34305792e-005 -3.99906781e-007 -7.89381829e-006
      -2.26247412e-005 -3.63083018e-005 -4.97236251e-005
      -5.13244522e-005 -3.66709464e-005 -8.61008721e-006 2.37033582e-005
      5.49024808e-005 5.71500059e-005 3.50284936e-005 1.55902417e-005
      1.69096729e-005 1.70021995e-005 1.26881032e-005 1.48996796e-005
      2.06129334e-005 1.34881602e-005 -2.63751717e-005 -4.85791243e-005
      -2.39764559e-005 -9.67156393e-006 -2.97746792e-005
      -5.30885882e-005 -5.92429569e-005 -4.80751478e-005
      -3.89381676e-005 -1.00359021e-005 4.79567643e-005 7.48491075e-005
      4.43644713e-005 -2.97385009e-006 -2.53592207e-005 -3.44573564e-005
      -3.66729546e-005 -1.91997624e-005 -7.13546342e-007 1.28778665e-005
      1.41042628e-005 8.80798871e-006 2.69517204e-006 3.23385120e-006
      1.07554861e-005 2.43473714e-005 2.82987148e-005 2.98391478e-005
      1.22771344e-005 7.56887630e-006 1.72437012e-005 1.17306672e-005
      -9.16229965e-006 2.45177671e-006 3.19370993e-005 4.37274393e-005
      3.57370554e-005 3.11070798e-005 2.64724804e-005 2.06377299e-005
      1.06006482e-005 -1.39605636e-005 -3.06758484e-005 -3.03743236e-005
      -2.57125357e-005 -1.51207678e-005 -1.11798672e-005
      -2.44752882e-005 -2.46570326e-005 -1.66324037e-006
      -4.84317115e-006 -2.32044495e-005 -1.87341993e-005 8.07357810e-006
      3.84975865e-005 5.07491313e-005 4.16920411e-005 2.86853683e-005
      2.14106076e-005 2.34374093e-005 1.49421912e-005 7.41580016e-006
      1.00346160e-005 1.13120586e-006 -2.08744605e-005 -8.48013860e-006
      2.81600114e-005 3.51723938e-005 1.50699898e-005 6.27278996e-006
      1.34832362e-005 2.86791237e-005 3.52732241e-005 2.81300308e-005
      1.57746381e-005 1.53031197e-005 2.14747761e-005 2.70144974e-005
      2.88348892e-005 2.64621194e-005 2.01834246e-005 2.69597913e-005
      3.91592148e-005 3.68129113e-005 1.89846123e-005 9.19307695e-006
      1.96154888e-005 4.73313521e-005 6.25886896e-005 5.98459919e-005
      4.52015011e-005 4.67905666e-005 4.46353952e-005 1.04908377e-005
      -3.86758584e-005 -5.40986584e-005 -2.44807998e-005 1.33410765e-006
      -3.68480892e-006 -1.17510708e-005 -2.72876332e-006 1.50956212e-005
      2.16295302e-005 1.48574436e-005 4.63155220e-006 4.79368236e-006
      1.09662524e-005 1.49038160e-005 1.82955955e-005 7.04970944e-006
      -8.11214977e-006 -2.39697893e-005 -2.69340871e-005
      -1.47155952e-005 8.33491587e-009 1.19541946e-005 1.15167231e-005
      6.71944690e-006 2.38438838e-006 -1.39076055e-005 -3.30104194e-005
      -5.19282912e-005 -5.30539728e-005 -3.54421500e-005
      -1.43229386e-007 3.04201694e-005 5.01774157e-005 4.96620196e-005
      3.52176648e-005 2.28340268e-005 1.60296859e-005 1.17507307e-005
      -3.27979023e-007 3.81791278e-006 1.56828646e-005 1.26013165e-005
      -1.83581651e-005 -3.95775460e-005 -2.80865333e-005
      -2.79259020e-005 -4.77257308e-005 -6.01332104e-005
      -5.78706386e-005 -4.91289866e-005 -1.41152532e-005 3.28517453e-005
      7.18975571e-005 6.21335857e-005 2.09178379e-005 -1.75196492e-005
      -2.44228067e-005 -3.13624805e-005 -3.27183552e-005
      -1.21888088e-005 2.90754474e-006 7.84132681e-006 5.53565042e-006
      -5.61191337e-006 -7.17298008e-006 3.33149819e-006 1.66845057e-005
      3.19677019e-005 2.57773991e-005 1.62688848e-005 3.56471128e-006
      1.19890865e-005 2.49775712e-005 2.16062217e-005 4.33444939e-006
      6.71491898e-006 2.76419742e-005 3.76955613e-005 3.40028164e-005
      3.54010990e-005 3.59795959e-005 2.59563585e-005 1.24911212e-005
      -7.34264859e-006 -3.08392846e-005 -4.13493763e-005
      -3.80167585e-005 -1.83881984e-005 -1.15698231e-005
      -2.34259533e-005 -1.74480083e-005 7.35581716e-006 4.44913849e-006
      -1.29688515e-005 -1.67568378e-005 -1.90559888e-006 2.63086840e-005
      4.46886879e-005 4.30544424e-005 3.22487358e-005 2.07783050e-005
      2.11636452e-005 1.64800476e-005 1.38913947e-005 1.43099614e-005
      2.75952381e-008 -2.48744800e-005 -1.51396971e-005 1.52042876e-005
      1.60835825e-005 -7.91705133e-006 -2.42830411e-005 -1.39982039e-005
      5.78325171e-006 1.50479837e-005 1.03214170e-005 -6.34824619e-006
      -1.46181792e-005 -1.24556686e-006 6.45294813e-006 7.84419444e-006
      1.36103527e-005 1.90207684e-005 3.44502150e-005 4.28960120e-005
      3.96078904e-005 3.28139395e-005 3.34342330e-005 3.99198434e-005
      4.67381797e-005 5.24103089e-005 6.26068068e-005 6.09005583e-005
      6.54555843e-005 5.10820719e-005 1.42866238e-005 -2.84300095e-005
      -3.94730050e-005 -1.55138769e-005 6.74026842e-006 6.97002361e-006
      -2.91973652e-006 -4.52580480e-006 -1.37227074e-009
      -2.46884042e-008 -2.56096996e-006 3.47712557e-007 7.40737278e-006
      1.21883741e-005 1.17039244e-005 1.71023185e-005 8.90401498e-006
      -2.75692719e-006 -9.55491123e-006 -4.97380370e-006 5.67318193e-006
      7.99660029e-006 1.04444616e-005 1.27367202e-005 1.92660627e-005
      2.51087877e-005 7.05116781e-006 -2.15624186e-005 -4.57422357e-005
      -4.98936897e-005 -3.21137159e-005 8.32610658e-006 3.34256474e-005
      3.60034101e-005 2.12094164e-005 1.18681573e-005 3.59353089e-006
      -1.22879410e-005 -2.88946958e-005 -3.65751839e-005
      -2.34395120e-005 6.86343446e-006 1.09407420e-005 -2.09936807e-005
      -4.38759853e-005 -4.03028571e-005 -3.98833872e-005
      -4.90271777e-005 -5.21553084e-005 -4.46830127e-005
      -3.30189287e-005 9.70675865e-006 5.67201459e-005 7.61533520e-005
      4.73140099e-005 6.09702693e-006 -1.76613357e-005 -2.09130249e-005
      -1.84188284e-005 -1.06028137e-005 1.58643263e-006 6.92474850e-006
      6.95696190e-006 3.52531337e-008 -4.03687181e-006 3.87098544e-006
      2.22207655e-005 3.52815914e-005 3.71532587e-005 1.75013283e-005
      1.88262206e-007 -9.65546789e-008 1.87656315e-005 3.86082465e-005
      4.17966730e-005 2.96629878e-005 1.99281803e-005 2.51301444e-005
      2.82634901e-005 3.14274803e-005 3.03441848e-005 2.76240607e-005
      1.67144226e-005 9.79417564e-006 -1.51832552e-007 -1.32034838e-005
      -3.25626388e-005 -4.60705596e-005 -2.84518210e-005
      -1.52801495e-005 -3.21851549e-005 -2.99403528e-005 1.73773321e-006
      1.07924861e-005 -3.34373385e-006 -2.56798503e-005 -2.63804886e-005
      -2.43429486e-006 1.85000972e-005 2.58642413e-005 2.45730098e-005
      1.90361388e-005 2.44867097e-005 2.64600894e-005 3.22608721e-005
      3.35748227e-005 1.45403019e-005 -1.10613273e-005 9.76540719e-007
      3.24806024e-005 2.92174955e-005 3.83227587e-007 -2.45887695e-005
      -4.72736201e-006 2.21348510e-005 2.39431065e-005 1.17634063e-005
      -5.23313338e-006 -1.54032773e-006 9.54793995e-006 1.58430680e-007
      -3.02071794e-006 5.46698493e-006 1.10359888e-005 2.97756469e-005
      3.93798400e-005 3.70050402e-005 3.21574116e-005 3.57627578e-005
      3.77879842e-005 4.09544336e-005 5.05578537e-005 6.35136676e-005
      5.49953911e-005 5.94590347e-005 5.39235953e-005 2.38736993e-005
      -1.25198749e-005 -2.10580893e-005 1.47857770e-006 2.34666077e-005
      2.48823380e-005 7.06259152e-006 1.02992419e-006 1.93775989e-007
      -5.36661719e-006 -6.56687052e-006 1.19962328e-006 5.34402170e-006
      9.43002578e-006 1.46825751e-005 1.17496520e-005 -2.10213648e-006
      -4.80052358e-006 -4.42136638e-007 1.28999973e-005 2.59938897e-005
      2.58336077e-005 2.02654210e-005 1.86396483e-005 2.57883075e-005
      3.35511904e-005 1.34112615e-005 -1.56046481e-005 -3.54133517e-005
      -3.57112331e-005 -1.70384374e-005 1.83177326e-005 4.06162108e-005
      3.72985851e-005 1.32065015e-005 -5.10466725e-006 -2.09050122e-005
      -5.05417702e-005 -7.28389787e-005 -5.99489031e-005
      -3.73527218e-005 -1.07546075e-005 -1.06839416e-005
      -4.15790491e-005 -4.73429172e-005 -3.70559137e-005
      -3.42479143e-005 -3.37962701e-005 -2.04988683e-005
      -7.95449796e-006 -1.17213713e-005 8.36897652e-006 4.15790746e-005
      4.29889587e-005 1.24771095e-005 -8.57532814e-006 -5.67623647e-006
      -5.83946758e-006 -9.03187447e-006 4.35338643e-006 1.84085238e-005
      2.08328420e-005 4.91069704e-006 -7.24539677e-006 3.85979121e-007
      1.23742620e-005 2.79112101e-005 3.46967063e-005 2.79052365e-005
      7.97978373e-006 1.50395138e-007 -2.35602829e-006 1.28699148e-005
      3.24799221e-005 4.19274438e-005 3.34593205e-005 1.50931437e-005
      1.16088859e-006 2.45721094e-006 9.61237401e-006 6.03548779e-006
      1.65167748e-007 -1.56830151e-006 6.43919066e-006 3.14665249e-006
      -4.01936131e-006 -1.77152797e-005 -3.34351316e-005
      -2.69521661e-005 -2.14676147e-005 -3.43250576e-005
      -3.44553519e-005 -4.15344584e-006 1.37475108e-005 5.37763481e-006
      -2.78683710e-005 -3.08940180e-005 -8.69346695e-006 5.79226798e-006
      1.00372481e-005 1.05338977e-005 4.64485765e-006 2.06001296e-005
      3.70755042e-005 4.54593865e-005 4.01597172e-005 1.61535281e-005
      -1.62640799e-006 1.45103886e-005 3.87831460e-005 3.45703702e-005
      1.36902272e-005 -5.34594528e-006 9.61415026e-006 3.09803654e-005
      2.65511735e-005 4.97449901e-006 -1.21371095e-005 -5.75668946e-006
      -7.54691655e-007 -1.87834612e-005 -2.38881985e-005
      -1.33011199e-005 -2.00000341e-006 9.63991079e-006 2.13391468e-005
      1.87507194e-005 1.83621632e-005 2.80423301e-005 2.90304870e-005
      3.03731558e-005 2.51557140e-005 3.00393276e-005 4.05930841e-005
      5.31759870e-005 4.77867070e-005 2.18576115e-005 -1.14463883e-005
      -2.19550457e-005 -1.70645956e-006 1.91065119e-005 8.42011923e-006
      -9.38034736e-006 -4.49584422e-006 6.79252253e-007 -7.38821745e-006
      -1.17738364e-005 -9.43855139e-006 -3.67139387e-006 1.02140029e-006
      5.20117237e-006 8.37571679e-006 1.63292987e-006 -3.80812367e-006
      8.29781675e-006 2.92209988e-005 3.60955491e-005 3.28399692e-005
      3.13120981e-005 2.26212687e-005 2.59606932e-005 2.78361349e-005
      1.21644507e-005 -8.61042099e-006 -2.27465844e-005 -1.80167499e-005
      -1.38580754e-006 2.53319868e-005 4.50213192e-005 3.51462986e-005
      1.54114805e-005 5.76194680e-006 -1.65230740e-005 -5.00873248e-005
      -6.58206627e-005 -4.81292664e-005 -2.80962468e-005
      -2.42947863e-005 -3.14042809e-005 -3.50395276e-005
      -3.86794090e-005 -2.87727471e-005 -2.67168089e-005
      -1.93323012e-005 -6.10613961e-006 -1.81263863e-006 1.33308185e-006
      2.16637927e-005 3.94087729e-005 2.16073349e-005 -1.07494916e-005
      -1.59240244e-005 -6.41846327e-006 8.48280592e-007 -3.80929441e-006
      4.74327408e-006 2.15353666e-005 2.30983223e-005 1.49288371e-005
      1.85868248e-006 -2.17861725e-006 9.29688849e-006 1.63165842e-005
      1.44019123e-005 3.44792988e-006 -2.63886022e-006 -5.48036314e-006
      -1.02303748e-005 -6.17290561e-006 1.08223467e-005 2.50982848e-005
      2.18925798e-005 2.09530776e-006 -2.05639899e-005 -2.90263542e-005
      -2.85154074e-005 -2.01784605e-005 -1.95343073e-005
      -1.62029355e-005 -5.54737426e-006 1.09232815e-006 -6.90065508e-006
      -1.75413916e-005 -2.16985682e-005 -8.78220999e-006
      -9.36220476e-006 -2.85390415e-005 -2.74314516e-005 3.93514599e-009
      9.89386353e-006 -4.12471991e-006 -3.11282274e-005 -3.01021682e-005
      -8.40658959e-006 -3.75616355e-006 2.55957673e-007 3.33174330e-006
      -1.31318675e-005 3.94758717e-006 2.65731887e-005 4.00380522e-005
      3.04749719e-005 2.83027975e-006 -7.43762030e-006 1.34088386e-005
      3.56368109e-005 3.15267243e-005 1.35466980e-005 -8.29545388e-006
      -6.85320356e-006 7.06562469e-006 -6.80000198e-007 -2.53619692e-005
      -4.30513574e-005 -2.44631065e-005 -1.77349939e-005
      -3.68002002e-005 -3.78667282e-005 -2.14023967e-005
      -1.05149420e-005 -7.45292209e-006 -1.45434626e-006 3.18996899e-006
      1.07114001e-005 2.46586551e-005 1.49635243e-005 2.40552231e-006
      -6.88402315e-006 6.02894670e-006 2.65293329e-005 4.15579925e-005
      3.85210988e-005 1.95988196e-005 -1.52430157e-005 -3.47612950e-005
      -2.59318858e-005 -1.19475098e-005 -2.09506979e-005
      -2.41601101e-005 -1.33085641e-005 -1.23952314e-005
      -2.05430479e-005 -1.96920992e-005 -1.71248284e-005
      -1.47975161e-005 -1.57071081e-005 -7.13520467e-006
      -2.05592028e-006 -3.91034109e-006 -5.01796831e-006 5.76389129e-006
      2.17837805e-005 2.86115992e-005 3.18951388e-005 2.79445612e-005
      2.26408611e-005 1.99395436e-005 1.81869382e-005 3.90496098e-006
      -1.01165915e-005 -1.55664457e-005 -8.18031458e-006 1.20667401e-005
      3.11706681e-005 4.04719976e-005 3.26373010e-005 2.26758821e-005
      1.80936986e-005 8.22108450e-006 -4.33914329e-006 -6.29525539e-006
      -8.95838866e-007 -2.95539803e-006 -1.35610853e-005
      -2.59956705e-005 -2.33369519e-005 -2.04250264e-005
      -7.94272455e-006 -8.95996163e-006 -1.80680036e-005
      -1.97300378e-005 -7.35536787e-006 1.16692909e-005 3.55348420e-005
      3.87569089e-005 1.28873207e-005 -1.43982588e-005 -2.95077643e-005
      -2.08423953e-005 -7.34206833e-006 -1.90902983e-006 6.20997935e-006
      2.13864441e-005 1.66356876e-005 8.45963370e-007 -1.46425191e-006
      3.21257016e-006 1.63465629e-005 1.18461730e-005 -5.30273110e-006
      -1.25785782e-005 -1.66534683e-005 -2.14431748e-005
      -3.01066011e-005 -2.28310528e-005 -6.45750424e-006 1.39370659e-005
      2.19971989e-005 6.52408335e-006 -1.99447877e-005 -4.39597898e-005
      -4.57536589e-005 -3.20948529e-005 -2.73865480e-005
      -2.89840646e-005 -2.63923994e-005 -1.94261047e-005
      -1.15927742e-005 -1.04158535e-005 -1.52089833e-005
      -4.35989659e-006 -3.00428587e-006 -2.27921155e-005
      -2.66487186e-005 -4.98989448e-006 2.49446998e-006 -1.53205983e-005
      -3.04559362e-005 -1.94050608e-005 5.19798277e-006 1.52015646e-005
      2.43323539e-005 1.97442714e-005 -8.65408765e-006 -7.70045881e-006
      2.13430631e-005 3.26057343e-005 1.62198630e-005 -8.67420113e-006
      -6.35952892e-006 1.89121329e-005 3.54327749e-005 2.58810578e-005
      2.52427412e-007 -2.94723650e-005 -2.88553711e-005 -1.39928306e-005
      -2.38013836e-005 -5.20096291e-005 -7.13134359e-005
      -4.85714118e-005 -3.40347542e-005 -5.30182078e-005
      -4.67451937e-005 -1.29746750e-005 7.33234174e-007 -4.67827977e-006
      -6.26571500e-006 -8.80170205e-007 4.39059158e-006 9.30054557e-006
      -5.35714298e-006 -5.69194799e-006 -3.12559473e-006 7.40797122e-006
      3.53336873e-005 5.07745681e-005 3.52887619e-005 6.19645834e-006
      -2.55279010e-005 -4.40925833e-005 -5.18081324e-005
      -4.61327400e-005 -3.43730753e-005 -2.18238220e-005
      -2.04312146e-005 -2.27433284e-005 -2.46439959e-005
      -2.10116159e-005 -1.67028738e-005 -1.64203575e-005
      -1.95286430e-005 -1.06093112e-005 -4.21915411e-006
      -5.83331484e-006 -1.69795862e-006 1.36430663e-005 1.62221877e-005
      8.83574012e-006 1.25805336e-005 1.28929432e-005 1.93771757e-005
      1.74751403e-005 1.20574923e-005 2.34795061e-006 -3.48073968e-006
      -3.88236958e-006 8.17888758e-006 2.42047572e-005 3.25523179e-005
      3.11216827e-005 2.19242356e-005 1.98676171e-005 2.05041797e-005
      1.45944960e-005 1.03897810e-005 1.05990557e-005 -9.60848070e-007
      -1.64320754e-005 -3.05196445e-005 -3.23054046e-005
      -2.56558615e-005 -2.22937833e-005 -8.90099273e-006
      -9.51591937e-006 -1.31699117e-005 -1.95199173e-005
      -7.52643246e-006 1.93903143e-005 4.01916259e-005 3.50575247e-005
      9.82140227e-006 -1.74347952e-005 -2.96072903e-005 -2.07977337e-005
      -7.09626966e-006 -2.65798212e-006 2.04218895e-006 1.21462699e-005
      1.11494583e-005 -3.36608741e-006 -8.02742761e-006 1.69790587e-006
      2.44390794e-005 1.97235986e-005 -1.07900642e-005 -2.30807527e-005
      -1.92962143e-005 -2.78417465e-005 -3.89831039e-005
      -3.32305644e-005 -1.49815451e-005 8.92974731e-006 2.73692549e-005
      1.37511615e-005 -1.68108745e-005 -5.10136488e-005 -5.47379277e-005
      -4.03704289e-005 -3.38224672e-005 -4.04997372e-005
      -4.70095874e-005 -3.67979228e-005 -1.38195965e-005
      -9.04270473e-006 -1.47038454e-005 -6.11227233e-006
      -5.34242872e-006 -2.77853869e-005 -3.45323315e-005
      -1.56627411e-005 -8.55129201e-006 -1.61627813e-005
      -2.44726343e-005 -7.19282889e-006 1.87080404e-005 3.27347880e-005
      4.09580134e-005 2.60348315e-005 -1.22204883e-005 -2.09989412e-005
      5.05797789e-006 1.47392921e-005 2.40287318e-006 -1.22158053e-005
      -4.60377669e-006 1.53559267e-005 2.18124842e-005 1.42580802e-005
      -1.92101397e-005 -5.01860195e-005 -3.46110610e-005
      -1.16651863e-005 -3.11229669e-005 -6.98110234e-005
      -8.67352137e-005 -6.25599714e-005 -4.81958814e-005
      -6.07654947e-005 -4.97832807e-005 -1.73470853e-005
      -3.63977824e-006 -1.75407138e-006 -7.84402403e-007 3.68503106e-006
      6.84901806e-006 1.21058292e-005 -2.58238316e-007 -3.59913065e-006
      -2.40421036e-006 1.32158557e-005 4.77913127e-005 5.73526195e-005
      2.50171579e-005 -8.06215758e-006 -3.30668408e-005 -4.80101662e-005
      -5.55750776e-005 -4.69268489e-005 -2.87896528e-005
      -2.16731460e-005 -2.16744265e-005 -2.08862475e-005
      -2.07039047e-005 -1.88672711e-005 -1.40688280e-005
      -5.75652166e-006 -1.04174489e-006 -3.74272781e-006
      -4.08632195e-006 -4.91692072e-006 8.17614364e-007 1.14327831e-005
      8.80243897e-006 1.82316413e-007 4.27350642e-006 1.69429404e-005
      2.89954660e-005 2.62829799e-005 1.16473548e-005 8.29269482e-007
      4.55410259e-007 -2.10440817e-007 7.94527841e-006 2.26352386e-005
      2.64110513e-005 2.46992222e-005 1.71944703e-005 1.41044247e-005
      1.26071809e-005 1.24548467e-006 -1.28821221e-005 -1.89920574e-005
      -3.09083771e-005 -5.00324895e-005 -5.93365439e-005
      -4.43028657e-005 -2.98314681e-005 -3.43265892e-005
      -3.52219686e-005 -4.44626021e-005 -4.23558376e-005
      -3.26100198e-005 -4.26710039e-006 2.53207345e-005 4.15866452e-005
      3.84084888e-005 2.10420640e-005 -3.12915199e-006 -1.29842711e-005
      -9.87288604e-006 -6.13681732e-006 -2.22951144e-006 1.75431683e-006
      -1.23815951e-007 -3.43836700e-006 -9.84971484e-006
      -8.92847584e-006 3.42770818e-006 2.46973850e-005 1.44488140e-005
      -1.71369065e-005 -2.34840099e-005 -1.99772585e-005
      -3.29473878e-005 -4.89896047e-005 -4.57798888e-005
      -2.66796669e-005 -6.48070272e-006 7.75330045e-006 1.98276371e-006
      -2.06526511e-005 -4.68960643e-005 -4.96625144e-005
      -3.53189280e-005 -2.72563775e-005 -3.48108479e-005
      -4.07915904e-005 -2.22440758e-005 6.87997181e-006 1.18743428e-005
      -1.74205161e-006 -4.64499720e-007 -2.09626182e-006
      -2.37324366e-005 -3.18074781e-005 -1.00120142e-005 1.76642573e-006
      9.52171433e-007 -6.79545155e-006 1.53391579e-006 1.67200342e-005
      2.50990506e-005 2.77535964e-005 9.83037626e-006 -2.76463979e-005
      -2.48012711e-005 -1.02861543e-006 7.89390651e-006 -8.12898270e-006
      -2.58722393e-005 -1.79962008e-005 1.06955667e-006 8.40454959e-006
      -1.78803498e-006 -3.26255358e-005 -5.55307015e-005
      -2.76596711e-005 5.75722788e-006 -2.16529352e-005 -6.97837604e-005
      -8.05129675e-005 -6.21268482e-005 -4.99541893e-005
      -6.09118069e-005 -5.08925659e-005 -2.36551368e-005
      -1.45571967e-005 -1.11461204e-005 -1.68392410e-006 8.99887800e-006
      2.05712786e-005 2.19222420e-005 6.24365748e-006 -7.79000857e-006
      -1.72794735e-005 -7.04651256e-006 1.46931625e-005 1.56178849e-005
      -8.34664297e-006 -2.80731965e-005 -4.04377824e-005
      -4.64095720e-005 -4.27618434e-005 -2.46891996e-005
      -1.12611224e-005 -2.03529144e-005 -3.05943904e-005
      -3.30696967e-005 -3.17519407e-005 -3.19009232e-005
      -2.83184527e-005 -1.35691098e-005 1.31861418e-006 -1.81557061e-006
      -1.71724878e-005 -2.78352400e-005 -2.92593577e-005
      -2.29692214e-005 -1.83913999e-005 -9.28186819e-006 4.10378743e-006
      2.02642696e-005 2.54931510e-005 1.80873376e-005 6.22445805e-006
      -4.75557908e-006 -1.13977248e-005 -1.12794423e-005
      -7.03684827e-006 1.30511955e-006 7.43723149e-006 1.55547914e-005
      2.20241182e-005 1.71740357e-005 8.10514302e-006 -1.02333097e-005
      -2.51513447e-005 -3.45578883e-005 -5.17452063e-005
      -6.20967839e-005 -5.73608231e-005 -4.33437745e-005
      -3.98020966e-005 -4.74332519e-005 -4.97859546e-005
      -5.27268494e-005 -4.74689514e-005 -3.36433332e-005
      -6.60132628e-006 1.53624951e-005 2.05636879e-005 1.87069163e-005
      1.03300481e-005 2.89498371e-006 -6.19612229e-006 -6.88729006e-006
      -1.08701161e-005 -1.11166482e-005 -1.03255006e-005
      -1.14052991e-005 -1.30488907e-005 -1.52087860e-005
      -1.31397110e-005 9.73827537e-006 2.89109157e-005 1.71488155e-005
      -2.24344012e-006 -3.85099111e-006 3.40641577e-006 -1.38685937e-005
      -3.70868911e-005 -4.20694196e-005 -2.50668927e-005
      -1.56813458e-005 -1.39816502e-005 -1.27373896e-005
      -2.08226938e-005 -3.23495551e-005 -2.97502247e-005
      -1.39613403e-005 -1.05942740e-006 -5.28313421e-006
      -8.15198928e-006 1.32223859e-005 3.51623603e-005 3.99880955e-005
      1.51994909e-005 1.05483614e-005 1.30300832e-005 -2.00632053e-006
      -8.21866615e-006 1.03889042e-005 1.82555068e-005 1.61508742e-005
      4.46643344e-006 3.79089897e-006 1.55603102e-005 2.11908718e-005
      1.52527537e-005 -9.34691070e-006 -3.98941993e-005 -1.00155357e-005
      1.03695938e-005 1.73889584e-005 -2.10510075e-006 -2.62988324e-005
      -2.58045493e-005 -1.10245310e-005 1.91366962e-006 -1.26926659e-006
      -2.98038503e-005 -4.38163806e-005 -1.28348456e-005 1.32511404e-005
      -8.87511851e-006 -3.79280937e-005 -3.23105960e-005
      -2.71483150e-005 -3.69501468e-005 -5.85029738e-005
      -4.65002377e-005 -2.05671276e-005 -1.19450751e-005
      -1.20660197e-005 -7.03850446e-006 4.88680689e-006 2.95226109e-005
      3.59123806e-005 1.76202466e-005 -1.00216675e-005 -3.08240960e-005
      -2.84467660e-005 -1.94239292e-005 -2.77530980e-005
      -3.37547135e-005 -3.19638093e-005 -3.27100679e-005
      -3.80371348e-005 -3.67081338e-005 -2.07039302e-005
      -9.00038503e-006 -2.24957857e-005 -3.81451100e-005
      -4.55281806e-005 -4.72227584e-005 -4.86393110e-005
      -4.43627869e-005 -2.79875076e-005 -1.28022557e-005
      -1.53685160e-005 -4.07132466e-005 -5.43054193e-005
      -5.14106869e-005 -3.63575200e-005 -2.19240901e-005
      -9.30777446e-007 1.63645145e-005 3.21570769e-005 2.71113495e-005
      1.09444372e-005 -2.95686345e-006 -2.09203154e-005 -3.82655817e-005
      -4.00468671e-005 -3.57696517e-005 -2.50361809e-005
      -1.21410194e-005 3.60366880e-006 1.98041434e-005 2.08934016e-005
      9.51131096e-006 -1.21220182e-005 -2.81963403e-005 -4.29942484e-005
      -6.22217340e-005 -6.13530647e-005 -3.97396034e-005
      -3.25199617e-005 -3.58158068e-005 -3.59863916e-005
      -3.18130733e-005 -2.45930223e-005 -1.69592658e-005
      -8.33075410e-006 -1.96942506e-006 -2.90590742e-006
      -7.24746951e-006 -7.65218192e-006 -9.64274568e-006
      -1.36912504e-005 -1.24040143e-005 -9.07124286e-006
      -1.21156509e-005 -1.63208915e-005 -1.69597661e-005
      -1.41380688e-005 -1.27053145e-005 -1.29650862e-005
      -8.24530889e-006 1.41536912e-005 2.71288282e-005 1.29997752e-005
      -3.87084128e-006 3.12924385e-007 1.28102993e-005 1.87110277e-006
      -1.14457507e-005 -1.90563696e-005 -1.66706031e-005
      -1.89623952e-005 -1.85435874e-005 -1.20443956e-005
      -1.31273555e-005 -1.61553307e-005 -1.11099416e-005 2.80970175e-006
      1.93199467e-005 1.92073858e-005 1.88922750e-005 3.23820386e-005
      3.67439388e-005 2.08229721e-005 -3.11299277e-006 2.85778242e-007
      1.67768831e-005 1.28753863e-005 4.74944409e-006 1.05978825e-005
      8.53907204e-006 3.58785724e-006 3.71176611e-006 7.23425865e-006
      1.07794049e-005 9.30155329e-006 9.82446750e-007 -1.80974166e-005
      -3.87027576e-005 2.22615199e-006 1.43864245e-005 1.50996084e-005
      -4.61984109e-006 -2.08611527e-005 -2.00891682e-005
      -8.18261924e-006 2.37698509e-006 -4.54027577e-006 -3.02991903e-005
      -3.53822543e-005 -3.44161367e-006 1.51520198e-005 -1.40348129e-006
      -1.03662778e-005 9.91928027e-006 1.93409051e-005 -1.06662546e-005
      -3.96107098e-005 -2.70172477e-005 -4.04437833e-006
      -4.52640307e-007 -3.51665358e-006 -1.68220231e-006 1.49936141e-005
      4.02885453e-005 4.12225818e-005 1.23339787e-005 -1.96217698e-005
      -4.12324116e-005 -3.16033693e-005 -2.12511823e-005
      -3.47604109e-005 -3.11528675e-005 -1.89184866e-005
      -1.52375405e-005 -2.37960066e-005 -3.66045278e-005
      -3.64996122e-005 -2.69485226e-005 -3.81908430e-005
      -4.87040816e-005 -5.58369320e-005 -5.38185486e-005
      -5.02528237e-005 -4.81258394e-005 -3.75977725e-005
      -2.74007598e-005 -3.33617281e-005 -4.97039182e-005
      -6.48101995e-005 -5.93095938e-005 -3.70034941e-005
      -1.78436130e-005 1.59549165e-006 2.10909657e-005 3.12992270e-005
      1.62633696e-005 -1.13522046e-005 -3.02170356e-005 -4.87646321e-005
      -6.58146819e-005 -6.83426988e-005 -5.95470810e-005
      -4.37212984e-005 -1.91383151e-005 5.42405996e-006 3.03615343e-005
      3.27870912e-005 7.93990421e-006 -2.30898713e-005 -4.46181293e-005
      -5.91411372e-005 -6.64108084e-005 -5.46558440e-005
      -3.54468939e-005 -2.49414043e-005 -2.15019409e-005
      -1.67344097e-005 -1.02854556e-005 -4.48297897e-006 8.77276307e-006
      1.44742708e-005 4.76889954e-006 -7.73484226e-006 -7.27103679e-006
      -1.10047295e-005 -2.23890765e-005 -2.60300167e-005
      -1.33346648e-005 -6.12816302e-006 -8.62053275e-006
      -1.04535111e-005 -6.72302440e-006 -2.81445773e-006 2.38575666e-007
      4.00041426e-006 7.73508236e-006 1.04184428e-005 2.43104773e-006
      -1.16214105e-005 -1.70719868e-005 -5.22598884e-006 1.02133226e-005
      1.68810548e-005 1.28072288e-005 6.52757217e-006 -3.10549694e-006
      -1.29766677e-005 -1.16837928e-005 -3.98200291e-006 3.82535291e-006
      4.37981882e-008 5.14179362e-007 8.41281144e-006 1.88442500e-005
      2.42296501e-005 3.07111768e-005 3.51821254e-005 2.09389837e-005
      -1.29354039e-005 -2.27853325e-005 -3.27287671e-006 2.19542417e-005
      1.65802685e-005 -1.90783430e-006 -5.69683561e-006 -9.21139872e-006
      -1.28052525e-005 -6.19511684e-006 6.48147716e-006 1.49594007e-005
      1.15610283e-005 -1.92738185e-006 -2.09086902e-005 -3.39981452e-005
      -9.68560130e-007 5.30846864e-006 2.84672228e-006 -1.32445339e-005
      -1.77093898e-005 -7.38134804e-006 2.62402409e-006 6.41479255e-006
      -1.14334780e-005 -3.66339336e-005 -3.33301432e-005
      -1.06570292e-006 1.58153543e-005 1.19796869e-005 1.45798276e-005
      3.36811536e-005 3.80342535e-005 1.35633172e-005 -5.78193931e-006
      1.10550718e-005 2.71739464e-005 2.31169961e-005 1.20606792e-005
      8.69500127e-006 2.06300501e-005 3.75736017e-005 2.75506973e-005
      -7.04046261e-006 -3.82755497e-005 -4.69687220e-005
      -1.94405784e-005 2.41762314e-006 -3.71178157e-006 -2.01132025e-005
      -1.97015634e-005 -1.14512877e-005 -1.15459452e-005
      -2.43489558e-005 -3.60129961e-005 -3.36265221e-005
      -4.44441066e-005 -6.22987427e-005 -7.60885232e-005
      -6.66100605e-005 -4.94387605e-005 -3.97529002e-005
      -3.42868043e-005 -3.81705831e-005 -3.72521899e-005
      -4.79282717e-005 -6.86416679e-005 -6.90241723e-005
      -4.95162458e-005 -2.96656963e-005 -4.78130232e-006 1.84650835e-005
      2.56608801e-005 3.88906346e-006 -3.03845900e-005 -5.02142866e-005
      -5.99913255e-005 -6.73535033e-005 -6.69730216e-005
      -5.36909138e-005 -3.43845350e-005 -7.49622131e-006 2.26072734e-005
      5.58821885e-005 5.56265804e-005 1.39003369e-005 -3.00329812e-005
      -5.82138055e-005 -6.42824598e-005 -5.23088238e-005
      -3.63489744e-005 -2.14629763e-005 -1.35633663e-005
      -1.68346287e-005 -1.92530661e-005 -1.81013238e-005
      -1.34739139e-005 4.23071378e-006 9.05001070e-006 -2.38996108e-006
      2.97013048e-006 3.16198384e-005 4.33512978e-005 2.82998972e-005
      9.53950985e-006 1.46542334e-005 1.58290386e-005 9.19260583e-006
      8.36531399e-006 6.31686271e-006 6.47878824e-006 8.28430802e-006
      1.53681449e-005 1.55486050e-005 -8.42474833e-007 -1.89686743e-005
      -2.07931189e-005 -6.36821642e-006 1.53820656e-005 2.87499934e-005
      3.39383769e-005 2.75840757e-005 2.03859254e-005 4.46210061e-006
      -1.02911217e-005 -1.32763244e-005 -4.59329340e-006 1.15151897e-005
      1.45502527e-005 1.03940101e-005 1.28043712e-005 1.67011567e-005
      2.32265065e-005 3.65391243e-005 3.40913030e-005 1.24380167e-005
      -2.21643913e-005 -2.38279008e-005 5.48835897e-006 2.80180593e-005
      1.13144724e-005 -1.55410835e-005 -2.24927626e-005 -2.09857790e-005
      -1.89741750e-005 -7.05178263e-006 5.94899984e-006 1.25726810e-005
      1.22245920e-005 2.60952152e-006 -1.60378386e-005 -3.21183215e-005
      -8.99473707e-006 -3.77082779e-006 -6.01928787e-006
      -8.20271453e-006 -7.42946804e-006 -1.53230314e-006 4.57149417e-006
      -2.45163415e-006 -1.97177724e-005 -3.16295773e-005
      -2.07361136e-005 6.49678350e-006 1.95161392e-005 1.01201540e-005
      8.91816035e-006 2.48641081e-005 2.64816244e-005 9.69016492e-006
      1.07483947e-005 3.46339912e-005 5.15051906e-005 5.32741760e-005
      4.63803590e-005 3.22310807e-005 2.27680812e-005 1.36297076e-005
      -5.80689448e-006 -3.31549563e-005 -5.73914731e-005
      -4.82943651e-005 -1.26047880e-005 1.92096340e-005 1.46419561e-005
      -2.39938381e-005 -4.10944085e-005 -3.57075369e-005
      -3.35045661e-005 -4.11978617e-005 -4.35268084e-005
      -4.40362965e-005 -6.26990295e-005 -7.81039926e-005
      -8.22515794e-005 -7.26177677e-005 -5.97736544e-005
      -5.06788820e-005 -4.85847231e-005 -3.82222170e-005
      -2.78525276e-005 -3.34707438e-005 -4.67673744e-005
      -5.07605582e-005 -4.71832827e-005 -3.00838783e-005
      -5.71144756e-006 1.19235956e-005 2.55403429e-005 3.50120558e-006
      -2.86281320e-005 -4.39228606e-005 -4.38331881e-005
      -4.84575139e-005 -4.69695042e-005 -3.91217109e-005
      -1.80579409e-005 1.16507890e-005 4.96677894e-005 6.70850204e-005
      5.03778829e-005 1.00792331e-005 -2.06614859e-005 -3.21646548e-005
      -3.22505985e-005 -2.87786315e-005 -2.12733485e-005
      -8.48582113e-006 -5.70738121e-006 -1.93133947e-005
      -2.85474271e-005 -2.14847660e-005 -1.14025506e-005
      -1.84161286e-006 -4.99637190e-006 -1.46343136e-005 4.29163009e-007
      3.94954368e-005 6.86070052e-005 6.69364817e-005 5.28660676e-005
      5.53980572e-005 4.66502861e-005 3.61266793e-005 3.37800848e-005
      2.77456602e-005 2.12195264e-005 2.32234233e-005 2.77040417e-005
      1.95263074e-005 1.14229601e-006 -1.93255401e-005 -2.08020501e-005
      -9.52931373e-007 2.63802067e-005 4.33429886e-005 4.93219559e-005
      4.69526785e-005 2.63681395e-005 -4.06965773e-006 -2.11985825e-005
      -1.96329001e-005 7.60268620e-007 1.87312307e-005 2.35564730e-005
      2.52285081e-005 1.92432672e-005 1.78761711e-005 2.76985284e-005
      4.32507040e-005 4.02891019e-005 2.11695460e-005 -8.20077003e-006
      -4.46720878e-006 1.76189078e-005 2.93306548e-005 6.82984682e-006
      -1.73514836e-005 -2.24920223e-005 -2.60917259e-005
      -2.25390449e-005 -1.19742936e-005 8.71085717e-007 5.61109528e-006
      1.77707670e-006 -8.38752931e-006 -2.62057692e-005 -4.05621831e-005
      -2.12061514e-005 -1.29846030e-005 -1.05108638e-005
      -1.05576519e-005 -1.03253897e-005 -6.39072505e-006
      -2.01714852e-006 -8.35174887e-006 -2.42922433e-005
      -1.98058387e-005 -2.88998058e-006 1.34079901e-005 1.62197339e-005
      6.16970101e-006 2.77040999e-006 1.17818654e-005 1.51121940e-005
      1.12854523e-005 1.94136719e-005 4.21302429e-005 5.57013300e-005
      5.67287389e-005 4.95679160e-005 3.33722855e-005 7.37571145e-006
      -8.58264593e-006 -2.93711619e-005 -4.47984821e-005
      -5.62860769e-005 -4.11064466e-005 -2.04785965e-006 3.44584587e-005
      2.43266895e-005 -1.28655356e-005 -4.84588054e-005 -7.49759347e-005
      -8.59101274e-005 -7.80846894e-005 -5.85864218e-005
      -4.75505913e-005 -5.56486557e-005 -6.16326215e-005
      -6.23627129e-005 -5.82664798e-005 -5.10559257e-005
      -4.57770184e-005 -4.00153222e-005 -2.73968617e-005
      -1.49165417e-005 -1.70180756e-005 -2.13863732e-005
      -1.86731777e-005 -1.54767331e-005 -1.13022270e-005 9.24136714e-007
      2.19298145e-005 3.59034530e-005 1.24605940e-005 -1.82831336e-005
      -2.98775558e-005 -2.75260791e-005 -3.09511524e-005
      -2.98136092e-005 -2.65689250e-005 -1.63750337e-005 1.17529198e-005
      4.62115677e-005 5.46452757e-005 3.29391987e-005 5.75175136e-006
      9.24977087e-007 7.54166558e-006 1.42773979e-005 1.35391538e-005
      1.64140092e-005 2.06348795e-005 1.48752351e-005 -1.64983328e-006
      -8.24567087e-006 -4.96186942e-007 9.38896392e-006 3.40354973e-006
      -8.40192024e-006 -1.60437139e-005 -3.53004566e-006 2.46709806e-005
      5.00279384e-005 5.18836096e-005 4.82559481e-005 5.78041727e-005
      5.56942286e-005 4.56244452e-005 4.45069782e-005 4.17014817e-005
      3.71876631e-005 3.95247662e-005 3.46683810e-005 2.95115860e-005
      1.78131977e-005 8.75533715e-007 -5.17924855e-006 9.42556926e-006
      3.44451291e-005 5.19242130e-005 5.92427750e-005 5.08890735e-005
      2.34535728e-005 -7.53777431e-006 -2.35572770e-005 -1.85809495e-005
      5.22858181e-006 2.57536449e-005 3.53120813e-005 4.00743411e-005
      3.83891274e-005 3.97114345e-005 4.24273967e-005 4.37438903e-005
      3.34813776e-005 1.73128901e-005 2.39132555e-006 1.18455978e-006
      9.74693467e-006 9.76437241e-006 -1.23107511e-005 -2.71793215e-005
      -2.75218172e-005 -3.19149403e-005 -2.90593362e-005
      -2.32564726e-005 -1.83137636e-005 -2.13203202e-005
      -3.07116788e-005 -3.78015793e-005 -4.57465030e-005
      -5.15125430e-005 -3.51618473e-005 -2.58725122e-005
      -1.85870485e-005 -1.05421959e-005 -3.16603246e-006 4.98276040e-006
      8.84262863e-006 2.11535144e-006 -7.58721853e-006 -3.82538974e-006
      6.58061026e-006 1.75670230e-005 2.22840154e-005 2.00199283e-005
      1.92179396e-005 2.19282520e-005 1.83536959e-005 2.01177900e-005
      2.80393742e-005 3.86680404e-005 4.57269343e-005 4.84313496e-005
      4.17592637e-005 2.11318566e-005 3.71269061e-006 -3.60751596e-006
      -1.36268000e-005 -2.04860462e-005 -2.54486422e-005
      -1.52127650e-005 1.35566224e-005 4.26592269e-005 3.69773588e-005
      9.37990262e-006 -1.59778465e-005 -4.14986571e-005 -5.75116101e-005
      -5.15683823e-005 -2.66655879e-005 -1.10037099e-005
      -1.68306615e-005 -2.49579225e-005 -2.82632500e-005
      -2.58251312e-005 -2.40614518e-005 -2.40585905e-005
      -2.35437819e-005 -1.46531511e-005 -1.37906582e-005
      -1.34064121e-005 -7.86812507e-006 -1.00196053e-006 6.87781130e-006
      6.94746950e-006 9.74629347e-006 3.00880529e-005 3.58675898e-005
      1.78591672e-005 -2.83500185e-006 -9.76019055e-006 -1.05193467e-005
      -1.48431027e-005 -1.34455640e-005 -1.30011194e-005
      -1.12487687e-005 7.64245124e-006 3.54187214e-005 4.81106908e-005
      4.19391217e-005 3.61719176e-005 4.08510423e-005 4.75309025e-005
      4.77814465e-005 4.61209966e-005 4.14718343e-005 3.60322556e-005
      2.66336556e-005 1.46873190e-005 1.27834219e-005 1.63766454e-005
      2.25116000e-005 9.28396912e-006 -9.29569069e-006 -1.90489718e-005
      -7.66922585e-006 1.39850390e-005 2.94357651e-005 2.53492690e-005
      1.85374629e-005 3.25692672e-005 3.58605830e-005 2.63045968e-005
      2.43122195e-005 2.57151187e-005 2.65807339e-005 3.04215137e-005
      2.97591796e-005 2.32602742e-005 1.67248763e-005 1.17921727e-005
      1.23072114e-005 2.05186170e-005 3.42478052e-005 4.39857831e-005
      4.31677727e-005 3.00890260e-005 8.28109660e-006 -1.10515903e-005
      -1.71190604e-005 -1.68969473e-005 -4.48820265e-006 8.30891167e-006
      1.67929866e-005 2.20087986e-005 2.55601899e-005 2.95050813e-005
      3.01032069e-005 2.12095783e-005 7.93382151e-006 -3.45815488e-006
      -1.30853696e-005 -1.54308800e-005 -1.25197785e-005
      -1.46923676e-005 -2.71137851e-005 -3.17970116e-005
      -2.54505630e-005 -2.73993810e-005 -2.58832097e-005
      -2.32574494e-005 -2.14128522e-005 -2.76832398e-005
      -3.73537659e-005 -4.12718109e-005 -4.44196921e-005
      -4.60581905e-005 -3.45790686e-005 -2.50959692e-005
      -1.34024549e-005 1.69631437e-006 1.48002109e-005 2.29176912e-005
      2.25146778e-005 1.11110785e-005 4.73462433e-006 5.26591793e-006
      1.32840896e-005 2.15590608e-005 2.53527105e-005 2.49150962e-005
      2.50208323e-005 2.64646551e-005 2.81084867e-005 3.02560911e-005
      3.50341288e-005 4.01095676e-005 4.52691711e-005 5.32677441e-005
      4.58116192e-005 2.15657492e-005 8.31260513e-006 1.01723208e-005
      5.68030964e-006 -5.67166239e-007 -6.11580799e-006 -1.63254845e-006
      1.58768034e-005 3.57409117e-005 3.89958805e-005 1.85018198e-005
      7.43106102e-006 -1.48027993e-006 -1.00381003e-005 -7.28337591e-006
      1.09286366e-005 2.27262699e-005 1.91466788e-005 1.06838797e-005
      5.56600071e-006 1.00201498e-006 -4.09822997e-006 -5.57316753e-006
      -1.61852552e-006 6.20474884e-006 3.99109922e-006 5.76909588e-006
      9.63489219e-006 1.53502388e-005 2.42423757e-005 2.63952734e-005
      2.36523338e-005 4.00998833e-005 4.00737517e-005 2.82556284e-005
      1.73653716e-005 1.79881117e-005 1.79203325e-005 1.04967849e-005
      5.85884573e-006 9.66327207e-007 1.69312591e-006 1.04285191e-005
      3.21554762e-005 4.99078742e-005 6.14477685e-005 6.79265941e-005
      6.87055581e-005 6.26951078e-005 5.99177947e-005 5.91458884e-005
      5.37034539e-005 4.47519087e-005 3.00807678e-005 1.50000051e-005
      1.44175747e-005 2.27101991e-005 2.46440213e-005 1.87035876e-005
      6.52186827e-006 -2.85904207e-006 4.66200981e-006 1.91550316e-005
      2.53087183e-005 1.38832047e-005 3.94439667e-006 1.23446416e-005
      1.79759390e-005 1.51273307e-005 1.49078314e-005 1.60619111e-005
      1.88521462e-005 2.61974346e-005 2.58504333e-005 1.68326515e-005
      1.17437967e-005 1.13480328e-005 1.31859042e-005 1.32823925e-005
      1.51582854e-005 1.75380537e-005 2.08935635e-005 1.25116458e-005
      -1.43386183e-006 -7.89603655e-006 -7.60593048e-006
      -1.07383339e-005 -1.04152614e-005 -8.84046858e-006
      -5.87046088e-006 4.86345243e-007 2.89960349e-006 5.19534206e-006
      6.25904977e-006 -1.21708854e-006 -1.01184114e-005 -1.69568084e-005
      -1.76079848e-005 -1.91706022e-005 -1.39601698e-005
      -7.95939468e-006 -1.07558108e-005 -1.23126192e-005
      -4.37262224e-006 -1.89950583e-006 -2.72789021e-006
      -1.81025302e-006 -2.73561000e-006 -9.88857482e-006
      -2.12266259e-005 -2.58987766e-005 -3.12622469e-005
      -3.48081085e-005</_></support_vectors>
  <uncompressed_sv_total>24</uncompressed_sv_total>
  <uncompressed_support_vectors>
    <_>
      42. 56. 90. 122. 133. 131. 129. 127. 124. 120. 117. 115. 115. 116.
      116. 115. 112. 110. 116. 119. 112. 103. 99. 99. 96. 89. 89. 87.
      88. 85. 83. 74. 57. 47. 51. 55. 64. 65. 58. 69. 83. 87. 90. 85.
      78. 72. 66. 61. 64. 61. 58. 58. 56. 53. 50. 49. 49. 51. 53. 54.
      54. 54. 52. 51. 50. 47. 45. 45. 46. 46. 47. 48. 48. 48. 50. 51.
      48. 45. 44. 46. 44. 45. 46. 48. 50. 49. 49. 48. 51. 52. 52. 52.
      51. 51. 52. 53. 54. 54. 52. 51. 50. 49. 47. 49. 49. 61. 62. 55.
      57. 59. 58. 62. 61. 62. 65. 68. 67. 63. 62. 64. 61. 64. 69. 72.
      72. 71. 72. 74. 75. 80. 81. 84. 81. 70. 56. 44. 41. 86. 136. 154.
      145. 137. 139. 143. 143. 139. 136. 138. 142. 145. 143. 140. 138.
      144. 151. 156. 155. 151. 150. 151. 149. 146. 145. 147. 144. 141.
      145. 139. 115. 93. 89. 98. 109. 113. 116. 130. 141. 146. 152. 150.
      143. 135. 124. 116. 115. 110. 106. 102. 101. 100. 97. 94. 96. 96.
      96. 97. 96. 93. 91. 90. 85. 83. 81. 83. 85. 84. 83. 82. 80. 80.
      81. 85. 86. 83. 82. 83. 81. 81. 83. 86. 88. 90. 90. 92. 89. 90.
      92. 94. 93. 91. 93. 95. 95. 95. 96. 99. 94. 80. 68. 66. 81. 96.
      100. 97. 98. 99. 102. 108. 106. 108. 108. 107. 103. 102. 101. 104.
      109. 109. 107. 107. 108. 111. 110. 109. 108. 112. 112. 111. 109.
      99. 75. 48. 51. 116. 152. 121. 83. 79. 89. 92. 92. 92. 93. 97.
      103. 108. 110. 110. 110. 114. 115. 116. 118. 118. 119. 124. 124.
      124. 121. 128. 126. 121. 138. 165. 169. 150. 132. 118. 112. 116.
      122. 126. 128. 132. 136. 136. 137. 138. 134. 131. 136. 134. 131.
      128. 125. 126. 125. 124. 126. 127. 130. 132. 130. 126. 123. 124.
      121. 117. 116. 117. 120. 122. 121. 121. 121. 118. 118. 123. 125.
      123. 119. 118. 117. 120. 121. 120. 119. 117. 114. 113. 116. 116.
      116. 115. 112. 109. 108. 109. 109. 107. 107. 115. 122. 116. 99.
      86. 88. 94. 100. 102. 103. 101. 100. 101. 105. 104. 104. 103. 102.
      104. 105. 105. 104. 100. 99. 100. 99. 98. 98. 100. 98. 97. 93. 91.
      101. 111. 97. 64. 55. 126. 147. 95. 55. 62. 76. 77. 79. 79. 80.
      78. 77. 78. 79. 79. 80. 82. 82. 82. 81. 78. 78. 79. 77. 80. 76.
      77. 72. 60. 72. 117. 166. 170. 141. 96. 68. 68. 80. 81. 81. 81.
      81. 79. 82. 88. 94. 96. 101. 103. 102. 101. 101. 102. 104. 106.
      106. 107. 108. 109. 109. 108. 106. 106. 105. 102. 101. 102. 104.
      105. 106. 107. 107. 104. 103. 103. 104. 104. 105. 106. 102. 103.
      102. 99. 97. 96. 98. 98. 95. 93. 92. 91. 90. 87. 84. 84. 80. 76.
      80. 102. 125. 129. 109. 89. 76. 64. 59. 66. 73. 73. 72. 70. 71.
      73. 72. 70. 71. 72. 73. 73. 71. 71. 73. 76. 76. 72. 71. 73. 68.
      66. 63. 65. 83. 107. 103. 66. 58. 123. 144. 102. 69. 76. 88. 90.
      88. 85. 83. 84. 84. 85. 88. 90. 89. 88. 89. 89. 86. 87. 86. 77.
      73. 78. 79. 75. 67. 62. 59. 86. 121. 137. 115. 74. 50. 49. 65. 76.
      78. 79. 77. 73. 72. 76. 81. 82. 81. 79. 80. 79. 78. 77. 77. 78.
      80. 81. 78. 78. 80. 83. 81. 79. 79. 78. 79. 80. 81. 79. 77. 77.
      77. 79. 78. 75. 73. 74. 76. 76. 75. 77. 78. 74. 70. 69. 70. 70.
      69. 70. 70. 69. 68. 66. 67. 68. 65. 63. 65. 82. 104. 109. 96. 82.
      66. 50. 44. 54. 62. 67. 68. 68. 70. 73. 74. 72. 70. 73. 75. 75.
      72. 72. 71. 71. 74. 75. 74. 73. 70. 70. 66. 66. 82. 108. 104. 68.
      54. 119. 143. 102. 73. 81. 93. 90. 89. 82. 83. 92. 95. 89. 88. 93.
      96. 94. 94. 96. 98. 100. 94. 80. 78. 76. 88. 88. 81. 79. 73. 75.
      87. 96. 74. 50. 48. 58. 75. 87. 86. 89. 90. 88. 86. 88. 88. 88.
      86. 87. 86. 83. 80. 77. 78. 79. 76. 80. 83. 84. 86. 86. 83. 81.
      82. 81. 82. 83. 83. 82. 81. 81. 82. 78. 72. 70. 74. 78. 79. 77.
      77. 77. 76. 72. 66. 61. 60. 61. 60. 62. 60. 57. 56. 59. 67. 72.
      70. 72. 68. 68. 76. 82. 74. 63. 49. 43. 46. 55. 60. 67. 76. 81.
      78. 77. 77. 77. 81. 82. 81. 78. 77. 68. 63. 65. 64. 63. 66. 74.
      79. 79. 73. 70. 83. 109. 106. 71. 50. 121. 145. 99. 66. 77. 85.
      73. 64. 62. 82. 116. 121. 95. 75. 74. 76. 81. 86. 92. 96. 91. 89.
      100. 102. 94. 87. 83. 84. 83. 81. 76. 78. 81. 71. 56. 51. 61. 77.
      86. 87. 91. 93. 90. 90. 92. 90. 88. 90. 89. 83. 76. 72. 73. 71.
      66. 74. 76. 81. 88. 91. 90. 88. 89. 87. 85. 84. 85. 86. 84. 85.
      86. 82. 76. 73. 74. 79. 82. 85. 87. 87. 81. 74. 68. 62. 57. 57.
      60. 60. 62. 60. 56. 58. 65. 71. 72. 69. 72. 70. 67. 65. 62. 52.
      44. 37. 43. 49. 52. 53. 63. 71. 75. 81. 78. 78. 81. 83. 81. 76.
      70. 63. 62. 69. 77. 76. 65. 59. 60. 71. 74. 71. 71. 88. 111. 103.
      65. 52. 118. 140. 95. 64. 76. 82. 69. 54. 58. 99. 159. 170. 123.
      72. 54. 61. 69. 75. 83. 83. 72. 98. 151. 183. 164. 107. 68. 73.
      75. 79. 75. 71. 87. 108. 107. 83. 68. 77. 87. 89. 91. 94. 93. 94.
      95. 94. 90. 83. 79. 71. 73. 89. 107. 107. 96. 80. 70. 66. 76. 85.
      89. 88. 90. 88. 86. 85. 87. 86. 85. 81. 79. 70. 82. 98. 106. 97.
      82. 77. 79. 79. 80. 86. 95. 101. 102. 103. 107. 106. 107. 106.
      104. 108. 111. 104. 95. 74. 68. 67. 72. 64. 44. 39. 48. 70. 86.
      98. 96. 92. 91. 83. 70. 65. 70. 77. 82. 80. 74. 69. 68. 83. 103.
      127. 142. 143. 130. 101. 74. 62. 68. 66. 67. 88. 115. 105. 64. 57.
      120. 148. 92. 61. 96. 137. 139. 122. 121. 159. 212. 219. 176. 128.
      103. 106. 111. 107. 88. 64. 54. 102. 189. 243. 230. 151. 72. 58.
      79. 84. 63. 64. 120. 185. 184. 124. 72. 73. 87. 91. 96. 95. 95.
      90. 92. 95. 83. 68. 72. 98. 137. 175. 194. 198. 178. 148. 106. 77.
      64. 73. 86. 90. 88. 86. 85. 85. 87. 86. 85. 80. 66. 68. 116. 164.
      177. 141. 86. 65. 73. 62. 70. 111. 167. 191. 193. 191. 186. 191.
      187. 191. 188. 192. 199. 180. 127. 77. 61. 69. 69. 60. 58. 81.
      117. 147. 170. 174. 176. 177. 166. 135. 94. 66. 58. 72. 84. 76.
      60. 64. 97. 142. 178. 196. 202. 206. 203. 176. 131. 88. 60. 58.
      58. 84. 119. 106. 61. 51. 119. 147. 90. 65. 128. 202. 222. 214.
      208. 217. 234. 239. 225. 204. 200. 207. 200. 166. 108. 58. 41.
      102. 202. 251. 249. 190. 95. 51. 66. 77. 60. 63. 142. 228. 226.
      143. 71. 71. 92. 97. 95. 93. 93. 94. 91. 82. 69. 66. 107. 170.
      216. 239. 235. 233. 237. 222. 186. 131. 85. 65. 75. 86. 86. 88.
      89. 86. 84. 84. 87. 71. 47. 80. 165. 226. 229. 174. 89. 53. 64.
      59. 63. 124. 208. 233. 220. 211. 211. 206. 212. 216. 209. 214.
      220. 194. 134. 74. 61. 65. 58. 61. 99. 157. 194. 196. 188. 182.
      184. 198. 206. 191. 150. 95. 61. 62. 72. 64. 60. 89. 143. 196.
      216. 199. 173. 173. 196. 213. 198. 144. 86. 52. 51. 82. 115. 105.
      62. 56. 123. 147. 90. 62. 113. 170. 181. 176. 176. 174. 169. 171.
      176. 182. 198. 208. 203. 167. 108. 56. 37. 98. 200. 251. 252. 218.
      128. 60. 63. 73. 59. 69. 144. 229. 226. 140. 68. 73. 97. 95. 91.
      93. 95. 97. 88. 71. 69. 98. 167. 227. 241. 214. 170. 155. 185.
      230. 235. 196. 131. 72. 63. 78. 85. 86. 87. 86. 87. 85. 80. 58.
      49. 106. 193. 239. 232. 175. 87. 50. 61. 50. 60. 132. 217. 225.
      175. 138. 126. 124. 130. 134. 129. 132. 137. 128. 98. 76. 65. 65.
      62. 84. 146. 203. 212. 173. 123. 98. 94. 121. 168. 205. 196. 139.
      72. 51. 58. 53. 70. 130. 197. 219. 190. 129. 83. 79. 120. 180.
      218. 194. 124. 58. 41. 75. 113. 108. 62. 56. 121. 143. 93. 58. 68.
      78. 74. 69. 67. 61. 59. 64. 69. 78. 84. 96. 103. 97. 84. 60. 42.
      96. 195. 251. 253. 242. 174. 86. 56. 60. 52. 68. 138. 220. 218.
      129. 58. 68. 92. 93. 89. 93. 95. 96. 84. 65. 82. 158. 227. 241.
      198. 122. 60. 44. 77. 146. 216. 240. 181. 94. 60. 70. 87. 87. 87.
      88. 93. 86. 68. 49. 72. 141. 210. 239. 225. 161. 80. 50. 55. 46.
      65. 140. 216. 205. 124. 57. 39. 45. 52. 60. 64. 61. 60. 67. 71.
      75. 68. 62. 69. 121. 191. 210. 162. 94. 48. 35. 31. 40. 91. 172.
      214. 173. 89. 46. 47. 48. 89. 169. 222. 201. 126. 54. 23. 24. 50.
      114. 190. 221. 165. 78. 41. 73. 113. 107. 60. 55. 121. 141. 98.
      60. 49. 56. 80. 97. 95. 86. 86. 84. 81. 85. 75. 66. 58. 56. 70.
      63. 42. 94. 195. 252. 253. 251. 209. 118. 56. 47. 42. 65. 138.
      218. 215. 126. 53. 65. 87. 95. 90. 93. 94. 93. 81. 65. 98. 186.
      244. 213. 128. 52. 24. 23. 30. 70. 169. 245. 211. 123. 64. 62. 82.
      87. 89. 86. 89. 79. 59. 58. 111. 179. 222. 235. 217. 160. 81. 52.
      53. 45. 61. 135. 217. 207. 109. 31. 27. 46. 55. 61. 67. 65. 64.
      71. 77. 77. 77. 63. 68. 131. 193. 184. 115. 51. 33. 40. 40. 25.
      56. 143. 214. 194. 104. 41. 39. 50. 110. 196. 219. 157. 71. 29.
      34. 39. 34. 71. 158. 222. 185. 90. 42. 73. 112. 103. 60. 56. 123.
      142. 100. 60. 51. 89. 157. 206. 203. 197. 195. 188. 184. 192. 185.
      149. 99. 59. 68. 64. 40. 93. 194. 253. 254. 253. 230. 152. 71. 45.
      36. 66. 141. 218. 211. 123. 52. 66. 89. 95. 93. 96. 96. 91. 77.
      68. 114. 202. 244. 175. 75. 30. 50. 63. 40. 44. 130. 227. 226.
      148. 69. 51. 76. 85. 85. 81. 82. 68. 52. 78. 150. 213. 226. 219.
      203. 155. 79. 49. 56. 48. 61. 131. 217. 215. 117. 40. 43. 70. 77.
      79. 84. 85. 85. 85. 87. 82. 85. 74. 72. 107. 133. 123. 85. 60. 57.
      63. 54. 31. 59. 148. 221. 203. 108. 37. 35. 57. 129. 209. 211.
      132. 44. 28. 57. 58. 33. 53. 142. 214. 191. 97. 42. 69. 110. 102.
      61. 53. 120. 142. 99. 53. 53. 112. 198. 237. 202. 177. 175. 178.
      182. 202. 229. 211. 130. 63. 66. 64. 44. 99. 198. 253. 253. 253.
      245. 192. 107. 49. 32. 60. 151. 234. 222. 127. 52. 66. 90. 94. 95.
      98. 98. 89. 76. 69. 117. 203. 243. 169. 67. 31. 56. 70. 48. 51.
      129. 220. 233. 153. 67. 49. 75. 89. 86. 83. 74. 57. 59. 112. 182.
      218. 216. 217. 213. 152. 71. 44. 58. 46. 58. 133. 215. 211. 121.
      49. 49. 65. 75. 80. 87. 83. 81. 80. 81. 79. 81. 81. 81. 86. 80.
      76. 72. 70. 76. 75. 52. 39. 82. 173. 226. 184. 91. 35. 39. 59.
      124. 200. 213. 146. 57. 28. 44. 45. 36. 72. 155. 214. 183. 94. 45.
      69. 110. 100. 58. 53. 119. 143. 100. 49. 52. 115. 200. 202. 128.
      76. 63. 65. 74. 118. 195. 219. 132. 62. 66. 64. 46. 103. 199. 246.
      228. 226. 241. 230. 155. 64. 25. 58. 153. 239. 230. 136. 59. 69.
      90. 97. 95. 94. 97. 91. 77. 66. 110. 194. 244. 192. 93. 40. 37.
      44. 41. 67. 157. 237. 232. 137. 64. 58. 78. 87. 86. 81. 67. 56.
      87. 155. 205. 192. 179. 204. 220. 154. 72. 51. 59. 48. 59. 138.
      218. 202. 112. 42. 38. 46. 62. 67. 72. 68. 76. 81. 83. 81. 80. 83.
      83. 83. 74. 72. 71. 78. 79. 70. 47. 59. 123. 205. 222. 152. 70.
      37. 47. 51. 102. 181. 219. 177. 92. 36. 26. 32. 58. 118. 186. 210.
      156. 68. 43. 74. 110. 99. 58. 55. 120. 141. 95. 45. 49. 120. 201.
      191. 82. 28. 28. 24. 17. 68. 173. 216. 137. 59. 61. 65. 45. 106.
      211. 239. 181. 148. 201. 241. 190. 95. 25. 50. 144. 244. 237. 133.
