<?xml version="1.0"?>
<opencv_storage>
<my_svm type_id="opencv-ml-svm">
  <svm_type>C_SVC</svm_type>
  <kernel><type>LINEAR</type></kernel>
  <C>1.</C>
  <term_criteria><epsilon>1.1920928955078125e-007</epsilon>
    <iterations>1000</iterations></term_criteria>
  <var_all>4896</var_all>
  <var_count>4896</var_count>
  <class_count>2</class_count>
  <class_labels type_id="opencv-matrix">
    <rows>1</rows>
    <cols>2</cols>
    <dt>i</dt>
    <data>
      -1 1</data></class_labels>
  <sv_total>1</sv_total>
  <support_vectors>
    <_>
      -2.35298197e-004 -2.34082152e-004 -2.77635496e-004
      -3.11712240e-004 -2.88297946e-004 -3.00322543e-004
      -2.08000158e-004 -8.27279655e-005 -4.59257681e-005
      -1.59204035e-004 -2.81737914e-004 -2.34579944e-004
      -2.08592828e-004 -2.53793143e-004 -2.91664270e-004
      -2.77624145e-004 -2.16108223e-004 -7.62184209e-005 9.31999530e-005
      2.48291559e-004 3.06605361e-004 2.85981689e-004 3.33574309e-004
      3.14265548e-004 2.69002776e-004 2.67946831e-004 2.76453909e-004
      3.13749973e-004 3.59061203e-004 3.35206831e-004 1.91198866e-004
      9.34197742e-005 5.74692240e-005 4.32857814e-005 1.61330419e-004
      2.10681144e-004 1.87848607e-004 1.32972709e-004 1.71767642e-005
      -3.66183740e-005 -8.97303398e-005 -9.24888955e-005
      -5.03377123e-005 -5.25792566e-005 -7.59245449e-005
      -1.16077048e-004 -1.15325223e-004 -9.75273724e-005
      -8.12650105e-005 2.30971164e-005 1.33629612e-004 1.63120960e-004
      1.60310708e-004 1.00852820e-004 6.82079735e-006 -7.01450044e-005
      -1.34401300e-004 -1.97001908e-004 -2.35399217e-004
      -1.95500426e-004 -1.14096852e-004 -5.09594574e-005
      -7.90604390e-005 -1.23698759e-004 -1.58739247e-004
      -1.60690339e-004 -1.36233983e-004 -4.79123810e-005 3.44612745e-005
      -7.62989714e-007 -9.88300817e-005 -1.53968736e-004
      -1.25659688e-004 -1.18831842e-004 -7.74793443e-005
      -1.37656043e-005 -1.10195142e-004 -2.23634968e-004
      -2.48225726e-004 -2.39297253e-004 -2.66191695e-004
      -3.58814315e-004 -3.51878611e-004 -2.49916338e-004
      -2.01941570e-004 -1.42422781e-004 -1.17802119e-004
      -1.60328564e-004 -1.79249109e-004 -1.76997259e-004
      -1.48651437e-004 -1.48371299e-004 -1.94400287e-004
      -1.85487370e-004 -1.75473775e-004 -1.43950150e-004
      -1.61343371e-004 -1.42904755e-004 -8.42145198e-007 1.35687427e-004
      1.86760226e-004 1.41236902e-004 1.52834487e-004 2.13248612e-004
      3.08181916e-004 3.47989146e-004 2.54713115e-004 1.15950301e-004
      -3.14010649e-005 -1.00333782e-004 -9.08785660e-005
      -6.58647696e-005 -2.78775260e-005 -7.27888619e-005
      -1.89596103e-004 -2.43370567e-004 -1.71466221e-004
      -1.77065245e-004 -1.80776755e-004 -1.68938452e-004
      -1.41078912e-004 -1.32862871e-004 -8.43141679e-005
      -9.80121404e-005 -1.37746843e-004 -2.33504921e-004
      -2.80076405e-004 -2.97864055e-004 -2.51530058e-004
      -1.72989967e-004 -7.11866523e-005 3.12699412e-005 1.46856008e-004
      1.72039508e-004 9.58839446e-005 -2.73682253e-005 -2.08233512e-004
      -1.65700330e-004 -1.53921093e-004 -1.07448250e-004
      -9.07358190e-005 -1.46341030e-004 -7.11198882e-005 9.26013236e-005
      8.30675635e-005 -8.14983869e-005 -1.57955408e-004 -6.77065036e-005
      -1.20410614e-005 -1.10640409e-004 -2.13987601e-004
      -2.27412063e-004 -1.53641566e-004 2.94546680e-005 2.42737762e-004
      4.01137630e-004 4.26901534e-004 3.64704116e-004 3.04773421e-004
      2.16824585e-004 1.54405250e-004 2.10069804e-004 2.79499305e-004
      2.99615203e-004 3.01102875e-004 2.50807730e-004 1.27169274e-004
      7.57708694e-005 5.87643008e-005 8.38608612e-005 2.26649674e-004
      2.63250462e-004 2.54422805e-004 1.81173324e-004 2.42470469e-005
      -3.45748340e-005 -2.08874599e-006 -2.99320982e-005
      -4.34991216e-006 5.71036253e-005 8.39748391e-005 8.54065802e-005
      6.78507422e-005 2.52742902e-005 6.08853634e-006 7.77794849e-005
      1.83323107e-004 2.32349674e-004 2.14454310e-004 2.01477451e-004
      1.44262289e-004 1.10265297e-004 -1.10629026e-005 -1.15805677e-004
      -1.10237546e-004 -5.86325086e-006 1.15885203e-004 1.35692302e-004
      5.00184833e-005 1.20006498e-005 -5.29700301e-005 -4.16101866e-005
      -9.07851700e-007 5.37735614e-005 1.00404017e-004 5.97370090e-005
      1.41324808e-005 -1.44961541e-005 -3.70490379e-005 -2.89826803e-005
      3.86730462e-005 8.60744549e-005 3.81167483e-005 -9.96338422e-005
      -1.29956461e-004 -8.11600039e-005 -9.44906278e-005
      -1.83398268e-004 -1.13831309e-004 -6.81879828e-005
      -2.44282764e-005 2.08800921e-005 5.12180304e-005 4.38081843e-005
      4.14063288e-006 1.35560658e-005 2.95144309e-005 1.56371443e-005
      -5.22891460e-005 -7.34631467e-005 -6.53749739e-005
      -3.06077309e-005 4.95497443e-005 7.99895643e-005 2.30163103e-004
      2.90159398e-004 2.24004078e-004 2.26491306e-004 2.89408519e-004
      2.78304855e-004 4.17639443e-004 4.23015095e-004 3.09697702e-004
      5.22272312e-005 -8.43285525e-005 -9.85683218e-005 -3.84729792e-005
      2.26681959e-006 3.28673887e-005 8.18010594e-005 -1.88606955e-005
      -1.25814404e-004 -9.41238832e-005 -6.21688378e-005
      -5.68215619e-005 -8.32918595e-005 -8.30946665e-005
      -1.40155229e-004 -7.36775110e-005 -6.44338661e-006 2.37326331e-005
      -3.84800696e-005 -1.27115520e-004 -1.65636404e-004
      -1.47642786e-004 -1.19579709e-004 -9.73719507e-005
      -7.57697489e-005 9.20801085e-006 6.99186057e-005 3.73506300e-005
      -7.47501836e-005 -1.44585239e-004 -4.33100322e-005 7.50250183e-005
      1.38222735e-004 -5.71955070e-006 -5.51545527e-005 7.92172505e-005
      2.94816244e-004 2.94765661e-004 5.97846265e-005 -6.40617000e-005
      -3.30624825e-005 4.70532468e-005 -6.84563856e-005 -1.72876913e-004
      -2.07568461e-004 -1.28470681e-004 4.98649897e-005 2.55514082e-004
      3.51618917e-004 3.28272610e-004 2.12574945e-004 9.87911990e-005
      -4.14712958e-005 -3.80595084e-005 7.11921166e-005 9.29829330e-005
      9.66569205e-005 1.80229341e-004 9.68093809e-005 1.53279416e-005
      -2.00228023e-005 -5.51292869e-005 -1.63810619e-005 4.65815210e-005
      9.40479367e-005 1.34781178e-004 1.26669518e-004 1.23064447e-005
      -2.55738196e-005 -6.12804943e-005 -6.73447430e-005
      -4.88428923e-005 2.61578280e-005 1.06604486e-004 1.46296967e-004
      1.64983459e-004 7.97203684e-005 1.87386959e-005 7.04596023e-005
      1.22844795e-004 1.15268987e-004 5.84961526e-005 7.52528722e-005
      1.07051412e-004 1.09286499e-004 -2.64974078e-005 -1.72968066e-004
      -2.07411809e-004 -1.09856395e-004 2.04691842e-005 4.07233019e-005
      -6.05863534e-006 -6.68325583e-006 -3.27363960e-005 3.72882073e-006
      -3.45601916e-006 -3.25137921e-006 8.42507870e-006 -5.66646704e-005
      -8.82058230e-005 -1.42405130e-004 -1.75241454e-004
      -1.86304256e-004 -1.18362674e-004 -4.95151580e-005
      -1.45186772e-004 -2.72596342e-004 -2.78438441e-004
      -1.52029577e-004 -1.06879714e-004 -7.78320464e-005 3.05041540e-005
      1.96606517e-004 3.15607031e-004 3.04520392e-004 1.90481980e-004
      9.92093483e-005 6.77307762e-005 6.76686832e-005 4.42446471e-005
      1.31249735e-005 -4.64010773e-005 -5.05118660e-005 4.97151314e-006
      9.28282025e-005 1.35379640e-004 1.72427695e-004 2.89680611e-004
      3.37021018e-004 2.85996299e-004 2.35828047e-004 2.10327533e-004
      1.46207327e-004 1.99360133e-004 2.13586318e-004 1.50600797e-004
      -1.64070698e-005 -9.99451295e-005 -1.17777636e-004
      -7.46418082e-005 -7.23592020e-005 8.12328290e-006 6.16812613e-005
      1.40542725e-005 -3.25314431e-005 -1.75055502e-005 1.46686216e-005
      2.28168556e-005 -3.62832106e-005 -1.12144829e-004 -1.65349818e-004
      -5.19079185e-005 7.53640925e-005 1.56127222e-004 1.62810175e-004
      6.72047463e-005 -3.65149135e-005 -1.00972320e-004 -5.04614582e-005
      -6.20747523e-005 -8.71782104e-005 3.41690520e-006 1.18808486e-004
      1.01269499e-004 -2.88973970e-005 -1.90252293e-004 -4.07434709e-005
      6.26245965e-005 7.43974306e-005 -2.59872868e-005 -8.84614346e-005
      7.87803438e-005 3.03918525e-004 3.40965838e-004 1.01738588e-004
      -1.47408093e-004 -2.17950408e-004 -1.48896317e-004
      -1.37348005e-004 -1.77576367e-004 -1.62652708e-004
      -9.11984898e-005 3.63612853e-005 1.90690553e-004 2.64206581e-004
      1.95071669e-004 4.80674935e-005 -1.39783529e-004 -2.42140522e-004
      -1.81312731e-004 -1.52664652e-004 -1.28873580e-004
      -1.18332619e-005 1.47808707e-004 8.56253391e-005 -7.31008959e-006
      -2.69644479e-005 1.79419239e-005 -9.37786717e-006 -4.43012050e-006
      3.39293583e-005 8.59082284e-005 1.37815077e-004 9.09258742e-005
      3.91763751e-005 2.32316870e-005 5.26078702e-006 -2.10056114e-005
      8.77629816e-007 4.12991467e-005 8.02013819e-005 1.06752661e-004
      1.10900895e-004 5.93817867e-006 2.71996942e-005 7.43861528e-005
      -1.65820038e-005 -9.49413443e-005 -8.06397875e-005 3.61287894e-005
      9.80878322e-005 -4.80566143e-007 -1.28709857e-004 -1.45998172e-004
      -5.49060605e-005 6.64890977e-005 9.75751900e-005 7.43032724e-005
      3.34727774e-005 4.42157398e-005 5.24920551e-006 -7.30095708e-005
      -1.54916619e-004 -2.07477278e-004 -2.70026125e-004
      -2.72673642e-004 -2.78252526e-004 -2.65065290e-004
      -2.54061451e-004 -1.81861556e-004 -1.53113084e-004
      -2.31296872e-004 -2.98385101e-004 -2.80898530e-004
      -1.81038311e-004 -1.66511614e-004 -1.03844446e-004 2.00302384e-006
      2.22652787e-004 3.57998098e-004 2.70319899e-004 1.43258789e-004
      4.94604174e-005 1.18861035e-005 6.76829222e-006 -1.55497419e-005
      -6.59310390e-005 -1.19076874e-004 -1.01582846e-004
      -4.40839067e-005 2.74684062e-005 2.40067875e-005 1.11670968e-004
      1.94945969e-004 2.48435477e-004 2.23335082e-004 2.74737016e-004
      1.67675462e-004 1.23140082e-004 6.47825364e-005 6.85051491e-005
      2.69966331e-005 -1.66115785e-006 -7.78058438e-006 -1.34790243e-005
      -1.95516932e-005 -4.34720023e-005 9.66024072e-006 5.54601047e-006
      1.56432252e-005 2.88509218e-005 3.50673872e-005 2.24832511e-005
      1.29258106e-005 -4.22159137e-005 -8.26422693e-005 -1.20496872e-004
      -1.44009946e-005 3.20741274e-005 3.94446688e-005 1.00703743e-004
      6.59410580e-005 -6.01785323e-005 -1.46097256e-004 -1.36497067e-004
      -1.43022757e-004 -1.64902463e-004 -7.03688420e-005 3.00595930e-005
      6.52737810e-007 -9.08168222e-005 -2.02519208e-004 -9.54509524e-005
      -5.37072847e-005 -1.28865475e-004 -2.50923855e-004
      -2.86343449e-004 -1.71563574e-004 -2.80723780e-005 4.37684903e-005
      -1.29458524e-004 -3.09028139e-004 -3.30194598e-004
      -1.81227151e-004 -1.57108880e-004 -2.08750469e-004
      -1.71070948e-004 -9.05658380e-005 2.55487594e-005 1.50341468e-004
      2.35054773e-004 1.70700048e-004 -1.08781387e-006 -2.21609560e-004
      -2.84981332e-004 -2.78375810e-004 -2.61338835e-004
      -2.33029903e-004 -9.87981402e-005 1.26099592e-004 1.59312825e-004
      1.61633929e-004 1.76544316e-004 2.67514348e-004 2.12957922e-004
      1.59208750e-004 1.47933853e-004 1.54395035e-004 1.77159425e-004
      1.08218497e-004 1.34329559e-004 1.09068947e-004 8.47852643e-005
      5.99101895e-006 -2.35353000e-005 -2.95358932e-005 5.12756560e-006
      7.89657934e-005 8.66350456e-005 6.11041178e-005 4.52776403e-005
      1.27478015e-005 -1.34436021e-004 -1.82838601e-004 -8.56306651e-005
      6.46265034e-005 1.69418112e-004 9.50109898e-005 9.24088672e-005
      1.11553636e-004 1.04701743e-004 1.42322082e-004 1.25443024e-004
      4.12677764e-005 -4.98667978e-005 -9.99206623e-006 -1.06287744e-005
      -6.64455365e-005 -1.51096785e-004 -2.07261575e-004
      -2.26136835e-004 -2.23948155e-004 -1.72041211e-004
      -1.17828138e-004 -5.07067271e-005 -6.72150054e-006
      -4.88168953e-005 -3.56806268e-005 -2.73837359e-005
      -6.13214579e-005 -8.90418087e-005 -1.64719211e-004
      -1.03393548e-004 2.34538929e-005 2.16890970e-004 3.16406455e-004
      2.15312146e-004 1.22796337e-004 1.29782551e-004 1.44227612e-004
      1.09158937e-004 7.93211293e-005 1.72911987e-005 -5.21528564e-005
      -9.43924679e-005 -8.25519164e-005 4.00359113e-006 1.74925899e-005
      7.01468161e-005 1.35708891e-004 1.90195817e-004 2.43195085e-004
      3.53612500e-004 2.84275768e-004 1.79280556e-004 6.31552830e-005
      3.44997461e-005 4.39283140e-005 6.57832716e-005 9.53843555e-005
      9.96809467e-005 8.65195034e-005 4.22786361e-005 2.76404025e-005
      -5.80186643e-005 -5.80772867e-005 -3.16055484e-005
      -2.29820143e-005 -3.86583379e-005 -8.97134523e-005
      -1.33838621e-004 -1.40295437e-004 -8.73967001e-005 3.12814086e-006
      1.23261616e-005 4.86371755e-005 6.77777862e-005 -2.47266362e-005
      -1.04873026e-004 -1.53698318e-004 -2.32154562e-004
      -2.73101818e-004 -2.78069492e-004 -1.98870970e-004
      -1.06171232e-004 -1.38877222e-004 -2.01722010e-004
      -2.32771694e-004 -9.91588167e-005 -3.29531467e-005
      -4.98747540e-005 -1.14490504e-004 -1.76432703e-004
      -1.87899073e-004 -1.83868789e-004 -1.54329857e-004
      -2.82796274e-004 -3.91147536e-004 -3.30334296e-004
      -1.23331352e-004 -7.57049274e-005 -8.52384619e-005
      -2.52057198e-005 1.92567913e-005 4.91616156e-005 1.26777362e-004
      2.11597158e-004 1.66689439e-004 8.17377513e-005 -1.05261126e-004
      -1.76228597e-004 -1.96120149e-004 -2.55342224e-004
      -1.52172492e-004 2.32044786e-005 1.41335171e-004 1.43276819e-004
      2.02708368e-004 3.11751501e-004 3.91416834e-004 3.12750519e-004
      2.36338703e-004 1.98426264e-004 1.67140199e-004 1.43231489e-004
      6.91272216e-005 1.19957920e-004 1.22386598e-004 1.14005044e-004
      5.48628450e-005 2.36160922e-005 -4.92004692e-005 -5.26703188e-005
      3.70889902e-005 4.47619313e-005 6.31128569e-005 -1.03618704e-005
      -9.28979644e-005 -1.62199532e-004 -8.39772329e-005 7.78756003e-005
      1.80409072e-004 1.91415966e-004 1.30442495e-004 1.67489779e-004
      1.98678244e-004 5.94310586e-005 -4.47517596e-005 -5.54639555e-005
      -7.06985593e-005 -1.23092672e-004 -2.84102316e-005
      -1.79973122e-005 -4.22481244e-005 -6.39391292e-005
      -2.32027542e-005 1.30242024e-005 -3.10635151e-005 -2.64387836e-005
      -3.61806960e-005 5.09443234e-005 6.96360294e-005 3.07961727e-007
      2.84559210e-005 4.41041193e-005 -3.47841560e-005 -1.09215973e-004
      -2.23022056e-004 -1.14004673e-004 8.84284236e-005 2.25344891e-004
      2.11899722e-004 1.49824540e-004 1.63072677e-004 1.61746982e-004
      1.29115462e-004 5.13589875e-005 3.61687598e-005 4.31979242e-005
      -1.65671863e-005 -8.64647154e-005 -1.06652675e-004
      -2.94442652e-005 2.93976245e-005 -2.23158859e-005 5.37736832e-006
      1.18254051e-004 2.35049491e-004 3.11711163e-004 2.34309817e-004
      2.29067926e-004 1.72490269e-004 1.30268323e-004 1.13976086e-004
      1.54360037e-004 1.87184443e-004 1.43503043e-004 1.13562659e-004
      7.95017113e-005 5.56088526e-005 -1.27467894e-004 -1.58257506e-004
      -1.42602628e-004 -1.11759269e-004 -9.79960460e-005
      -1.20882920e-004 -1.19160715e-004 -8.18588087e-005
      -1.04636223e-004 -4.39546311e-005 1.24992202e-005 1.47825354e-004
      1.86738005e-004 1.20351746e-004 4.96383509e-005 -1.04516075e-005
      -1.10456211e-004 -1.87717451e-004 -2.07396093e-004
      -1.75905705e-004 -8.21928115e-005 -9.90083499e-005
      -9.42587212e-005 -2.32497099e-004 -1.09964800e-004 1.10314913e-005
      8.49702774e-005 7.60902331e-005 6.30437216e-006 -7.67175443e-005
      -1.06691943e-004 -1.23799313e-004 -1.50954045e-004
      -1.75858804e-004 -1.29619119e-004 -1.30701719e-005
      -5.81498853e-006 4.63098258e-005 7.49779138e-005 9.91303386e-005
      1.00694102e-004 7.27673905e-005 1.46091188e-004 1.13430018e-004
      8.52073354e-005 -2.18742571e-005 -7.12444089e-005 -1.11369227e-004
      -1.17059986e-004 2.37238346e-005 1.33321373e-004 1.87958445e-004
      1.47179759e-004 1.83612472e-004 3.15641693e-004 3.75529169e-004
      3.75533331e-004 3.02995031e-004 2.32948150e-004 1.82489777e-004
      9.65409563e-005 4.29337888e-005 1.17825177e-004 1.63180128e-004
      1.82048636e-004 1.74375586e-004 1.40207892e-004 2.08378406e-005
      -4.26369261e-005 5.41982217e-006 5.03158590e-005 1.52844007e-006
      -8.90924712e-005 -9.71358750e-005 -7.39881434e-005 2.11422594e-005
      1.41829543e-004 1.71803666e-004 1.03202998e-004 1.54234018e-004
      1.95366141e-004 2.36373584e-004 8.85505215e-005 -9.93032227e-005
      -9.60942707e-005 4.40110256e-007 3.68174406e-005 3.82897197e-005
      -2.88543088e-005 -1.35579132e-004 -8.86736743e-005 9.59103636e-005
      2.51407298e-004 2.47877819e-004 1.56775015e-004 8.63747846e-005
      1.55392059e-004 9.28083682e-005 4.64313634e-005 3.69683767e-005
      3.75960444e-005 -2.58398413e-005 -5.87252725e-005 -1.35519469e-004
      -1.10615831e-004 6.12306394e-005 1.37045266e-004 1.11925292e-004
      1.06294719e-004 1.34510934e-004 9.74341892e-005 -3.60067897e-005
      -8.68139759e-005 2.48379492e-005 1.22798170e-004 1.07463558e-004
      1.09346154e-004 1.04787156e-004 1.27881212e-004 3.35624718e-005
      -1.45672428e-004 -7.88832549e-005 8.19881679e-005 2.13876614e-004
      2.31639569e-004 1.86218240e-004 2.40752837e-004 2.42618131e-004
      1.81956231e-004 1.41334604e-004 2.02053387e-004 2.09992199e-004
      1.75845431e-004 1.36356335e-004 8.13858132e-005 3.92960719e-005
      -1.40290562e-004 -1.34806804e-004 -6.27817062e-005
      -7.73959709e-006 -5.56025861e-006 -2.12998498e-006 1.14579307e-004
      1.87599086e-004 -4.34352705e-006 -6.16498583e-005 -1.12338057e-005
      1.25797611e-004 2.29513375e-004 1.94831227e-004 1.37580209e-004
      1.41154218e-004 1.00300043e-004 5.07914992e-005 -2.31567501e-005
      -4.78486108e-005 -4.31915614e-005 -2.69433440e-005
      -1.32254954e-005 -2.13255582e-004 -1.73320863e-004
      -9.54092757e-005 2.96925336e-005 2.22960589e-005 -2.42384085e-005
      -6.26100882e-005 -6.00128988e-005 -1.85596436e-005
      -3.93026967e-005 4.19573043e-005 6.91395544e-005 1.01317855e-005
      -5.67106599e-006 9.92500500e-005 1.33142850e-004 1.20863588e-004
      1.15295436e-004 9.83209320e-005 1.06424217e-004 1.42982070e-004
      1.21323435e-004 2.83578174e-005 -2.68062286e-005 -3.83827064e-005
      -9.06593050e-005 -2.57309166e-005 -1.31124016e-005
      -1.95397370e-005 -6.21721774e-005 -3.32717027e-005 6.11359064e-005
      1.82543154e-004 2.68598204e-004 2.95659556e-004 2.46889686e-004
      1.21011726e-004 -3.43151769e-005 -6.31847797e-005 2.19108369e-005
      1.08479930e-004 1.73144348e-004 2.69301207e-004 2.23933341e-004
      7.17156145e-005 3.06068505e-005 6.24420427e-005 8.71431985e-005
      -5.64331240e-005 -1.24988437e-004 -1.16127405e-004
      -6.13763477e-005 -1.42940607e-005 3.64248990e-005 6.15461031e-005
      7.72567073e-005 1.69436244e-004 2.11708873e-004 2.73835554e-004
      1.03705665e-004 -7.90539489e-005 -3.19416467e-005 1.45551501e-004
      1.80257586e-004 3.36739431e-005 -7.29090389e-005 -1.42702731e-004
      -1.35670271e-004 9.80810073e-005 3.24012479e-004 2.97385064e-004
      2.05151431e-004 1.31849985e-004 1.60969605e-004 1.74473389e-004
      1.48666528e-004 1.31834488e-004 1.41161960e-004 1.74556204e-004
      1.25938823e-004 2.67260202e-006 -2.94233068e-005 9.31276154e-005
      1.53973335e-004 1.77889568e-004 1.40579679e-004 8.34701277e-005
      5.14592921e-006 -1.24840677e-004 -7.88836333e-005 -2.32152297e-006
      3.91904323e-005 1.52867375e-004 1.52230990e-004 1.74842935e-004
      1.95894565e-004 9.54221250e-005 -8.48545387e-005 -8.11847494e-005
      1.12449983e-004 2.33805375e-004 1.55404763e-004 5.78189174e-005
      1.11748464e-004 1.82893738e-004 1.54926020e-004 1.48415100e-004
      1.19422497e-004 5.72391982e-005 -1.15858611e-005 5.82751636e-005
      1.28235246e-004 1.24801212e-004 -2.04682365e-005 -2.34116978e-005
      2.07697303e-005 6.59920188e-005 3.93495284e-005 1.38736170e-004
      3.01720051e-004 2.57381325e-004 1.87006499e-005 -1.63152014e-004
      -1.81920375e-004 -3.94607232e-005 1.16472889e-004 1.22519938e-004
      9.15032651e-005 3.70020862e-005 1.23162754e-004 9.56205549e-005
      -5.68518817e-006 -7.58205861e-005 -1.32291272e-004
      -1.71083520e-004 -1.77427035e-004 -1.71434207e-004
      -2.23925104e-004 -2.20324539e-004 -1.12144873e-004
      -5.82666835e-005 -6.11854630e-005 -5.76527236e-005
      -1.08928485e-004 -3.59135120e-005 -3.01452269e-006 6.14237651e-005
      2.45442843e-005 -5.14878993e-005 8.50242031e-006 1.33479436e-004
      2.08293743e-004 1.79911411e-004 1.36521514e-004 1.09407803e-004
      9.15976198e-005 1.16285701e-004 9.83942373e-005 3.56081619e-005
      1.64462272e-005 -4.28932890e-006 -1.01298217e-004 -1.15064380e-004
      -1.79403709e-004 -3.21565865e-004 -4.26025101e-004
      -3.18173261e-004 -1.54263093e-004 -1.73490153e-005 1.06182575e-004
      1.70259213e-004 1.58848721e-004 1.22931946e-004 -5.73313846e-005
      -1.61259552e-004 -1.39007010e-004 -8.28413977e-005 7.40696632e-005
      2.20874397e-004 1.81373674e-004 6.23248561e-005 2.29874113e-005
      4.81528004e-005 9.48430170e-005 -6.23775122e-005 -1.71991152e-004
      -2.21140479e-004 -1.96247100e-004 -1.14188020e-004
      -5.42997695e-005 -5.58370048e-005 7.17572548e-005 1.78164206e-004
      2.05879405e-004 1.64576995e-004 1.87826863e-005 -5.93848927e-005
      -2.46616346e-005 1.56907481e-004 1.21695368e-004 5.13888626e-005
      -1.59765477e-005 -1.47309358e-004 -1.63105928e-004
      -5.17806147e-005 5.38866916e-005 1.00586200e-004 6.57966812e-005
      -2.25378717e-005 1.94820859e-005 4.16493858e-005 1.93672149e-005
      -3.84591658e-006 9.60800098e-005 1.57329749e-004 1.64493234e-004
      7.94384032e-005 3.43919055e-005 9.46951332e-005 1.95143191e-004
      1.78506307e-004 5.50672303e-005 -7.27807565e-005 -1.47517567e-004
      -2.13967054e-004 -1.46654740e-004 -8.38637498e-005
      -7.27953302e-005 -2.06508994e-005 -1.54616225e-006 5.19114255e-005
      1.71839172e-004 1.20378521e-004 -3.90513596e-005 -4.40831682e-005
      1.13199334e-004 1.72460495e-004 6.73270697e-005 -1.63221426e-004
      -7.24949059e-005 1.05655781e-004 8.71558586e-005 4.40034964e-005
      -7.66300436e-005 -2.30953650e-004 -2.26147065e-004
      -1.27499603e-004 2.36334727e-005 5.32592385e-005 2.00264549e-005
      -3.15098296e-005 -2.63113034e-005 -8.75264304e-005
      -4.95275235e-005 3.25825240e-005 2.10777376e-004 9.88379034e-005
      -1.98692491e-004 -3.68209032e-004 -3.31366435e-004
      -1.60502110e-004 1.21946896e-005 -3.34876786e-005 -1.21834280e-004
      3.45198496e-005 9.42779079e-005 -2.62034973e-006 -6.20061037e-005
      -1.36215094e-004 -1.50535183e-004 -1.98902373e-004
      -2.07361198e-004 -9.08683214e-005 -1.77514055e-004
      -2.22165778e-004 -1.36515184e-004 -5.41197296e-005
      -5.01416143e-005 -1.08593478e-004 -1.82275558e-004
      -1.54332258e-004 -5.93083278e-005 8.12382204e-005 9.17258803e-005
      2.48548731e-005 1.30199915e-005 1.25926192e-004 2.70778633e-004
      2.42133086e-004 1.25457940e-004 5.30659645e-006 -6.94348491e-005
      -5.61464039e-005 -3.38698214e-006 -5.62480200e-005
      -6.90709567e-005 -2.29343241e-005 -9.28141308e-005
      -8.44262031e-005 -2.00178358e-004 -4.49008279e-004
      -5.54993690e-004 -4.26920218e-004 -2.00785536e-004
      -7.86677920e-005 4.43464487e-005 1.91387924e-004 1.82075688e-004
      1.56621114e-004 -3.18270795e-005 -1.42773672e-004 -9.92128334e-005
      -1.23170365e-004 -6.29642091e-005 7.48744205e-005 5.45880612e-005
      1.16339270e-005 7.59690374e-005 5.82056600e-005 4.87699181e-005
      -8.24509771e-005 -1.16213458e-004 -1.08277491e-004
      -1.06791515e-004 -1.25156366e-004 -7.37586306e-005
      -1.85273475e-005 1.29704044e-004 1.89033119e-004 1.75452384e-004
      1.07476291e-004 -6.52482559e-005 -2.03441654e-004 -1.86021221e-004
      1.09254242e-005 2.53622638e-005 -2.21938717e-006 -4.35652364e-005
      -1.19157456e-004 -1.58402443e-004 -1.15427509e-004
      -7.47367958e-005 -6.73069371e-005 -4.96094581e-005
      -6.40981525e-005 -9.11253665e-006 -4.25358921e-005
      -1.02189915e-004 -1.86346151e-004 -6.80222001e-005 2.53041162e-005
      9.25312415e-005 8.10930869e-005 2.50936646e-005 5.81335007e-005
      1.28392683e-004 7.05452767e-005 -3.57608878e-005 -1.52245135e-004
      -2.26803808e-004 -2.30699748e-004 -1.27885418e-004
      -5.96216814e-005 -3.98037009e-005 -8.23612281e-005
      -8.87790229e-005 -5.60795161e-005 4.47448838e-005 1.11479661e-004
      2.17860143e-005 9.52320624e-005 1.46673687e-004 1.34657166e-004
      3.73972434e-005 -1.00110257e-004 -2.23960451e-005 1.07021924e-005
      3.42872081e-005 1.27544945e-005 -3.07725059e-005 -1.66430123e-004
      -2.52233935e-004 -1.98388836e-004 -7.85786469e-005
      -2.65762651e-006 5.95477941e-005 9.69230678e-006 -1.36898561e-005
      1.00955940e-005 1.13986489e-005 6.70086665e-005 1.84352961e-004
      8.17149557e-005 -1.53771412e-004 -3.06142902e-004 -2.74954335e-004
      -2.46528944e-004 -2.17652574e-004 -2.44653813e-004
      -2.28193443e-004 2.04638145e-005 1.60256779e-004 1.23723512e-004
      5.67888746e-005 -2.05463880e-006 -3.55377997e-005 -1.08760389e-004
      -1.20237193e-004 -2.61980349e-005 -9.99731565e-005
      -1.29657477e-004 -3.43018655e-005 3.60874219e-005 -2.84084872e-005
      -1.11388275e-004 -2.57369335e-004 -2.75256607e-004
      -1.15137002e-004 1.03682811e-004 2.08038560e-004 1.79322888e-004
      8.40845387e-005 4.80942799e-006 1.41209661e-004 1.94993961e-004
      2.40031914e-005 -9.93823342e-005 -1.54588022e-004 -1.49306332e-004
      -1.97777135e-005 -7.73771681e-005 -1.09517401e-004
      -5.33385210e-005 -7.76594679e-005 1.09520406e-005 -1.11345267e-004
      -3.70077527e-004 -4.67357255e-004 -3.17056139e-004
      -1.39014912e-004 2.07583544e-005 5.72394674e-005 2.61364767e-004
      2.86290975e-004 3.16353544e-004 1.29584354e-004 -1.64651119e-005
      2.51459514e-005 1.57219383e-005 -4.37930430e-005 6.79406457e-006
      -1.17222799e-005 -9.96280323e-006 1.10413690e-004 1.38697433e-004
      8.15186359e-005 1.39167869e-005 -3.71385395e-005 8.18238768e-005
      1.48287072e-004 5.78954423e-005 3.07411574e-005 1.05003812e-004
      1.84247358e-004 1.50081934e-004 8.88696159e-005 5.59180517e-005
      -9.95361988e-005 -3.01639462e-004 -2.34236155e-004
      -4.81768329e-005 2.03913805e-005 6.04539673e-005 8.11814898e-005
      9.70574547e-007 -3.85113490e-005 -4.55814916e-005 -9.49319729e-005
      -3.57247372e-005 -3.34891581e-007 -9.91684501e-005
      -3.27911293e-005 -2.93395010e-006 -1.34421600e-004
      -2.17768029e-004 -4.91040300e-005 9.90294939e-005 1.29489883e-004
      9.32540352e-005 -3.22200540e-005 -5.05890330e-006 8.24266244e-005
      -3.36772500e-005 -1.88372578e-004 -2.06891666e-004
      -1.78274844e-004 -5.54353792e-005 4.37437557e-005 2.64787795e-005
      -5.19972891e-005 -1.46881706e-004 -1.41982091e-004
      -8.25588431e-005 -7.90162594e-005 3.92302791e-005 1.14032518e-004
      2.53339211e-004 2.72710604e-004 1.86860576e-004 7.52068227e-005
      1.13666887e-004 1.60887648e-004 1.75803420e-004 1.65416466e-004
      1.01292091e-004 8.69532450e-005 9.23773678e-006 -1.02418817e-004
      -1.85498080e-004 -1.65747406e-004 -2.29627258e-005 1.56646100e-004
      9.39272140e-005 1.99362712e-005 1.07637597e-005 -9.36686411e-006
      -1.78531900e-005 7.26269645e-005 5.16075670e-005 -5.20063550e-005
      -1.44337100e-004 -1.15003983e-004 -1.67488135e-004
      -2.22074203e-004 -2.32928971e-004 -1.46733248e-004 1.06193766e-004
      2.67356052e-004 2.03643431e-004 1.65807578e-004 8.24083108e-005
      -4.55763848e-006 -1.04552346e-004 -9.94827133e-005 6.82785394e-005
      1.48783611e-005 1.37805237e-005 7.28815940e-005 5.95355559e-005
      3.88698245e-005 -9.88247775e-005 -2.72294041e-004 -2.39686749e-004
      -1.97166191e-005 1.59371280e-004 1.82680786e-004 1.79321287e-004
      8.19971465e-005 1.90180708e-005 3.50588452e-005 8.21046124e-005
      -6.20649662e-005 -1.77876937e-004 -8.72948585e-005
      -7.70561237e-005 -2.54168190e-005 -6.10891002e-005
      -1.25254417e-004 -8.16955799e-005 -2.01763833e-005 1.21412195e-004
      6.82983155e-005 -1.04419210e-004 -1.18934833e-004 -1.00344558e-004
      -7.19077652e-005 3.01787259e-006 4.62265889e-005 2.46469979e-004
      2.91014410e-004 2.64105067e-004 8.57006380e-005 -5.01257491e-005
      3.70012240e-005 7.01520621e-005 -5.30841680e-005 -5.86280730e-005
      -4.41147677e-005 6.82791433e-005 1.43371028e-004 1.22149620e-004
      1.70933854e-004 1.05376777e-004 5.41564259e-005 1.40208227e-004
      1.97699614e-004 1.05039944e-004 1.22852041e-004 8.09081903e-005
      9.86026644e-005 7.10049644e-005 6.63386600e-005 1.01540500e-004
      8.55762300e-006 -1.35206807e-004 -7.64068827e-005 1.26433006e-005
      4.78180445e-005 9.00733539e-006 -3.90853984e-006 -5.90767850e-005
      -4.68366961e-005 4.46002887e-005 6.30947470e-005 1.05122490e-004
      1.63960125e-004 -5.35606546e-007 5.99725718e-005 1.00954931e-004
      -5.05813159e-006 -1.05174469e-004 -3.15330290e-005 3.81094724e-005
      -1.34269317e-006 -9.65284271e-005 -1.69926192e-004
      -7.24496495e-005 2.59628396e-005 -1.20973018e-004 -2.49546749e-004
      -1.65631936e-004 -7.35435606e-005 2.69870798e-005 9.89912733e-005
      5.19450223e-005 -9.53643685e-005 -1.14308350e-004 -5.41431764e-005
      -3.02929038e-006 -6.05910657e-007 7.87011522e-005 2.10779690e-004
      3.45084612e-004 3.97733180e-004 2.65740411e-004 1.13408387e-004
      1.54431851e-004 3.17608472e-004 2.70436431e-004 2.11838385e-004
      1.08148859e-004 4.34227768e-005 5.39192915e-005 5.28937162e-005
      -5.30400393e-005 -8.67882845e-005 5.44785362e-005 1.33196721e-004
      2.95967420e-005 -2.10521157e-005 -1.15708463e-004 -1.82075804e-004
      -7.66203884e-005 7.48059610e-005 1.72066430e-004 8.03110306e-005
      -2.70163237e-005 -4.96837347e-005 -7.01207537e-005
      -1.61879187e-004 -2.00927927e-004 -1.38577234e-004 1.21674580e-004
      1.81103343e-004 7.08714142e-005 7.35380809e-006 -7.47595332e-005
      -1.47399929e-004 -1.88421036e-004 -8.50383803e-005 1.86813442e-004
      1.77389258e-004 1.20192934e-004 5.03975134e-005 5.48715943e-005
      1.44745951e-004 -4.07362604e-005 -2.25930242e-004 -1.48101783e-004
      1.16152631e-004 2.38950175e-004 1.80503717e-004 6.17159531e-005
      1.96214423e-005 2.22422441e-005 1.82473577e-005 -5.89016508e-006
      -1.03939426e-004 -2.07959078e-004 -3.73804796e-005 7.33998677e-005
      7.94830848e-005 6.93688562e-005 -2.39902329e-005 -1.43808629e-005
      4.33584064e-005 1.60185620e-004 1.06658255e-004 2.24011128e-005
      2.55570740e-005 -2.22422404e-005 -7.93781437e-005 -7.09761007e-005
      -1.97100071e-005 1.38684787e-004 1.86002610e-004 1.50842592e-004
      -2.39357778e-005 -1.21738114e-004 -1.08672821e-005 3.00910142e-005
      -5.70397206e-005 -3.62842111e-005 -3.14328063e-005 1.13473150e-004
      1.56487775e-004 1.10085413e-004 1.50089982e-004 1.28584670e-005
      -6.79534423e-005 -2.15237542e-005 6.73001705e-005 7.76436354e-005
      1.30715984e-004 5.42214766e-005 -7.14733687e-006 4.09589156e-005
      9.42798360e-005 1.14546936e-004 1.47418104e-005 -7.95760025e-006
      1.24382059e-004 7.88577963e-005 5.58369379e-007 -7.18524461e-005
      -1.26297658e-004 -1.88452002e-004 -1.40717137e-004 2.50712401e-005
      1.08161243e-004 1.86866600e-004 2.13212275e-004 7.57277376e-005
      9.69757020e-005 1.46114005e-004 2.40524314e-004 1.84080563e-004
      9.91937050e-005 3.03095385e-006 -7.74390355e-005 -1.96131048e-004
      -1.94109773e-004 -8.67390008e-006 8.53020683e-005 -1.02135964e-005
      -1.31123248e-004 -8.24481467e-005 -3.33315802e-005 4.89084232e-005
      8.45609175e-005 -2.71824210e-005 -8.86403577e-005 -6.33113086e-005
      -2.15362652e-005 -1.15823505e-005 1.81611886e-005 1.63307879e-004
      2.49659672e-004 3.59393976e-004 3.88289947e-004 2.47312972e-004
      1.52817214e-004 2.09901220e-004 3.04916379e-004 1.87120895e-004
      9.33582342e-005 2.80273744e-005 6.86290832e-006 1.41996588e-005
      6.44457396e-005 9.15831915e-005 7.14496491e-005 1.53204819e-004
      1.53328729e-004 1.03309721e-004 2.35130233e-006 -1.09516768e-004
      -2.01324932e-004 -1.12729795e-004 1.32385583e-004 2.05945151e-004
      1.79506751e-004 3.26245354e-005 -7.10257082e-005 -6.23179221e-005
      -8.03433213e-005 -1.21803969e-004 -1.64006997e-004
      -5.08449375e-005 -1.81094365e-005 -1.39548520e-005 9.57034172e-006
      -4.67942082e-005 -1.97383459e-004 -1.94543361e-004
      -9.49800688e-006 1.27390857e-004 1.52446082e-004 1.51109154e-004
      1.14369126e-004 1.71980559e-004 2.21666633e-004 4.49069921e-005
      -2.03954754e-004 -9.82212950e-005 1.04037339e-004 9.56921285e-005
      -5.89552474e-005 -7.16616996e-005 -6.76337686e-006 8.51132427e-006
      -6.53303068e-005 -9.87803724e-005 -2.01476621e-004
      -2.02052179e-004 5.09250458e-006 8.33268714e-005 1.70594198e-004
      1.49887026e-004 -1.20782261e-005 1.78462360e-005 1.50076949e-005
      6.94511400e-005 4.74555673e-005 -3.22722626e-005 1.38683276e-006
      -8.00686466e-005 -1.73221284e-004 -1.51947621e-004
      -1.29246429e-004 -3.12434422e-005 8.71877710e-005 9.60374819e-005
      -4.96846878e-005 -1.54925554e-004 -9.89230248e-005
      -4.62205389e-005 -5.81126733e-005 4.57955612e-005 1.99003662e-005
      6.76625859e-005 1.23193997e-004 1.11666428e-004 7.18201554e-005
      -6.99258235e-005 -1.70408966e-004 -1.23613543e-004
      -4.17419760e-005 3.25907604e-005 8.24485469e-005 -2.91606157e-005
      1.43675979e-005 1.69512772e-004 2.49405886e-004 1.72205066e-004
      -7.52947453e-005 -5.86720453e-005 1.34320217e-004 7.64079814e-005
      -4.89332342e-005 -1.84229953e-004 -2.04609547e-004
      -1.85350567e-004 -8.33068189e-005 6.81531237e-005 1.43335026e-004
      1.48235296e-004 1.55983333e-004 5.51917474e-005 1.22299563e-004
      2.32315084e-004 3.45005828e-004 2.56336178e-004 7.84115691e-005
      1.56934384e-005 -2.42954720e-005 -1.01876321e-004 -8.17397304e-005
      6.35054312e-005 1.30884626e-004 5.59225409e-005 -7.06155042e-005
      -1.05891901e-004 -8.79735453e-005 -2.18002715e-005
      -4.30293367e-005 -7.23298435e-005 2.60262391e-006 7.19099771e-005
      -2.37222957e-006 1.26270070e-005 3.56601558e-005 1.28743326e-004
      2.49392906e-004 3.60709935e-004 2.95114180e-004 1.53326750e-004
      1.54794310e-004 1.83850454e-004 1.54264373e-004 -1.88499580e-005
      -1.40096206e-004 -9.05963898e-005 -8.65619004e-005
      -6.37847843e-005 -8.13249062e-005 7.71867963e-006 6.87278953e-005
      1.35557086e-004 6.08679547e-005 4.91823084e-005 -2.62995254e-005
      -1.37070718e-004 -2.25389449e-004 -1.69169376e-004 6.23847372e-005
      1.13817325e-004 2.62295616e-005 -1.49297659e-004 -1.89292186e-004
      -7.93944855e-005 5.84182271e-005 -3.90399982e-005 -7.97156099e-005
      -1.00207479e-004 -6.25547109e-005 -5.29500676e-006 3.08186136e-005
      -1.03952632e-004 -3.64847510e-004 -3.68347828e-004
      -1.43257523e-004 5.48081844e-005 1.20426266e-004 1.79124254e-004
      2.01306611e-004 2.44532450e-004 3.16109101e-004 8.12382132e-005
      -2.16510831e-004 -2.03149815e-004 -7.90027407e-005
      -1.10307927e-004 -1.93011947e-004 -4.35341062e-005 2.78197313e-005
      -4.08585656e-005 -6.86875501e-005 -2.25142976e-005
      -4.85177006e-005 -3.63286586e-006 1.99457616e-004 1.65421457e-004
      1.61282573e-004 2.80479508e-005 -1.08905166e-004 -1.36738730e-004
      -1.72526925e-004 -1.61500488e-004 -1.68219980e-004
      -1.67144477e-004 -7.38276794e-005 -1.15456482e-004
      -2.49216362e-004 -1.90928185e-004 -2.12005500e-004
      -1.38328440e-004 2.01514813e-005 8.34657330e-005 4.20468541e-006
      -1.24873419e-004 -1.81563330e-004 -2.13742504e-004
      -2.27106808e-004 -2.49941222e-005 8.64000249e-005 1.35467970e-004
      1.06049694e-004 3.47233399e-005 -2.28973768e-005 -1.40324089e-004
      -1.87177080e-004 -9.74082213e-005 -7.48998718e-005
      -1.04786544e-004 -9.97472671e-005 -1.39183234e-004
      -6.04510533e-005 1.54356152e-004 2.48313678e-004 1.52447596e-004
      -1.72938308e-004 -2.07459394e-004 3.69621775e-005 5.38734530e-005
      1.25894967e-005 -7.43411510e-005 -1.40487697e-004 -1.43548095e-004
      -1.55168727e-005 1.74831919e-004 2.09004211e-004 1.69120845e-004
      1.16270843e-004 6.27944319e-005 1.81433614e-004 3.28907307e-004
      3.79956211e-004 2.70349265e-004 9.11574098e-005 7.63392745e-005
      1.16667819e-004 2.42019269e-005 6.16920670e-006 7.10440290e-005
      1.37762778e-004 6.48793794e-005 -4.80500785e-005 -3.25512592e-005
      2.25452313e-005 -4.83232216e-005 -1.56775626e-004 -6.01282845e-005
      7.57708403e-005 1.14477960e-004 1.31808947e-005 -2.11591941e-005
      -2.55189825e-005 6.55515905e-005 2.14588013e-004 3.53548588e-004
      2.17849549e-004 5.46264419e-005 4.18516174e-005 6.01810934e-005
      1.91344443e-005 -1.84960241e-004 -2.79366475e-004 -1.85421566e-004
      -1.41684533e-004 -1.33451656e-004 -1.96841516e-004
      -1.06086518e-004 7.12524024e-006 1.68094375e-005 -7.53122513e-005
      -1.12877075e-004 -1.26528088e-004 -1.40306991e-004
      -2.26231685e-004 -1.83616110e-004 3.89148408e-005 7.89377082e-005
      -9.28497975e-005 -3.11420474e-004 -3.70347931e-004
      -1.83201817e-004 1.33838321e-005 -9.37157529e-005 -1.93580461e-004
      -2.41504167e-004 -1.77928436e-004 -1.27934371e-004
      -1.12083268e-004 -2.72858771e-004 -5.13637962e-004
      -4.92279127e-004 -2.38780776e-004 -2.96817616e-005 2.30124224e-005
      8.76770791e-005 1.20541270e-004 1.82364529e-004 3.17942409e-004
      9.23319894e-005 -2.61306501e-004 -4.16682131e-004 -3.16834135e-004
      -2.22893737e-004 -1.77246751e-004 -1.13931228e-005 1.67533362e-005
      -6.90589950e-005 -4.26861370e-005 3.27858470e-005 7.55730507e-005
      8.89290313e-005 2.57194217e-004 2.57846114e-004 1.50784035e-004
      -1.86504803e-005 -1.93881730e-004 -2.23253825e-004
      -3.13757977e-004 -3.19988845e-004 -3.06842121e-004
      -2.05050397e-004 -1.43141369e-004 -6.67312634e-005
      -7.34505011e-005 -1.03539103e-004 -1.57989329e-004
      -9.01581880e-005 9.38569719e-005 2.04814205e-004 1.67953433e-004
      8.89806142e-006 -1.22072379e-004 -2.10371290e-004 -1.97058209e-004
      -3.59224468e-005 5.97063918e-005 1.44900216e-004 1.71916472e-004
      4.68256294e-005 -9.66025182e-005 -1.58963245e-004 -1.26182640e-004
      -6.07986003e-005 -5.80149535e-005 -1.14092771e-004
      -6.52645322e-005 -4.05750870e-005 1.27687781e-005 1.03938131e-004
      1.57435410e-004 1.18398420e-004 -1.59532894e-004 -2.01144067e-004
      3.48588328e-005 9.16919525e-005 5.60244553e-005 -3.21243060e-005
      -8.94029436e-005 -1.55591784e-004 -2.15573073e-005 1.72057495e-004
      1.99382674e-004 1.40038741e-004 -3.88657718e-005 -1.28777305e-004
      3.41992272e-005 2.71910656e-004 3.44255386e-004 2.71291123e-004
      1.76091271e-004 2.23361480e-004 1.88117396e-004 -9.88804186e-006
      -4.60155534e-005 9.03108012e-005 1.43923622e-004 1.02783553e-004
      3.32030504e-005 4.45731057e-005 1.36681148e-004 1.42065546e-005
      -1.12268332e-004 -9.19659669e-006 1.18353812e-004 1.36302071e-004
      7.28639570e-005 -1.18419330e-005 -7.22418044e-005 5.49435936e-005
      2.03417949e-004 2.71780125e-004 9.93242938e-005 -3.79234552e-005
      -7.79135153e-005 -1.07644533e-004 -7.71882042e-005
      -2.02812938e-004 -3.02435335e-004 -1.86696241e-004
      -1.30635744e-004 -1.11346286e-004 -1.94809414e-004
      -7.93714717e-005 7.42627526e-006 -7.88924372e-005 -1.36703995e-004
      -1.77680064e-004 -1.63069999e-004 -1.68045503e-004
      -2.07299498e-004 -1.53031287e-004 7.75399603e-005 1.24697588e-004
      -1.06397732e-004 -3.94102011e-004 -4.70245228e-004
      -2.78365682e-004 -1.37882525e-004 -2.28115401e-004
      -3.38058133e-004 -2.28700679e-004 -1.35794326e-004
      -6.02104847e-005 -8.90832089e-005 -2.57199892e-004
      -4.31279215e-004 -3.96506162e-004 -1.47007318e-004
      -1.40118529e-004 -1.63640929e-004 -1.14297036e-004
      -9.73373753e-005 -6.44419333e-006 2.01200732e-004 5.00029746e-005
      -3.20269552e-004 -4.78421076e-004 -3.25078145e-004
      -1.85754790e-004 -1.61161603e-004 -5.00328351e-005
      -3.99564597e-005 -5.95984129e-005 6.18733393e-005 2.15805077e-004
      1.79910669e-004 1.75294146e-004 2.48443830e-004 1.94799941e-004
      1.26789819e-004 -7.45875586e-005 -1.05172454e-004 -7.48336679e-005
      -1.56320966e-004 -2.25732540e-004 -2.30132850e-004
      -5.70234661e-005 -3.43147622e-005 -1.50587566e-005 2.22133913e-005
      -4.12503650e-005 -1.14392249e-004 -7.47306694e-005 1.23361213e-004
      2.64207512e-004 2.80672451e-004 1.58945826e-004 6.73757095e-005
      2.39454630e-006 -9.79458036e-007 6.73092873e-005 1.21984260e-004
      1.06796200e-004 1.11624700e-004 1.02123740e-004 -1.61452874e-006
      -7.23538105e-005 -1.06039261e-004 -1.13665810e-004
      -6.93760740e-005 -8.27550830e-005 -4.66037727e-006 7.29106468e-005
      1.46551820e-005 1.91937343e-005 3.31189294e-005 5.77495921e-005
      -3.49730872e-005 -1.01515310e-004 7.42709290e-006 3.37689489e-005
      -4.89155063e-005 -4.84707634e-005 -8.90818410e-005
      -2.19110836e-004 -1.33017369e-004 2.34813815e-005 1.45281945e-006
      1.37810894e-005 -1.50133870e-004 -2.39326953e-004 -8.90145675e-005
      1.75534835e-004 2.50025536e-004 1.62791330e-004 1.18426622e-004
      2.13655643e-004 1.06361127e-004 -1.40489254e-004 -1.43722282e-004
      6.89022709e-005 1.24588536e-004 1.23736347e-004 8.89799630e-005
      4.52922941e-005 9.41994731e-005 4.43542995e-005 1.87309342e-005
      1.06760835e-005 7.89336336e-005 7.45535581e-005 -1.09814409e-005
      -8.12536309e-005 -8.06276075e-005 5.73212637e-005 2.01811345e-004
      1.80006900e-004 -1.56251244e-005 -3.26188347e-005 -7.46054284e-005
      -1.39531025e-004 -8.82425084e-005 -1.07637090e-004
      -1.70513566e-004 -6.96598217e-005 4.85070523e-005 -7.62441778e-005
      -2.19639158e-004 -9.15327473e-005 -4.14056849e-005
      -1.10931738e-004 -1.61531309e-004 -1.19494820e-004
      -7.73339998e-005 -1.10295427e-004 -1.84814999e-004
      -1.42222169e-004 2.46063228e-005 5.92512006e-005 -5.72638128e-005
      -2.06458571e-004 -2.65076465e-004 -1.33476686e-004
      -4.55907357e-005 -1.63732402e-004 -2.25242373e-004
      -3.30970288e-005 4.23678284e-005 3.21690713e-005 -4.83265831e-005
      -1.82350166e-004 -3.43244377e-004 -2.67034367e-004
      -7.35315189e-005 -2.21318245e-004 -2.55907711e-004
      -2.37082393e-004 -2.76812090e-004 -1.78763628e-004 1.09451066e-005
      -7.44161589e-005 -3.47899448e-004 -3.85756925e-004
      -2.18866568e-004 -1.88572405e-004 -2.92376266e-004
      -1.74976114e-004 -9.91775814e-005 -4.10302746e-005 1.08436390e-004
      2.07227291e-004 1.65252874e-004 1.75200941e-004 2.14250656e-004
      1.63912206e-004 1.74966452e-004 9.03245527e-005 1.21125486e-004
      1.67814971e-004 7.61218762e-005 -3.55306111e-005 -6.54446485e-005
      7.74989167e-005 1.42325634e-005 -2.36785800e-005 -4.98946392e-005
      -6.86028288e-005 -9.04834087e-005 -7.56121080e-005 3.98933262e-005
      1.74201574e-004 1.57035538e-004 1.09091801e-004 1.60678537e-004
      1.18535158e-004 7.79825932e-005 3.01762666e-005 7.10740960e-006
      -2.41107000e-006 4.02350925e-005 5.62662863e-005 3.92712245e-005
      -3.80730962e-005 -5.01696450e-005 -8.48416748e-005
      -6.90649467e-005 -3.79048579e-005 3.23899148e-005 3.83177576e-005
      1.65056899e-005 -4.39566938e-005 -3.68669898e-005 -4.20186989e-005
      -9.29402158e-005 -1.32821500e-004 -1.01598462e-005 1.18693179e-005
      -8.17312102e-005 -3.22996420e-005 1.06493535e-005 -6.19959392e-005
      -3.08458584e-005 7.87953541e-005 -5.20996182e-005 -5.69946715e-005
      -1.07956752e-004 -2.13830746e-004 -1.22536934e-004 4.18014570e-005
      1.19271637e-004 7.80767077e-005 6.76392447e-005 1.36973118e-004
      3.98488482e-005 -2.08386919e-004 -2.17820023e-004 -1.56778042e-005
      7.45170619e-005 1.11817033e-004 6.40980652e-005 2.04383650e-005
      8.25772004e-005 2.02800493e-005 4.48859319e-005 3.98145712e-005
      4.04456623e-005 -7.36044376e-006 -1.17981916e-004 -2.08193844e-004
      -1.38767777e-004 -8.80714360e-005 3.01290747e-005 2.76003939e-005
      -6.84571351e-005 -3.23514942e-005 -6.40010330e-005
      -9.19490922e-005 2.19353169e-005 -1.78171085e-005 6.72199621e-006
      1.73647204e-004 1.71583190e-004 -9.46558357e-005 -2.56516272e-004
      -1.36953109e-004 -6.16746547e-005 -4.78862603e-005
      -9.44277199e-005 -9.60669349e-005 -4.22685116e-005
      -1.00287078e-004 -1.56170092e-004 -4.82407595e-005 1.49171916e-004
      1.31665307e-004 9.25459881e-006 -3.34016695e-005 2.59119552e-005
      1.26907864e-004 2.85782589e-005 -4.86407407e-005 -4.55178597e-005
      6.22801963e-005 9.50593312e-005 1.15752009e-005 -8.15311869e-005
      -1.59630203e-004 -2.59621942e-004 -1.54854861e-004 4.31449553e-005
      -1.75354755e-004 -2.31301005e-004 -2.83528148e-004
      -3.63231840e-004 -3.04175570e-004 -1.61837801e-004
      -1.99548274e-004 -4.47628525e-004 -3.81331396e-004
      -2.49309553e-004 -2.59909895e-004 -3.67738656e-004
      -2.54865678e-004 -1.31967303e-004 -4.57576498e-005 4.47282873e-005
      1.30021494e-004 6.90135203e-005 -3.64637549e-006 3.21880252e-005
      7.07707586e-005 1.86933292e-004 1.36157454e-004 1.41058015e-004
      1.37897106e-004 6.71212110e-005 3.49488473e-005 2.07861758e-005
      1.18310170e-004 -1.91484614e-005 -8.73888130e-005 -1.08453489e-004
      -5.59051296e-005 -4.44230136e-006 -6.22136286e-005 2.63254715e-005
      1.37432347e-004 3.50122245e-005 -1.74763845e-005 1.11749439e-004
      1.51187545e-004 1.23006233e-004 3.99173296e-005 -2.51981273e-005
      -1.77986676e-005 3.64811895e-005 4.26931474e-005 -3.93436967e-005
      -1.72207961e-004 -1.03551225e-004 -6.55548720e-005 2.53074268e-005
      5.24985298e-005 1.83876691e-005 1.72772798e-005 -4.59673320e-005
      -4.21802724e-005 -1.17151885e-005 1.54523023e-005 6.94106438e-006
      -6.52271001e-006 8.64084577e-005 -1.81131927e-005 -8.87284186e-005
      1.95885732e-005 6.22395237e-005 -1.80415664e-005 -3.23732711e-005
      8.00512717e-005 3.31996271e-005 9.37174846e-005 1.11943737e-004
      -1.99011447e-005 -1.86923735e-005 -7.00816672e-005
      -9.36220531e-005 -8.43618836e-005 -8.95671401e-005 4.65660514e-006
      -5.54033613e-005 -2.89064221e-004 -2.03625110e-004
      -3.44228974e-005 2.93072731e-006 2.76024766e-005 3.04535442e-005
      4.58131653e-005 8.60552100e-005 -1.22406402e-006 -3.21741027e-005
      -6.82656173e-005 -1.38260966e-005 1.63104087e-005 -9.11657480e-005
      -2.36299340e-004 -2.41514659e-004 -2.15881882e-004
      -1.22569050e-004 -7.39277966e-005 -7.66764206e-005
      -3.34164797e-005 -3.38307473e-005 -4.15683862e-005 8.56256884e-005
      6.66557462e-005 9.22603649e-005 1.78487928e-004 8.60829168e-005
      -1.23787395e-004 -1.25001330e-004 9.92063269e-006 9.40205427e-005
      1.12025162e-004 1.79216440e-005 -4.03344120e-006 8.33809190e-006
      -2.45040319e-005 4.33361492e-006 3.68082801e-005 1.44963429e-004
      1.55833215e-004 9.17028738e-005 2.12051036e-005 1.41092329e-004
      1.64266661e-004 1.09050110e-004 1.55925209e-005 5.24513234e-005
      6.91011664e-005 5.29728350e-005 -3.53686009e-005 -1.46771752e-004
      -1.03494727e-004 -1.48763909e-004 1.63104971e-006 1.96152891e-004
      -1.22475190e-004 -1.82848235e-004 -2.78478023e-004
      -2.95709353e-004 -1.88415244e-004 -6.47844308e-006
      -5.02696275e-005 -2.79004365e-004 -2.54193990e-004
      -2.10832834e-004 -2.13096282e-004 -2.79904460e-004
      -2.22969247e-004 -2.00170529e-004 -1.04144739e-004 4.50204379e-006
      6.41171646e-005 2.66001825e-005 -7.47926460e-005 -4.09339082e-005
      4.07735315e-005 1.73109191e-004 1.21358236e-004 5.43715105e-005
      3.97373551e-005 3.00348370e-006 8.59676729e-005 1.08353350e-004
      1.32342757e-004 1.92235202e-005 -2.60939778e-005 -5.40333804e-006
      3.16369587e-005 4.51653214e-005 -7.55612928e-005 -4.85488381e-005
      1.14420225e-004 -1.30427270e-005 -8.90916126e-005 7.71804116e-005
      1.80180621e-004 1.32747708e-004 5.42384005e-005 2.96166800e-005
      2.55827963e-005 3.10541436e-005 2.41564685e-005 -3.91602480e-005
      -1.22449594e-004 -1.02045655e-004 -2.16063727e-005 1.26090643e-004
      1.38906762e-004 3.78014702e-005 3.64677617e-005 9.99321173e-007
      7.86088494e-005 1.61023985e-004 1.39173935e-004 7.65522927e-005
      7.93089494e-005 9.82096972e-005 5.77687251e-006 -3.76187163e-005
      2.85087044e-005 4.11813089e-005 -4.07012849e-005 -8.57644991e-005
      1.72195651e-005 5.34217870e-005 1.79873954e-004 2.23070136e-004
      9.22027466e-005 3.80078636e-005 -7.48105813e-005 -1.57231902e-004
      -1.94618115e-004 -1.50778695e-004 -1.16806459e-005
      -2.86609211e-005 -2.52896483e-004 -1.59330128e-004 8.00629095e-006
      -8.70344047e-006 -3.05540307e-005 5.69379299e-005 1.05010338e-004
      9.58985402e-005 1.39286858e-005 -1.33518217e-004 -1.38793781e-004
      4.22994663e-006 7.42456250e-005 2.19989452e-005 -5.38282075e-005
      -2.23956988e-004 -1.61729316e-004 -7.12257242e-005
      -6.27024929e-005 -9.50197864e-005 -5.47543350e-005
      -3.37319070e-005 -8.38222877e-006 9.49469177e-005 8.32919395e-005
      2.92057812e-005 -3.19671490e-005 -2.44302901e-005 -2.43295508e-005
      9.87907770e-005 2.07184683e-004 2.39277535e-004 2.00723080e-004
      1.38589807e-004 1.21737670e-004 1.27619205e-004 4.70146224e-005
      9.40969112e-005 1.32345493e-004 9.07643916e-005 9.54260759e-005
      1.06807798e-004 2.52031678e-005 9.48085071e-005 1.47096682e-004
      2.10146769e-004 1.23929596e-004 1.26763945e-004 9.81175908e-005
      6.03029766e-005 -2.76195933e-005 -1.41993689e-004 -1.26938816e-004
      -1.77324822e-004 -5.46326955e-005 1.04467035e-004 -7.34742571e-005
      -1.25619263e-004 -2.14355023e-004 -1.39674143e-004 7.04237973e-005
      2.18437111e-004 1.24512866e-004 -1.03133410e-004 -6.17537880e-005
      -7.67677775e-005 -1.68792903e-004 -2.53685808e-004
      -2.58924847e-004 -2.62424088e-004 -1.87968340e-004
      -6.86245039e-005 -4.90565762e-005 6.32296769e-006 3.25891087e-005
      1.73704811e-005 4.23532510e-005 1.20431934e-004 8.03573857e-005
      -1.46348339e-005 -3.42746389e-005 -4.48863175e-005 5.99895357e-005
      1.06048567e-004 3.97738877e-005 -1.34360407e-005 3.09335519e-005
      1.42694946e-004 1.24211219e-004 7.85975499e-005 -7.30911779e-005
      -6.56904449e-005 1.04349572e-004 4.80857670e-005 -3.24216744e-005
      4.32582101e-006 8.88362483e-005 4.06673935e-005 -1.20982313e-005
      -1.81764938e-006 1.95884913e-005 4.28620951e-005 9.26725534e-007
      -2.84444905e-005 -4.69383485e-005 -6.91759706e-005 1.81199412e-005
      1.77873153e-004 1.31300214e-004 -1.57263203e-005 -5.78642139e-005
      -6.34304670e-005 9.57198972e-006 5.86641327e-005 6.06520116e-005
      3.47876012e-005 -3.35009863e-005 -1.77813854e-005 -1.10539164e-004
      -1.33569250e-004 -7.74583968e-005 -8.27737313e-005
      -1.87371072e-004 -2.64508679e-004 -1.16518087e-004
      -2.19794474e-005 1.69825886e-004 1.65793434e-004 3.91897265e-005
      -2.62803787e-005 -8.68594943e-005 -1.47358209e-004
      -1.46639053e-004 -5.17585904e-005 7.36143420e-006 -3.52175484e-005
      -1.91115076e-004 -7.31605323e-005 4.70127488e-005 1.43898887e-005
      -4.18172349e-005 7.73657739e-005 1.75460169e-004 1.31944122e-004
      3.46078014e-005 -1.28063417e-004 -1.07342508e-004 1.29147938e-005
      1.12119829e-004 1.41406781e-004 1.07508902e-004 -3.63674963e-006
      -5.25788128e-005 -2.84705256e-005 -7.71507475e-005
      -1.25325590e-004 -1.11539717e-004 -8.06221651e-005
      -2.27557521e-005 5.35498075e-005 6.99402835e-006 -5.01814138e-005
      -1.55188653e-004 -1.35469236e-004 -8.41628025e-006 1.74690518e-004
      2.97083752e-004 2.68780161e-004 1.91389394e-004 1.87415702e-004
      1.76355781e-004 1.45028564e-004 -3.52181632e-005 5.65461642e-006
      1.14813949e-004 1.05814936e-004 3.55690645e-005 1.27399926e-005
      -7.18993817e-007 6.82347600e-005 1.69381121e-004 2.75533093e-004
      1.14988427e-004 2.87909079e-005 -5.89342847e-007 1.12960188e-005
      -2.84393354e-005 -1.34737362e-004 -1.70641593e-004
      -2.89499265e-004 -1.14421273e-004 5.88926232e-005 1.52773100e-005
      -2.44979674e-005 -1.11676003e-004 -3.90408350e-005 2.29323094e-004
      3.14668228e-004 2.44554889e-004 2.51256333e-005 5.88709881e-005
      -2.37863587e-005 -2.53247097e-004 -3.70081427e-004
      -3.78913363e-004 -3.42147250e-004 -2.17341803e-004
      -7.52380656e-005 -6.27772897e-005 -6.71374801e-006
      -1.28880029e-005 -4.73166619e-006 2.35078824e-005 8.59002976e-005
      7.06433493e-005 -5.29735771e-005 -6.11792420e-005 -5.00716742e-005
      8.61009103e-005 1.21069352e-004 5.19315290e-006 -4.44938087e-005
      4.17473129e-005 8.68174320e-005 1.08015207e-004 6.76034178e-005
      -1.98667167e-005 1.50205151e-005 1.32551519e-004 7.03531623e-005
      -2.59293192e-005 2.98896248e-005 2.47920489e-005 -3.67587199e-005
      -6.24934328e-005 -6.72215101e-005 4.02276601e-006 6.11338401e-005
      5.23287308e-005 2.89743093e-005 -1.89746470e-006 -8.48184645e-005
      -5.14445455e-005 1.46363527e-004 1.00822472e-004 4.29382362e-006
      -2.76244846e-005 -2.59259014e-005 -4.51364540e-005
      -1.23395614e-004 -7.71331397e-005 -8.42693407e-005
      -1.43269572e-004 -7.69456456e-005 -1.39286814e-004
      -1.75789202e-004 -1.36995281e-004 -1.36378920e-004
      -1.69154213e-004 -2.79526226e-004 -1.66593469e-004
      -1.33666254e-004 2.20035563e-005 5.42771268e-005 -2.68376753e-005
      -2.94693891e-005 -9.85565293e-006 -7.37251103e-005
      -5.75868435e-005 2.07803623e-005 6.17607802e-005 8.47896081e-005
      8.39661425e-006 2.33320079e-005 3.20181425e-005 3.08767230e-005
      -1.11448671e-005 3.74420488e-005 1.54159323e-004 1.67565886e-004
      7.92940627e-005 8.46341845e-006 4.33899913e-005 1.10046392e-004
      1.72995846e-004 2.51645222e-004 3.01038264e-004 2.44170078e-004
      1.00633551e-004 5.23054223e-005 -5.12437146e-005 -1.61497912e-004
      -1.71908105e-004 -8.28685006e-005 -4.24773998e-006
      -3.36859594e-005 -1.20372148e-004 -1.92038948e-004
      -1.80888368e-004 -1.40931486e-004 -1.71815245e-005 1.48746331e-004
      2.69090437e-004 2.32274659e-004 1.88840058e-004 1.76561894e-004
      1.30415909e-004 7.08102816e-005 -1.23598365e-004 -1.17577081e-004
      -3.52808161e-006 4.80246417e-005 1.00090445e-004 1.83605516e-005
      -1.30006474e-005 2.61607674e-005 8.29849378e-005 6.29033530e-005
      -3.75181735e-005 -7.63418720e-005 1.06565076e-005 7.02533143e-005
      1.11616886e-004 -1.42042800e-005 -9.07676294e-005 -2.91510834e-004
      -9.63146013e-005 1.20420314e-004 -1.77318052e-005 -3.83666993e-005
      -1.06130021e-004 -4.56707567e-005 2.72999634e-004 3.67890723e-004
      2.22641276e-004 2.98282757e-005 2.45780684e-005 -3.05279900e-005
      -2.39590518e-004 -4.08509281e-004 -4.45954385e-004
      -3.10147589e-004 -1.05489926e-004 1.12635753e-004 8.91230375e-005
      1.65382662e-005 -2.58161454e-005 -1.28653803e-004 -1.13510578e-004
      -1.92745483e-005 -1.36906629e-005 -7.53668064e-005
      -3.15130710e-005 -1.85516747e-005 1.43777652e-004 2.09175152e-004
      4.53787943e-005 -3.54591648e-005 8.05465152e-006 2.09662867e-005
      1.98574544e-005 2.22907202e-005 -9.63899129e-006 6.40593062e-005
      1.05171646e-004 -2.37855620e-005 -8.67167255e-005 6.08366690e-006
      7.49941100e-005 7.35261929e-005 4.30037944e-005 -1.66227765e-005
      3.70919333e-005 7.63923017e-005 9.13612967e-005 1.06777850e-004
      9.25319982e-005 -2.06019267e-005 1.46576531e-005 1.49000756e-004
      1.21349163e-004 9.54289571e-005 5.47055024e-005 6.14113596e-005
      1.13246031e-004 5.06872711e-005 1.26744781e-004 -2.45099800e-005
      -1.45165628e-004 -7.02311227e-005 -1.15820927e-004
      -1.06500709e-004 -6.80303056e-005 -5.18678353e-005
      -3.93684932e-005 -4.57543756e-005 3.85702697e-005 4.77582671e-006
      9.04792687e-005 1.81340656e-005 -5.80688429e-005 5.89340889e-005
      2.57670123e-004 1.34129295e-004 -2.71534482e-005 3.30362582e-006
      1.04941988e-004 8.68148491e-005 9.26477005e-005 7.96335444e-005
      9.34342752e-005 6.59939469e-005 -8.63452624e-006 -5.67769021e-005
      -4.28838848e-006 1.34276532e-004 1.91905870e-004 1.89944287e-004
      1.94918379e-004 8.07184333e-005 5.26106269e-005 1.63457211e-004
      3.91767186e-004 3.74794588e-004 1.97100759e-004 8.36012841e-005
      -8.22757574e-005 -1.88482954e-004 -2.15885244e-004
      -8.75136757e-005 -9.51236943e-005 -1.38998817e-004
      -1.98950482e-004 -1.92653941e-004 -1.20300596e-004
      -6.50682778e-005 -5.46618412e-006 5.30719772e-005 1.82187359e-004
      1.51629720e-004 1.24650978e-004 1.18397489e-004 6.86369021e-005
      5.94494304e-005 -1.01331352e-004 -1.30353626e-004 -4.72421307e-005
      1.50573223e-005 8.41767469e-005 8.15710882e-005 1.02124373e-004
      7.73531283e-005 1.94373963e-004 1.59968709e-004 -1.91731906e-005
      -7.12424153e-005 1.26012354e-004 1.75671899e-004 2.30523452e-004
      1.08144370e-004 6.52780864e-006 -2.32549646e-004 -1.08150314e-004
      1.34980684e-004 2.25673084e-005 -2.08179972e-005 -1.55756963e-004
      -8.83300454e-005 1.83293261e-004 2.88525189e-004 1.84659890e-004
      -1.18562721e-005 -7.54090870e-005 -1.90360461e-005
      -9.11092793e-005 -3.23641812e-004 -4.37461305e-004
      -2.13511972e-004 8.15203530e-005 2.95204576e-004 2.01349671e-004
      5.00752431e-005 1.82104259e-006 -1.04909595e-004 -1.75245921e-004
      -7.85594821e-005 -5.70714110e-005 -7.56936861e-005
      -2.13141648e-005 -1.36196240e-005 1.27034276e-004 2.10154511e-004
      3.41356244e-005 -5.90465279e-005 -6.43241874e-005 -2.61311852e-005
      -9.85990118e-005 -6.58910139e-005 -8.88929208e-005
      -3.57609460e-005 -2.81302291e-005 -1.86792618e-004
      -1.85877143e-004 -6.41808001e-005 2.50147832e-006 7.35346694e-005
      1.07897176e-004 5.61385132e-005 4.30200162e-005 6.72798342e-005
      7.05542334e-005 8.60117580e-005 7.53747881e-005 1.13344344e-004
      1.51890461e-004 2.19359572e-004 1.35906870e-004 7.75436201e-005
      6.37746325e-006 2.77018171e-005 1.08556342e-004 1.88379170e-004
      3.37284611e-004 1.28357380e-004 -7.28922805e-006 5.04019226e-005
      -8.04941010e-005 -1.55772868e-004 -1.11260939e-004
      -1.36920316e-005 4.44439283e-005 9.62985287e-005 2.19834808e-004
      1.81820869e-004 1.38396441e-004 -3.05332942e-005 -1.86583085e-004
      4.40283402e-005 2.75325059e-004 1.51047134e-004 7.91505317e-006
      3.93748196e-005 6.58418212e-005 9.06441419e-005 1.12447306e-004
      1.15830517e-004 9.67757005e-005 3.10560317e-005 -4.55348272e-005
      -1.44936072e-004 -1.46188613e-004 7.39995667e-005 1.98689915e-004
      1.63298842e-004 1.37240524e-004 -5.19923669e-005 -1.04364255e-004
      -3.52155148e-005 1.93968008e-004 2.37116954e-004 2.08378842e-004
      3.25757792e-005 -1.75098583e-004 -2.46879790e-004 -1.73470151e-004
      -2.19108915e-005 -6.09701638e-005 -1.24203812e-004
      -2.35714077e-004 -1.79136900e-004 -7.63224743e-005 3.26378104e-005
      7.52230917e-005 5.29432727e-005 1.62127675e-004 1.68421902e-004
      1.04964740e-004 1.75231035e-005 -9.48601446e-005 1.25630197e-006
      -4.85606179e-005 -6.95274721e-005 -5.48590033e-005
      -9.71645422e-005 -7.92803985e-005 -4.86776007e-005 8.89067269e-006
      4.01763755e-005 1.43340134e-004 1.35583527e-004 3.15828333e-006
      -7.57975722e-005 5.42813323e-005 9.08150323e-005 1.19082571e-004
      8.15184612e-005 4.24245591e-005 -1.94917229e-004 -9.33818446e-005
      1.85418365e-004 1.46816208e-004 5.11801954e-005 -6.50095171e-005
      -8.48604468e-005 1.40719669e-004 2.92315352e-004 2.22674193e-004
      -2.97482438e-005 -9.07148424e-005 -4.63681135e-005
      -5.30661746e-005 -1.80681396e-004 -3.12513468e-004
      -9.72044800e-005 1.22511134e-004 2.65308336e-004 2.18387635e-004
      1.28016269e-004 1.61670512e-004 6.68073917e-005 -5.55896040e-005
      -3.11927324e-005 -2.49013701e-005 -1.48379229e-004
      -6.58241479e-005 3.20776453e-005 1.19883560e-004 1.05083556e-004
      -1.10207518e-004 -1.43107784e-004 -8.79706568e-006
      -1.99168862e-005 -7.01520185e-005 -1.06095875e-004
      -1.68794286e-004 -9.93119174e-005 -9.23111293e-005
      -2.13363703e-004 -2.10355502e-004 -9.35117787e-005 2.28136541e-005
      5.21544061e-005 6.39153732e-005 1.50188853e-005 -4.23905549e-005
      -6.81191932e-006 2.85438705e-006 2.24202940e-005 2.48227661e-006
      1.38394726e-005 1.05064384e-004 2.18068424e-004 1.33848574e-004
      5.90767631e-005 7.90476770e-005 1.43485386e-005 7.67824240e-005
      1.62400785e-004 2.68436706e-004 1.28241329e-004 4.19267781e-005
      -2.31847462e-005 -1.89011407e-004 -2.64902395e-004
      -2.78884196e-004 -1.46108840e-004 -3.41851046e-005 8.68091374e-005
      1.99795802e-004 1.55543719e-004 4.76660753e-005 -1.23934879e-004
      -2.83193658e-004 -1.26781568e-004 2.30798796e-005 9.88451802e-007
      -3.08981180e-005 4.69761544e-005 1.05931831e-004 2.36241191e-004
      2.17275374e-004 2.71981378e-004 1.50356238e-004 -5.64291440e-006
      -2.10538739e-004 -2.70538003e-004 -1.70607876e-004 2.64234004e-005
      8.70199801e-005 6.58094286e-005 8.61067092e-005 3.35742061e-006
      -3.09902425e-005 -2.55434247e-006 1.01971928e-004 1.35712369e-004
      2.21801383e-005 -1.40195785e-004 -2.56995409e-004 -2.17152818e-004
      -8.27695185e-005 4.48432365e-005 -1.14607165e-005 -4.92797553e-005
      -1.06094391e-004 -1.31829205e-004 -4.19741555e-005 7.38332892e-005
      5.76252751e-005 -5.63997564e-005 2.67109626e-005 9.36539509e-005
      1.02218532e-004 -6.37847770e-005 -1.69670748e-004 -4.04834245e-005
      3.97054973e-005 4.68500439e-005 -3.10195173e-005 -1.43258410e-004
      -1.55344474e-004 -9.32822732e-005 -7.80291812e-005
      -5.07871118e-005 2.25626864e-005 5.83742221e-005 -2.01734183e-005
      -3.99265155e-005 5.26278127e-005 6.53287934e-005 1.16541160e-004
      4.31336412e-005 1.85889457e-005 -9.94020957e-005 1.13922333e-005
      3.33911768e-004 2.64141214e-004 1.52297274e-004 -5.73540274e-005
      -7.41334879e-005 1.26697938e-004 3.09803756e-004 1.93593645e-004
      -3.25511937e-005 -8.14559899e-005 -1.17140451e-004
      -1.09890374e-004 -9.75181756e-005 -1.23582955e-004 1.68160041e-005
      7.93498621e-005 1.82849995e-004 1.29602588e-004 1.74638539e-004
      2.80006469e-004 1.97179572e-004 5.11698163e-005 7.58743408e-005
      5.40248475e-005 -4.95551285e-005 -1.28750413e-004 -6.89948647e-005
      -1.89386737e-005 -6.01495449e-005 -1.76683970e-004
      -1.15175979e-004 -9.16754561e-006 -8.36282052e-005
      -1.51860324e-004 -1.90499952e-004 -2.18895002e-004
      -1.10295863e-004 -4.58909562e-005 -1.30631917e-004
      -1.18803116e-004 1.37244833e-005 6.54744144e-005 7.17491275e-005
      7.89301630e-005 3.81697755e-005 -1.52963312e-005 8.30072095e-005
      5.87530594e-005 1.56680981e-005 -7.46277656e-005 -1.09703811e-004
      -3.28134483e-005 1.52469365e-004 1.84568955e-004 1.56159920e-004
      8.69802170e-005 -6.53996176e-005 1.83460706e-005 6.49141512e-005
      2.04835655e-004 1.02740210e-004 3.37190977e-005 2.45208576e-005
      -1.02744983e-004 -2.44311872e-004 -2.76874751e-004
      -1.77017107e-004 -8.90039955e-005 4.74040062e-005 1.74236920e-004
      5.66044400e-005 -1.12486683e-004 -2.34436971e-004 -3.13651108e-004
      -1.68402199e-004 -5.20098947e-005 -1.52428402e-004
      -1.07713728e-004 -2.24012947e-005 9.55159157e-006 8.22449074e-005
      1.32877220e-004 2.55551015e-004 1.76514062e-004 -3.00949741e-005
      -2.37686676e-004 -2.61043053e-004 -6.02558284e-005 1.34693473e-004
      7.90247141e-005 -4.43166869e-007 8.73410590e-006 -2.29148054e-006
      3.34748038e-005 -1.42415010e-005 1.33803724e-006 4.39844844e-005
      -1.03401871e-004 -2.98258936e-004 -3.99295532e-004
      -2.72716716e-004 1.57502036e-005 1.34146088e-004 9.73325441e-005
      1.13944247e-004 1.05171275e-004 3.67719476e-005 4.63208016e-006
      1.46876182e-005 -1.82147814e-005 -4.49345534e-005 4.30014188e-005
      1.42091580e-004 1.58242110e-004 1.92183094e-007 -9.64361971e-005
      -7.94411517e-006 3.62630526e-005 3.66840832e-005 -1.75504774e-005
      -9.18838123e-005 -5.26459007e-005 -1.25733668e-005
      -1.94658624e-005 -4.81675052e-005 -3.86077154e-005 7.93848158e-005
      1.71405773e-005 4.03877093e-005 1.10715730e-004 1.11013767e-004
      1.53958841e-004 6.12275981e-005 4.73167202e-005 -4.13234884e-005
      7.66002486e-005 3.98514007e-004 3.31374555e-004 1.67379927e-004
      -7.71819687e-005 -3.91945141e-005 1.55763904e-004 3.42679006e-004
      1.98174122e-004 6.48111163e-005 4.26253137e-005 -3.80211313e-005
      -1.03444436e-004 -1.16321193e-004 -3.82626659e-008 1.23582897e-004
      7.50735053e-005 7.32832123e-005 -1.13573260e-005 1.09874738e-004
      2.78153777e-004 1.94902634e-004 1.25837041e-005 -1.55358521e-005
      6.08515038e-005 6.88512664e-005 -7.44001518e-005 -9.88699830e-005
      -8.67662529e-005 -1.46976352e-004 -2.34730251e-004
      -1.65148798e-004 -5.68332944e-005 -1.35619048e-004
      -2.51208578e-004 -2.94064579e-004 -3.12961085e-004
      -1.71666354e-004 -1.71476677e-005 6.16109974e-005 1.01485464e-004
      7.11109678e-005 6.34298340e-006 2.23230963e-005 8.10955680e-005
      3.01154651e-005 -5.03355695e-005 3.41274790e-006 1.51897366e-005
      6.19378698e-005 -6.69744768e-005 -1.10393565e-004 -1.70489548e-005
      1.22301833e-004 1.00986763e-004 7.52688138e-005 -4.86107774e-006
      -1.41316646e-004 -1.36909628e-004 -7.28083178e-005 1.41060955e-004
      1.47439641e-004 1.05508188e-004 1.03736405e-004 -4.51298692e-005
      -1.66050988e-004 -1.71814114e-004 -3.72128306e-005
      -4.75375018e-005 8.33945160e-005 1.92062726e-004 8.52951198e-005
      -1.40862408e-004 -2.33390412e-004 -2.29295649e-004
      -9.05353299e-005 4.92606741e-005 -6.09562012e-005 -1.17686053e-004
      -1.27582403e-004 -8.92425887e-005 1.09721905e-005 -2.63207839e-005
      3.91943286e-005 3.86816719e-005 1.60295367e-005 -1.29750741e-004
      -7.05633647e-005 1.94235734e-004 3.67797358e-004 1.58967887e-004
      -2.76675491e-005 -5.12420083e-005 -6.03397057e-005
      -1.42812014e-005 -7.70885017e-005 -7.03737824e-005
      -5.36859989e-005 -1.96360488e-004 -2.95003614e-004
      -3.13325319e-004 -2.44886207e-004 -4.83655676e-005 4.39221221e-005
      8.65761904e-005 2.06339842e-004 2.70832621e-004 2.28738951e-004
      1.83511351e-004 1.42407516e-004 2.47110802e-005 -4.64050754e-005
      -4.12637055e-005 3.41449631e-005 1.38188261e-004 8.71821903e-005
      2.69794109e-005 4.28202438e-005 3.26668487e-005 6.35107426e-005
      4.39606192e-005 -2.07963367e-005 -3.12372867e-005 -7.22366458e-005
      -1.14063798e-004 -1.55161702e-004 -5.78248801e-005 4.36509836e-005
      2.79414980e-005 1.65864240e-005 6.08607370e-005 1.05801140e-004
      1.17536452e-004 2.85612095e-005 5.39793182e-005 7.38420022e-006
      1.51525892e-004 4.11565066e-004 3.20298685e-004 1.07648928e-004
      -1.15452218e-004 1.57758914e-005 1.97842499e-004 3.37926234e-004
      2.34612700e-004 1.17317315e-004 7.44188073e-005 2.37141485e-005
      -8.32082151e-005 -1.16706564e-004 -2.43087434e-005 8.11353457e-005
      8.28782795e-005 7.90622216e-005 -6.49693466e-005 7.98953988e-005
      2.78257881e-004 2.93578370e-004 1.80682255e-004 1.19709774e-004
      1.14183305e-004 1.37256196e-004 2.13731782e-005 -1.10038425e-004
      -1.75754496e-004 -2.35386658e-004 -2.99900683e-004
      -1.74132583e-004 -2.96342077e-005 -3.28955393e-005
      -7.22341356e-005 -8.95924095e-005 -5.04701202e-005 4.17766496e-005
      1.23923499e-004 1.98339447e-004 1.80843723e-004 7.22815166e-005
      -2.34101867e-006 -5.52497331e-005 -6.16653779e-005
      -8.67085619e-005 -1.37417519e-004 -7.26176659e-005
      -2.63845923e-005 -1.86159268e-005 -5.13550913e-005
      -1.10763976e-004 -3.62848987e-005 3.56676428e-005 -1.13125479e-005
      -2.87393159e-005 -2.06268123e-005 -1.61485048e-004
      -1.95163404e-004 -1.55488364e-004 6.43970707e-005 1.99916540e-004
      1.83998607e-004 8.22394650e-005 -9.09576011e-006 -8.42846348e-005
      -1.36459512e-005 6.36054174e-005 2.33640867e-006 1.28392581e-004
      2.52510479e-004 1.27019724e-004 -2.91361212e-005 -1.22133206e-004
      -1.62252778e-004 -2.96554863e-005 1.29774053e-004 6.41529186e-005
      -3.98131015e-005 -6.42136147e-005 -5.53736900e-005 4.39027863e-005
      9.72935959e-005 3.93466726e-005 5.55020379e-005 1.07742882e-004
      7.07271101e-005 1.77927766e-004 3.80958576e-004 4.43384459e-004
      1.97690970e-004 -5.05446042e-006 -6.48134665e-005 -1.05663887e-004
      -8.47711781e-005 -1.02379759e-004 -3.89397464e-005
      -7.12959663e-005 -1.66162266e-004 -1.29863678e-004
      -4.03069862e-005 -3.38613354e-005 2.52587361e-005 -8.26750256e-005
      -6.14846795e-005 1.35645270e-004 2.67578929e-004 2.89192278e-004
      3.06616712e-004 2.21021255e-004 1.20171848e-004 -1.02833365e-004
      -1.85948200e-004 -1.22853671e-004 -2.89082755e-006 5.55641163e-005
      5.68019750e-005 -3.67293092e-006 2.14432093e-005 5.80850028e-005
      5.57656313e-005 2.87469684e-005 4.01235011e-005 -4.11624715e-005
      -1.91754603e-004 -2.03159580e-004 -4.23354868e-005 1.06677668e-004
      6.05317728e-005 4.48288156e-005 4.81269672e-005 6.30776995e-005
      4.60413539e-005 2.49363929e-005 3.83174083e-005 8.37788684e-005
      2.81165238e-004 4.76350164e-004 2.39375324e-004 2.08989077e-005
      -1.30490967e-004 8.37751431e-005 3.18285514e-004 3.74312047e-004
      2.08281155e-004 3.31199662e-005 8.52041048e-005 8.88485520e-005
      3.13478522e-005 2.94349297e-006 -6.51721784e-005 -9.13782496e-005
      4.63808792e-005 1.56899463e-004 2.31138656e-005 1.35860231e-004
      2.60404428e-004 2.42992581e-004 1.58952287e-004 1.72758228e-004
      1.02434322e-004 2.26839675e-005 -3.57623430e-005 -1.51167318e-004
      -2.03864256e-004 -2.80291133e-004 -2.36768450e-004
      -7.40042233e-005 6.04992165e-005 1.50263571e-004 1.03636346e-004
      3.23185741e-005 3.47913810e-005 8.10281635e-005 8.04468436e-005
      2.23187526e-005 -4.17103729e-005 -7.33857596e-005 -8.14740270e-005
      -5.62915375e-005 -7.51791304e-005 -1.55682414e-004
      -1.59567862e-004 3.85846397e-005 7.05333587e-005 2.51225828e-007
      -6.51516984e-006 -2.92323130e-005 -1.63987079e-005 4.52919485e-005
      5.51280100e-005 3.85290514e-005 4.77593094e-005 -4.01754114e-005
      -8.63168170e-005 -1.06729531e-004 3.05952672e-005 1.55134621e-004
      1.72547065e-004 8.77460698e-005 -1.48856743e-005 -5.47949203e-005
      6.27166010e-005 4.96525499e-005 -2.15716536e-005 1.05252439e-004
      1.93536325e-004 7.83082578e-005 -4.12995105e-005 -1.52446257e-004
      -1.99254457e-004 -5.81351524e-005 6.13390439e-005 -3.96371433e-006
      -7.39259194e-005 -4.04978164e-005 -6.70246882e-005
      -1.93716696e-005 7.05456405e-005 -1.56213791e-005 -4.80449053e-005
      2.24724045e-005 1.02968515e-004 2.01054732e-004 3.49033071e-004
      3.76577285e-004 1.64618599e-004 1.33870644e-005 -7.34755158e-005
      -8.13649676e-005 -7.64249853e-005 -5.94459270e-005
      -6.57198470e-005 -2.03910124e-004 -2.03348871e-004
      -1.25475271e-004 1.93286814e-005 5.84402042e-005 -3.98305201e-005
      -2.09129445e-004 -2.75010651e-004 -9.78387834e-005 9.26512221e-005
      1.67405058e-004 2.02120922e-004 1.69801584e-004 9.01774765e-005
      -1.47360901e-004 -2.66233721e-004 -2.33951592e-004
      -1.41579061e-004 -2.99355088e-005 4.87081616e-006 -6.44004613e-005
      -6.84296247e-005 -2.19111316e-005 4.54639085e-005 9.18312871e-005
      9.58094461e-005 -2.55990617e-005 -1.83824770e-004 -1.39323267e-004
      9.18766673e-005 2.55935214e-004 1.74481553e-004 1.25602572e-004
      3.75360905e-005 3.08583622e-005 2.52441478e-005 -3.20416548e-005
      1.35285445e-005 1.51726621e-004 4.11608198e-004 5.73461759e-004
      1.45131082e-004 -9.62481136e-005 -1.82693155e-004 1.33909329e-004
      4.17168863e-004 3.92979302e-004 1.15812320e-004 -9.31655231e-005
      6.17724872e-005 1.23700374e-004 1.10602297e-004 2.13483669e-004
      1.25719234e-004 4.39721771e-006 9.35222706e-005 1.65410034e-004
      9.33519623e-005 1.66781785e-004 2.02938623e-004 5.52507081e-005
      -3.36332450e-005 -3.38872223e-006 7.47878876e-005 7.26197031e-005
      1.28127167e-005 -1.04786362e-004 -1.78549744e-004 -2.22208924e-004
      -2.07832098e-004 -7.84287549e-005 -6.79058139e-005 1.56678052e-005
      -1.40624479e-006 -1.22199184e-004 -1.72691260e-004
      -1.76838977e-004 -1.72044427e-004 -2.87028961e-004
      -3.09775234e-004 -2.52633065e-004 -1.62188997e-004
      -1.02359292e-004 -8.98816361e-005 -1.36811432e-004
      -1.04288534e-004 9.90324188e-005 1.85650468e-004 1.51068729e-004
      7.90040285e-005 8.56497063e-005 8.18178378e-005 5.08640042e-005
      1.50756739e-006 2.14851643e-005 2.61953082e-005 1.23449854e-005
      -3.74498559e-005 -1.63383971e-004 -9.82280690e-005 4.01469770e-005
      1.49301151e-004 1.71976208e-004 6.76474519e-005 1.17747968e-005
      1.94191998e-005 -4.98518566e-005 -1.69344508e-004 -1.12083340e-004
      3.66381355e-005 -4.94074902e-006 -1.23369668e-004 -2.30426071e-004
      -2.81052373e-004 -1.05825566e-004 -3.89982051e-006
      -1.68614817e-004 -2.49273231e-004 -1.86955047e-004
      -1.12250025e-004 -1.06705033e-004 -9.45643624e-005
      -1.52816385e-004 -1.97868314e-004 -9.17004072e-005 6.66091946e-005
      1.16036688e-004 1.13607741e-004 6.26491310e-005 3.82277467e-005
      -3.39814651e-005 -3.34610231e-005 6.02200707e-005 9.94527509e-005
      4.48678657e-005 -6.68221983e-005 -2.11342951e-004 -2.27948403e-004
      -1.95585089e-004 -3.39516882e-005 5.87378236e-006 -7.64599099e-006
      -1.19288539e-004 -2.13525956e-004 -8.97978971e-005
      -1.55770904e-005 5.59400287e-005 8.02044378e-005 1.40190008e-004
      1.41730838e-004 -5.10726677e-005 -1.86251724e-004 -1.64392855e-004
      -1.24510852e-005 4.62272828e-006 -6.03938752e-005 -1.30448156e-004
      -1.46156875e-004 -3.41303894e-005 9.24576452e-005 1.52210428e-004
      2.16361703e-004 5.10703067e-005 -1.28164393e-004 -6.12147051e-005
      1.69759194e-004 3.36456054e-004 2.74316553e-004 1.80109331e-004
      4.66305319e-005 -4.92517756e-005 3.70328999e-005 6.39621940e-005
      1.11329864e-004 2.30834907e-004 4.64336772e-004 5.88032475e-004
      1.19414282e-004 -1.14275288e-004 -1.24108716e-004 2.16214496e-004
      4.89103375e-004 4.29664884e-004 1.08030625e-004 -7.65820223e-005
      1.12624148e-005 8.26053656e-005 8.64935209e-005 2.07388613e-004
      2.35733431e-004 2.04197626e-004 2.05705874e-004 1.11363770e-004
      5.42498128e-005 2.12906874e-004 2.37645596e-004 6.79257137e-005
      -4.46005433e-005 -7.88558245e-005 7.52888518e-005 1.76578731e-004
      1.92658845e-004 6.49712529e-005 -1.66804875e-006 -4.41698467e-005
      -5.63930953e-005 -1.26630630e-005 -4.68105827e-005
      -4.20811666e-005 -1.49692220e-004 -2.39385263e-004
      -2.64894770e-004 -2.24651420e-004 -1.84757955e-004
      -2.60732690e-004 -2.88545853e-004 -2.70006800e-004
      -1.92124789e-004 -1.23087157e-004 -4.01312682e-005
      -3.77084107e-005 -8.51990626e-006 1.85833924e-004 2.97737162e-004
      2.92150158e-004 1.41850382e-004 2.58959280e-005 6.12379736e-005
      3.66402382e-005 -8.67615454e-005 -6.75579358e-005 -9.96180916e-006
      -3.91582798e-005 -9.06924179e-005 -1.83943353e-004
      -1.64193523e-004 4.81681400e-006 1.69747436e-004 2.16607325e-004
      1.73471635e-004 7.15872447e-005 3.89149027e-005 -9.38782468e-005
      -2.20188536e-004 -1.67598308e-004 -1.22671103e-004
      -1.93405591e-004 -2.37857588e-004 -2.86606257e-004
      -2.39329413e-004 9.99493059e-005 2.50955200e-004 -1.22579686e-005
      -1.94171647e-004 -1.43052472e-004 -6.61077429e-005 2.37184049e-005
      -3.46973229e-006 -7.71090999e-005 -1.01268728e-004
      -2.15655255e-005 6.32371375e-005 -6.82672351e-007 -1.10279339e-004
      -1.14501730e-004 -6.76494019e-005 -7.44598656e-005 4.96775174e-005
      1.99258575e-004 2.37994725e-004 8.36388790e-005 -7.19162836e-006
      -9.43943305e-005 -1.56382739e-004 -7.43231940e-005 8.15161111e-005
      1.34845424e-004 1.79261973e-004 1.25656632e-004 -2.56066642e-006
      4.49708580e-007 2.91920583e-006 6.62371385e-005 1.18982862e-004
      2.53252307e-004 3.10627423e-004 1.94540713e-004 1.09652276e-004
      1.08758271e-004 1.00929974e-004 -6.77609059e-005 -2.09226419e-004
      -2.39384535e-004 -1.71493739e-004 -5.87698851e-005 8.87551141e-005
      1.75642621e-004 2.31792059e-004 1.38285221e-004 -5.13334562e-005
      -7.46808801e-005 5.57656385e-005 2.13152292e-004 2.09244550e-004
      1.22964877e-004 3.10071773e-005 -4.16463899e-006 9.00808955e-005
      1.64580633e-004 1.59625517e-004 2.07189456e-004 4.03561862e-004
      5.40886656e-004 1.67820108e-004 -3.72793920e-006 4.28849080e-006
      2.93934281e-004 4.91747633e-004 3.81457183e-004 8.40052162e-005
      -4.25950748e-005 -1.03496013e-005 1.91331746e-005 -7.72512067e-005
      -3.08853523e-005 9.23186672e-005 9.48676825e-005 6.26016335e-005
      2.19936701e-005 7.53395852e-006 4.06317267e-005 4.19634016e-005
      -4.26925690e-005 -9.24178894e-005 -9.15469936e-005
      -7.71205960e-005 2.87751409e-005 9.12677497e-005 -1.00202778e-005
      -6.46193439e-005 -2.91229753e-005 -3.04668010e-005 5.16030923e-005
      5.78982654e-005 -3.40325860e-005 -1.76931848e-004 -1.90602688e-004
      -1.12581234e-004 -3.69719487e-007 7.77586592e-006 -7.37155497e-005
      -9.92710193e-005 -1.54244903e-004 -1.47619066e-004
      -1.49675587e-004 -6.33973104e-005 -4.37074050e-005
      -9.87489148e-006 1.17444637e-004 2.51916848e-004 2.97495280e-004
      2.07460180e-004 2.92973127e-005 4.76315108e-005 3.09711031e-005
      -1.36501127e-004 -1.37318348e-004 1.25906463e-005 5.72788522e-005
      -3.99355213e-006 -6.50696529e-005 -2.86157665e-005 1.16338902e-004
      1.82376461e-004 1.39715354e-004 1.58565017e-004 7.79544134e-005
      8.34261737e-005 -3.14506833e-005 -1.56961003e-004 -2.02641648e-004
      -2.26240183e-004 -2.86127673e-004 -1.85305980e-004
      -1.60964293e-004 3.86893371e-005 3.82371712e-004 4.59713803e-004
      1.82304633e-004 -3.47329114e-005 -5.52473430e-005 1.38519281e-005
      1.55427537e-004 1.79551906e-004 1.55408212e-004 1.52316381e-004
      1.68815895e-004 1.53221044e-004 -1.64750588e-006 -1.18123971e-004
      -1.37907569e-004 -1.25276580e-004 -7.29733292e-005 1.19579981e-005
      6.98501462e-005 1.12788148e-004 4.63902288e-005 9.92908281e-006
      9.98490850e-006 7.86886230e-005 1.13711903e-004 1.60946045e-004
      1.58427050e-004 1.82787320e-004 1.87025697e-004 1.23895961e-005
      -5.96438367e-005 3.21983825e-005 6.71436210e-005 5.22035043e-005
      8.52085941e-005 4.53592729e-005 1.45418117e-005 -2.72748275e-005
      -1.24593071e-005 -3.58707766e-005 -1.36822404e-004
      -2.28383738e-004 -2.02056282e-004 -8.18064800e-005
      -2.40702975e-005 -5.52744532e-005 -6.74555440e-006 7.99268091e-005
      1.04576531e-004 -5.59202563e-005 -1.51549742e-004 -7.14111011e-005
      5.57304411e-005 6.48985369e-005 5.36348998e-005 1.07741380e-006
      -1.14013892e-006 1.75881898e-004 3.00492509e-004 2.44027382e-004
      1.56535840e-004 3.07507784e-004 4.84361080e-004 2.52545869e-004
      1.14442868e-004 1.22477810e-004 3.44129861e-004 4.17424220e-004
      3.48270521e-004 1.59474745e-004 6.85381601e-005 -2.85568308e-006
      -7.58132373e-005 -1.08221539e-004 -3.92621732e-005 8.83286430e-006
      -4.01458092e-005 -2.84262860e-005 -5.20770882e-005
      -6.52735398e-005 -2.67887153e-005 -9.81370758e-005
      -2.37906570e-004 -2.59151304e-004 -2.47683987e-004
      -2.51981925e-004 -1.91180108e-004 -1.54392590e-004
      -1.36359304e-004 -1.38211311e-004 -9.97568059e-005
      -4.44401267e-005 7.16605209e-005 4.27054474e-005 -8.17481123e-005
      -1.78989052e-004 -1.22266483e-005 1.98800350e-004 3.42227926e-004
      3.66676686e-004 3.15675163e-004 1.64726924e-004 7.64589786e-005
      1.17424366e-004 2.03793621e-004 1.14599694e-004 -4.26640872e-005
      -6.45390319e-005 2.56426034e-007 1.60424301e-004 2.13407955e-004
      1.51878237e-004 7.05202692e-005 6.27396639e-006 -7.02482212e-005
      -1.72439803e-004 -1.89112048e-004 -5.75199192e-005 6.40404469e-005
      1.00187863e-004 8.29157070e-005 9.31543982e-005 8.43626258e-005
      5.40296787e-005 2.75627044e-005 2.41353173e-005 1.22479005e-005
      6.68348221e-005 5.35397921e-005 -2.80162985e-005 -1.01594029e-004
      -1.64220226e-004 -2.17207096e-004 -1.08073182e-004 2.65152030e-005
      2.71327968e-004 3.89273278e-004 3.47062247e-004 1.08688888e-004
      -9.21566607e-006 8.43655071e-005 2.37060944e-004 2.75127037e-004
      2.26100354e-004 1.69028674e-004 1.40520715e-004 2.10254846e-004
      2.17769440e-004 5.73333382e-005 -1.13297378e-004 -1.58308947e-004
      -1.34496222e-004 -1.80599440e-004 -2.20487287e-004
      -1.39753203e-004 -7.10702298e-005 -7.33003326e-005
      -4.91917199e-005 -5.41062150e-007 1.08370463e-004 1.96360284e-004
      1.64663681e-004 1.72736502e-004 1.80165982e-004 1.53515386e-004
      7.59717659e-005 -1.56046171e-005 5.47653763e-005 1.15178613e-004
      4.00678255e-005 -5.03914634e-005 -7.98621550e-005 -1.38871587e-006
      8.48320778e-005 2.92881050e-005 -7.08675070e-005 -1.41886805e-004
      -1.56004724e-004 -1.07391774e-004 -1.21484605e-004
      -1.68787810e-004 -2.09619073e-004 -2.11504259e-004
      -1.23581834e-004 -8.61525114e-005 -1.86430378e-004
      -2.25237658e-004 -1.78949005e-004 -5.54637409e-005
      -1.58232069e-005 2.97574243e-005 1.80170191e-005 9.39117454e-005
      1.78563423e-004 3.36732308e-004 2.79540400e-004 1.75378213e-004
      2.88396841e-004 4.48334613e-004 3.93505412e-004 2.27138298e-004
      2.20253176e-004 3.85977473e-004 3.45009932e-004 1.61098375e-004
      3.83775705e-006 -3.83524130e-005 -1.13317226e-004 -1.52536973e-004
      -1.73487657e-004 -9.74757349e-005 3.79255971e-006 -2.55297309e-005
      -2.64515202e-005 -2.04445550e-005 -3.59330370e-005
      -8.41505462e-005 -2.04895536e-004 -3.39850201e-004
      -3.87052773e-004 -3.88227258e-004 -3.47575755e-004
      -2.40491441e-004 -1.17889816e-004 -4.40391668e-005
      -1.69286031e-005 8.10981965e-006 2.00005052e-005 4.60261908e-005
      -2.36007836e-005 -1.85560872e-004 -1.89442042e-004
      -1.91469621e-006 2.33606261e-004 3.84904939e-004 4.16491792e-004
      3.90586938e-004 2.64594419e-004 1.85102734e-004 1.84912860e-004
      1.86029152e-004 1.27956528e-005 -1.88947160e-004 -2.08065103e-004
      -9.21710671e-005 4.47042439e-005 8.29377241e-005 8.20045170e-005
      8.12257567e-005 -1.40716238e-005 -1.04275277e-004 -1.35039692e-004
      -8.38997876e-005 -4.19961907e-005 -2.89047548e-005
      -2.19603717e-005 2.15935561e-005 6.99540687e-005 1.98911057e-005
      -2.99191615e-005 -5.07776895e-005 -6.20699138e-005
      -9.49190726e-005 -1.37894913e-005 2.84084654e-005 5.13661944e-005
      5.25253963e-005 3.17516242e-006 -2.77387808e-005 5.04374002e-005
      1.62907483e-004 3.53133073e-004 3.31037532e-004 1.97295827e-004
      7.33012057e-005 8.11939390e-005 2.14933403e-004 2.70971359e-004
      2.38810884e-004 1.32876332e-004 5.57681597e-005 3.09965835e-005
      1.16173032e-004 1.27978419e-004 3.88854714e-005 -4.65666562e-005
      -8.60542787e-005 -3.46900524e-005 -8.34007078e-005
      -1.24694183e-004 -9.14054253e-005 -5.22666560e-005
      -1.04517872e-004 -1.11932932e-004 -1.03796629e-004
      -5.05269527e-005 3.93755399e-005 2.83592835e-005 9.37668374e-005
      1.32448215e-004 9.39834499e-005 4.88697915e-005 5.19382411e-006
      1.29873642e-005 6.07282782e-005 2.46206400e-006 -1.63715522e-005
      -2.52918326e-005 3.49860129e-005 7.23917474e-005 1.28329639e-005
      -8.62546149e-005 -1.27744090e-004 -9.81790145e-005
      -9.40382743e-005 -1.88523947e-004 -2.36082764e-004
      -2.96952407e-004 -3.23472719e-004 -3.09040886e-004
      -2.44791707e-004 -2.40741720e-004 -2.24875548e-004
      -1.56017486e-004 -1.24210390e-004 -7.17936200e-005
      -4.09918357e-005 1.78392165e-005 9.48702382e-006 4.02302212e-005
      1.35244656e-004 1.80357543e-004 1.73900698e-004 2.92164332e-004
      4.48776380e-004 4.28324623e-004 2.84485635e-004 2.59180670e-004
      3.60364298e-004 3.08292947e-004 5.49406832e-005 -9.52968476e-005
      -1.57989489e-004 -1.82881413e-004 -2.22265531e-004
      -2.66032352e-004 -2.57308100e-004 -2.01900562e-004
      -1.90072780e-004 -1.49307773e-004 -1.25181585e-004
      -1.37204595e-004 -1.82969001e-004 -2.14308937e-004
      -2.29137790e-004 -2.39779227e-004 -2.49036471e-004
      -2.40673762e-004 -1.78631104e-004 -1.49210842e-004
      -1.04618302e-004 -8.02990326e-005 -5.34773390e-005
      -2.06598779e-005 3.51067611e-005 -2.70731452e-005 -1.48131527e-004
      -1.59927877e-004 -4.42996970e-005 6.46920162e-005 1.40116914e-004
      1.86743622e-004 1.59452698e-004 7.82641073e-005 5.46592264e-006
      -6.34734970e-005 -7.22715558e-005 -2.61273555e-004
      -4.33535635e-004 -3.51091789e-004 -1.63224962e-004 1.51379595e-006
      6.16223551e-005 1.69541876e-004 1.81535550e-004 2.75188650e-005
      -4.22207777e-005 -1.63688253e-006 4.09835411e-006 1.83457871e-006
      -8.77062048e-005 -1.32932968e-004 -8.23420050e-005
      -1.81233045e-005 -5.84812842e-005 -1.13019436e-004
      -1.22516940e-004 -1.19143740e-004 -1.25398699e-004
      -7.37770897e-005 -2.36264623e-005 3.17181002e-005 8.22590209e-006
      -3.53328105e-005 -2.87851017e-005 6.41589213e-005 1.62056531e-004
      2.03987889e-004 1.55630245e-004 3.03323577e-005 -1.78455975e-005
      4.25244216e-005 2.04064185e-004 1.43602490e-004 7.76715897e-005
      2.34060099e-005 -2.08133898e-007 1.60500003e-005 7.59932445e-005
      8.73784666e-005 1.23880463e-005 -5.03586816e-005 -5.91087191e-005
      1.50732212e-005 -2.39490564e-005 -8.61113731e-005 -8.17109903e-005
      -7.79174079e-005 -1.41545039e-004 -1.44207908e-004
      -1.33901063e-004 -1.15672548e-004 -3.72419709e-005
      -5.38778586e-005 -2.31697286e-005 1.76006070e-005 -2.36924870e-006
      -2.48184006e-005 -7.11534667e-005 -6.25479079e-005
      -1.79178387e-005 -3.03473062e-005 1.27391577e-005 2.25027270e-005
      4.47071034e-005 2.52630725e-005 -5.37783308e-005 -1.05118786e-004
      -3.85932108e-005 -4.56951093e-005 -9.27155779e-005
      -1.87795362e-004 -2.19208814e-004 -2.33744955e-004
      -2.52652710e-004 -2.21513532e-004 -1.90236358e-004
      -1.59771138e-004 -9.53756098e-005 -2.35702355e-005
      -3.15967009e-005 -4.41438242e-005 -7.50657682e-006 5.93807417e-005
      5.40004585e-005 4.56550479e-005 1.12166912e-004 1.37582014e-004
      1.58477298e-004 2.78330204e-004 4.41341457e-004 3.89391818e-004
      2.78594875e-004 2.64302333e-004 3.13436321e-004 2.84618814e-004
      1.93748536e-004 6.84166371e-005 -2.26226020e-005 -5.45555558e-005
      -1.17049050e-004 -1.83831362e-004 -1.94932232e-004
      -1.87071986e-004 -1.74303146e-004 -1.28673390e-004
      -1.43397672e-004 -1.76798727e-004 -1.85301105e-004
      -1.45890372e-004 -9.44653802e-005 -6.10909701e-005
      -6.46498229e-005 -5.41188347e-005 -1.32024998e-005
      -8.67677445e-005 -1.14956769e-004 -1.00517500e-004
      -1.04264844e-004 -5.72150238e-005 -1.65150905e-005
      -9.09467853e-005 -1.91583298e-004 -1.56791022e-004
      -8.95154299e-005 -7.01408862e-005 -7.40900432e-005
      -7.06295832e-005 -8.81972082e-005 -1.39628479e-004
      -1.23902777e-004 -1.39211945e-004 -1.38285075e-004
      -2.28352088e-004 -2.66765594e-004 -1.53417321e-004
      -1.25072065e-005 9.44955245e-005 1.22976227e-004 1.85082376e-004
      1.61507123e-004 1.51825961e-005 -1.33663552e-005 1.29709124e-005
      3.05049216e-005 -3.67618341e-005 -1.20391691e-004 -1.51165514e-004
      -1.66002923e-004 -1.20694145e-004 -1.67392689e-004
      -2.28539342e-004 -2.28350138e-004 -1.69352774e-004
      -1.02429331e-004 3.57888098e-006 1.12858186e-004 1.20858516e-004
      5.83156107e-005 -3.49580041e-005 -5.44366485e-005 3.69388836e-005
      1.36817194e-004 1.15802453e-004 1.12179347e-004 4.70160958e-005
      3.93747177e-005 1.36483693e-004 1.80597286e-004 1.22017438e-004
      4.10152788e-005 -4.11760848e-005 -8.81239794e-006 4.94964770e-005
      1.29594322e-004 1.50708496e-004 8.80686930e-005 3.63879444e-005
      3.18811071e-005 9.14781631e-005 4.65017547e-005 -3.40863444e-005
      -6.24080276e-005 -6.83148392e-005 -6.05000932e-005
      -2.18504210e-005 2.98750092e-006 -1.92264051e-005 2.84693251e-005
      8.95454104e-006 2.06829955e-005 5.32503254e-005 7.70259139e-005
      5.07990371e-005 -1.41533410e-005 -4.75282068e-005 -1.12206426e-005
      1.70203857e-005 4.48112514e-005 2.94777765e-005 -7.99974202e-008
      -1.78585960e-005 -2.60815141e-005 5.52714919e-005 9.14049233e-005
      1.23726597e-004 5.82974135e-005 -8.40325185e-007 4.15480827e-005
      3.15115794e-005 6.07604397e-006 -3.92636794e-005 -4.32654997e-005
      -5.15105348e-005 2.49975401e-005 1.21502489e-004 1.53511748e-004
      1.70351253e-004 2.21089911e-004 2.40882844e-004 2.18645117e-004
      2.09177131e-004 2.80854350e-004 2.93836958e-004 2.59859109e-004
      3.41555977e-004 4.98118403e-004</_></support_vectors>
  <decision_functions>
    <_>
      <sv_count>1</sv_count>
      <rho>1.7075937190687973e+000</rho>
      <alpha>
        1.</alpha>
      <index>
        0</index></_></decision_functions></my_svm>
</opencv_storage>
